{"learner":{"attributes":{"scikit_learn":"{\"_estimator_type\": \"classifier\"}"},"feature_names":["A1","A4","Social_Responsiveness_Scale","Age_Years","Qchat_10_Score","Genetic_Disorders","Sex","Family_mem_with_ASD"],"feature_types":["float","float","float","float","float","int","int","int"],"gradient_booster":{"model":{"cats":{"enc":[],"feature_segments":[],"sorted_idx":[]},"gbtree_model_param":{"num_parallel_tree":"1","num_trees":"500"},"iteration_indptr":[0,1,2,3,4,5,6,7,8,9,10,11,12,13,14,15,16,17,18,19,20,21,22,23,24,25,26,27,28,29,30,31,32,33,34,35,36,37,38,39,40,41,42,43,44,45,46,47,48,49,50,51,52,53,54,55,56,57,58,59,60,61,62,63,64,65,66,67,68,69,70,71,72,73,74,75,76,77,78,79,80,81,82,83,84,85,86,87,88,89,90,91,92,93,94,95,96,97,98,99,100,101,102,103,104,105,106,107,108,109,110,111,112,113,114,115,116,117,118,119,120,121,122,123,124,125,126,127,128,129,130,131,132,133,134,135,136,137,138,139,140,141,142,143,144,145,146,147,148,149,150,151,152,153,154,155,156,157,158,159,160,161,162,163,164,165,166,167,168,169,170,171,172,173,174,175,176,177,178,179,180,181,182,183,184,185,186,187,188,189,190,191,192,193,194,195,196,197,198,199,200,201,202,203,204,205,206,207,208,209,210,211,212,213,214,215,216,217,218,219,220,221,222,223,224,225,226,227,228,229,230,231,232,233,234,235,236,237,238,239,240,241,242,243,244,245,246,247,248,249,250,251,252,253,254,255,256,257,258,259,260,261,262,263,264,265,266,267,268,269,270,271,272,273,274,275,276,277,278,279,280,281,282,283,284,285,286,287,288,289,290,291,292,293,294,295,296,297,298,299,300,301,302,303,304,305,306,307,308,309,310,311,312,313,314,315,316,317,318,319,320,321,322,323,324,325,326,327,328,329,330,331,332,333,334,335,336,337,338,339,340,341,342,343,344,345,346,347,348,349,350,351,352,353,354,355,356,357,358,359,360,361,362,363,364,365,366,367,368,369,370,371,372,373,374,375,376,377,378,379,380,381,382,383,384,385,386,387,388,389,390,391,392,393,394,395,396,397,398,399,400,401,402,403,404,405,406,407,408,409,410,411,412,413,414,415,416,417,418,419,420,421,422,423,424,425,426,427,428,429,430,431,432,433,434,435,436,437,438,439,440,441,442,443,444,445,446,447,448,449,450,451,452,453,454,455,456,457,458,459,460,461,462,463,464,465,466,467,468,469,470,471,472,473,474,475,476,477,478,479,480,481,482,483,484,485,486,487,488,489,490,491,492,493,494,495,496,497,498,499,500],"tree_info":[0,0,0,0,0,0,0,0,0,0,0,0,0,0,0,0,0,0,0,0,0,0,0,0,0,0,0,0,0,0,0,0,0,0,0,0,0,0,0,0,0,0,0,0,0,0,0,0,0,0,0,0,0,0,0,0,0,0,0,0,0,0,0,0,0,0,0,0,0,0,0,0,0,0,0,0,0,0,0,0,0,0,0,0,0,0,0,0,0,0,0,0,0,0,0,0,0,0,0,0,0,0,0,0,0,0,0,0,0,0,0,0,0,0,0,0,0,0,0,0,0,0,0,0,0,0,0,0,0,0,0,0,0,0,0,0,0,0,0,0,0,0,0,0,0,0,0,0,0,0,0,0,0,0,0,0,0,0,0,0,0,0,0,0,0,0,0,0,0,0,0,0,0,0,0,0,0,0,0,0,0,0,0,0,0,0,0,0,0,0,0,0,0,0,0,0,0,0,0,0,0,0,0,0,0,0,0,0,0,0,0,0,0,0,0,0,0,0,0,0,0,0,0,0,0,0,0,0,0,0,0,0,0,0,0,0,0,0,0,0,0,0,0,0,0,0,0,0,0,0,0,0,0,0,0,0,0,0,0,0,0,0,0,0,0,0,0,0,0,0,0,0,0,0,0,0,0,0,0,0,0,0,0,0,0,0,0,0,0,0,0,0,0,0,0,0,0,0,0,0,0,0,0,0,0,0,0,0,0,0,0,0,0,0,0,0,0,0,0,0,0,0,0,0,0,0,0,0,0,0,0,0,0,0,0,0,0,0,0,0,0,0,0,0,0,0,0,0,0,0,0,0,0,0,0,0,0,0,0,0,0,0,0,0,0,0,0,0,0,0,0,0,0,0,0,0,0,0,0,0,0,0,0,0,0,0,0,0,0,0,0,0,0,0,0,0,0,0,0,0,0,0,0,0,0,0,0,0,0,0,0,0,0,0,0,0,0,0,0,0,0,0,0,0,0,0,0,0,0,0,0,0,0,0,0,0,0,0,0,0,0,0,0,0,0,0,0,0,0,0,0,0,0,0,0,0,0,0,0,0,0,0,0,0,0,0,0,0,0,0,0,0,0,0,0,0,0,0,0,0,0,0,0,0,0,0,0,0,0,0,0,0,0,0,0,0,0,0,0,0],"trees":[{"base_weights":[-4.3981664E-2,-5.996328E-1,1.4395944E0,-8.204761E-1,6.636038E-1,8.803504E-1,8.424382E-2,-1.0773222E0,1.2332788E-1,-1.5719105E-2,7.1955323E-1,4.932331E-2,4.2481822E-1,-7.299871E-2,-1.0454116E0,8.10395E-2,-1.1885834E0,5.862321E-1,5.725041E-2,-3.8024426E-2,8.7366337E-1,-7.424923E-1,-5.4682266E-2,-8.129107E-2,-5.276076E-1,7.837714E-1,3.9604902E-1,1.7488826E-2,5.8675595E-2,-4.5299154E-2,6.390409E-3,-9.2301804E-1,9.533541E-2,4.335381E-1,5.8744974E-2,4.041585E-2,2.68184E-1,-4.933234E-3,-5.95085E-2,1.7488826E-2,-1.5719105E-2,2.982722E-2,-4.933234E-3,6.608939E-2,4.7603664E-1,-6.7370343E-3,2.215611E-2,4.0862367E-2,-5.4838327E-3],"categories":[],"categories_nodes":[],"categories_segments":[],"categories_sizes":[],"default_left":[0,0,0,0,0,0,0,0,0,0,0,0,0,0,0,0,0,0,0,0,0,0,0,0,0,0,0,0,0,0,0,0,0,0,0,0,0,0,0,0,0,0,0,0,0,0,0,0,0],"id":0,"left_children":[1,3,5,7,9,11,-1,13,15,-1,17,-1,19,-1,21,-1,23,25,-1,-1,27,29,-1,-1,31,33,35,-1,-1,-1,-1,37,39,41,-1,-1,43,-1,-1,-1,-1,-1,-1,45,47,-1,-1,-1,-1],"loss_changes":[2.1335321E2,5.305803E1,8.191589E0,3.908175E1,1.7891665E0,7.21611E-1,0E0,1.7196655E-2,7.121302E1,0E0,8.7853813E-1,0E0,3.970801E0,0E0,9.441376E-1,0E0,4.7419243E0,5.481243E-1,0E0,0E0,3.7075233E-1,2.9080515E0,0E0,0E0,2.3528123E0,8.862467E-1,5.035417E-1,0E0,0E0,0E0,0E0,1.1418662E0,5.7663697E-1,6.626339E-1,0E0,0E0,4.695112E-1,0E0,0E0,0E0,0E0,0E0,0E0,6.054996E-1,1.2324141E0,0E0,0E0,0E0,0E0],"parents":[2147483647,0,0,1,1,2,2,3,3,4,4,5,5,7,7,8,8,10,10,12,12,14,14,16,16,17,17,20,20,21,21,24,24,25,25,26,26,31,31,32,32,33,33,36,36,43,43,44,44],"right_children":[2,4,6,8,10,12,-1,14,16,-1,18,-1,20,-1,22,-1,24,26,-1,-1,28,30,-1,-1,32,34,36,-1,-1,-1,-1,38,40,42,-1,-1,44,-1,-1,-1,-1,-1,-1,46,48,-1,-1,-1,-1],"split_conditions":[1E0,1E0,1E0,1E0,-1.3356522E0,1.8699424E0,8.424382E-2,-1.3356522E0,1E0,-1.5719105E-2,1.2404988E0,4.932331E-2,-3.9887008E-1,-7.299871E-2,-8.672612E-1,8.10395E-2,2.4297722E-1,1E0,5.725041E-2,-3.8024426E-2,1E0,5.141381E-1,-5.4682266E-2,-8.129107E-2,3.037166E-1,1.3276207E0,-8.672612E-1,1.7488826E-2,5.8675595E-2,-4.5299154E-2,6.390409E-3,1.0564598E0,1.3276207E0,7.8529894E-1,5.8744974E-2,4.041585E-2,6.952104E-2,-4.933234E-3,-5.95085E-2,1.7488826E-2,-1.5719105E-2,2.982722E-2,-4.933234E-3,1.3276207E0,1.8699424E0,-6.7370343E-3,2.215611E-2,4.0862367E-2,-5.4838327E-3],"split_indices":[1,0,0,7,3,2,0,3,5,0,3,0,3,0,3,0,2,7,0,0,7,2,0,0,3,2,3,0,0,0,0,2,2,2,0,0,3,0,0,0,0,0,0,2,2,0,0,0,0],"split_type":[0,0,0,0,0,0,0,0,0,0,0,0,0,0,0,0,0,0,0,0,0,0,0,0,0,0,0,0,0,0,0,0,0,0,0,0,0,0,0,0,0,0,0,0,0,0,0,0,0],"sum_hessian":[2.567665E2,1.8723593E2,6.953059E1,1.5967203E2,2.756391E1,2.259744E1,4.6933144E1,1.2540337E2,3.4268646E1,1.2416176E0,2.6322292E1,1.7382647E1,5.2147937E0,6.208088E0,1.1919529E2,1.5892705E1,1.837594E1,2.1852468E1,4.4698234E0,1.2416176E0,3.9731762E0,1.8624264E1,1.0057102E2,1.0181264E1,8.194676E0,9.18797E0,1.2664499E1,2.2349117E0,1.7382646E0,1.56443815E1,2.9798822E0,4.718147E0,3.4765291E0,5.9597645E0,3.2282057E0,1.7382646E0,1.0926234E1,1.4899411E0,3.2282057E0,2.2349117E0,1.2416176E0,4.4698234E0,1.4899411E0,6.208088E0,4.718147E0,4.4698234E0,1.7382646E0,2.7315586E0,1.9865881E0],"tree_param":{"num_deleted":"0","num_feature":"8","num_nodes":"49","size_leaf_vector":"1"}},{"base_weights":[-5.7783383E-3,-1.219861E0,1.0976988E0,-4.3438324E-1,-1.0252911E-1,-3.6600226E-1,1.5144861E0,-1.0096621E-1,3.98343E-1,-8.861107E-2,1.3998301E0,1.0782535E0,1.6453506E0,1.2505265E0,-8.301126E-2,2.1131916E-2,1.5024297E0,8.430845E-2,5.630492E-1,1.4407261E-2,8.338761E-2,5.913437E-1,8.713331E-2,8.143966E-2,7.086248E-1,1.3604583E-1,7.19254E-2,3.795216E-1,6.1418504E-2,5.958276E-3,4.910759E-2,-2.780795E-3,4.9732067E-2,4.1852254E-2,1.1350694E-2],"categories":[],"categories_nodes":[],"categories_segments":[],"categories_sizes":[],"default_left":[0,0,0,0,0,0,0,0,0,0,0,0,0,0,0,0,0,0,0,0,0,0,0,0,0,0,0,0,0,0,0,0,0,0,0],"id":1,"left_children":[1,3,5,7,-1,9,11,-1,13,-1,15,17,19,21,-1,-1,23,-1,25,-1,-1,27,-1,-1,29,31,-1,33,-1,-1,-1,-1,-1,-1,-1],"loss_changes":[3.4307068E2,7.866757E1,8.2394196E1,8.5191605E1,0E0,7.831264E1,4.1980133E0,0E0,7.7073395E1,0E0,7.783642E-1,7.5202465E0,1.9083252E0,8.962994E0,0E0,0E0,8.621025E-2,0E0,5.8372836E0,0E0,0E0,1.5148702E0,0E0,0E0,4.4216406E-1,2.0221553E0,0E0,6.7973185E-1,0E0,0E0,0E0,0E0,0E0,0E0,0E0],"parents":[2147483647,0,0,1,1,2,2,3,3,5,5,6,6,8,8,10,10,11,11,12,12,13,13,16,16,18,18,21,21,24,24,25,25,27,27],"right_children":[2,4,6,8,-1,10,12,-1,14,-1,16,18,20,22,-1,-1,24,-1,26,-1,-1,28,-1,-1,30,32,-1,34,-1,-1,-1,-1,-1,-1,-1],"split_conditions":[-6.315179E-2,-7.636127E-1,1E0,1E0,-1.0252911E-1,1E0,1E0,-1.0096621E-1,1E0,-8.861107E-2,-8.672612E-1,6.3730913E-1,-1.5698478E0,-1.1138432E0,-8.301126E-2,2.1131916E-2,1.6880004E0,8.430845E-2,1E0,1.4407261E-2,8.338761E-2,1E0,8.713331E-2,8.143966E-2,6.952104E-2,9.875396E-1,7.19254E-2,6.952104E-2,6.1418504E-2,5.958276E-3,4.910759E-2,-2.780795E-3,4.9732067E-2,4.1852254E-2,1.1350694E-2],"split_indices":[4,4,6,6,0,5,5,0,5,0,3,4,3,4,0,0,4,0,7,0,0,7,0,0,3,4,0,3,0,0,0,0,0,0,0],"split_type":[0,0,0,0,0,0,0,0,0,0,0,0,0,0,0,0,0,0,0,0,0,0,0,0,0,0,0,0,0,0,0,0,0,0,0],"sum_hessian":[2.5407832E2,1.20926E2,1.3315233E2,6.293835E1,5.798765E1,2.9538597E1,1.0361373E2,2.1187292E1,4.1751057E1,1.644167E1,1.3096927E1,2.6042229E1,7.75715E1,2.9805166E1,1.194589E1,1.730869E0,1.1366057E1,1.0903649E1,1.5138578E1,1.4846859E0,7.6086815E1,1.3681473E1,1.6123693E1,8.897768E0,2.4682896E0,1.0952108E1,4.18647E0,1.1464952E1,2.2165203E0,1.2373736E0,1.2309159E0,9.71801E0,1.2340982E0,1.7441015E0,9.720851E0],"tree_param":{"num_deleted":"0","num_feature":"8","num_nodes":"35","size_leaf_vector":"1"}},{"base_weights":[4.375895E-2,-1.1579971E0,1.0743269E0,-4.026656E-1,-9.7728625E-2,-1.9983552E-2,1.5522208E0,-9.564703E-2,3.828862E-1,-8.4181525E-2,1.0933005E0,-4.029149E-1,8.0437124E-2,1.2052134E0,-1.5073472E0,8.089715E-2,6.495608E-1,-3.683215E-2,5.6198714E-3,5.4117626E-1,8.372894E-2,-9.1972165E-2,2.9940635E-3,2.2430759E-2,6.209577E-2,3.975604E-2,2.0257948E-2],"categories":[],"categories_nodes":[],"categories_segments":[],"categories_sizes":[],"default_left":[0,0,0,0,0,0,0,0,0,0,0,0,0,0,0,0,0,0,0,0,0,0,0,0,0,0,0],"id":2,"left_children":[1,3,5,7,-1,9,11,-1,13,-1,15,17,-1,19,21,-1,23,-1,-1,25,-1,-1,-1,-1,-1,-1,-1],"loss_changes":[3.154051E2,6.996265E1,7.171748E1,7.38331E1,0E0,8.084041E1,1.1193176E1,0E0,6.611573E1,0E0,5.0392265E0,6.814085E-1,0E0,8.251251E0,6.8682785E0,0E0,1.3287306E0,0E0,0E0,1.4915752E-1,0E0,0E0,0E0,0E0,0E0,0E0,0E0],"parents":[2147483647,0,0,1,1,2,2,3,3,5,5,6,6,8,8,10,10,11,11,13,13,14,14,16,16,19,19],"right_children":[2,4,6,8,-1,10,12,-1,14,-1,16,18,-1,20,22,-1,24,-1,-1,26,-1,-1,-1,-1,-1,-1,-1],"split_conditions":[-6.315179E-2,-7.636127E-1,1E0,1E0,-9.7728625E-2,1E0,-1.5698478E0,-9.564703E-2,1E0,-8.4181525E-2,6.3730913E-1,-1.8040434E0,8.0437124E-2,-1.1138432E0,1E0,8.089715E-2,9.875396E-1,-3.683215E-2,5.6198714E-3,6.952104E-2,8.372894E-2,-9.1972165E-2,2.9940635E-3,2.2430759E-2,6.209577E-2,3.975604E-2,2.0257948E-2],"split_indices":[4,4,5,6,0,6,3,0,5,0,4,3,0,4,1,0,4,0,0,3,0,0,0,0,0,0,0],"split_type":[0,0,0,0,0,0,0,0,0,0,0,0,0,0,0,0,0,0,0,0,0,0,0,0,0,0,0],"sum_hessian":[2.5266432E2,1.16587166E2,1.3607716E2,6.061556E1,5.5971603E1,4.165385E1,9.442332E1,2.0249468E1,4.0366093E1,1.6493828E1,2.5160023E1,2.4808235E0,9.194249E1,2.8381432E1,1.198466E1,1.0316482E1,1.4843541E1,1.2450155E0,1.2358081E0,1.2644936E1,1.5736497E1,9.745826E0,2.2388344E0,1.23958235E1,2.4477177E0,2.7203338E0,9.924602E0],"tree_param":{"num_deleted":"0","num_feature":"8","num_nodes":"27","size_leaf_vector":"1"}},{"base_weights":[1.748384E-3,-1.1135802E0,9.7471535E-1,-4.0067583E-1,-9.314501E-2,-1.17907345E-1,1.5080062E0,-7.719452E-2,-1.426688E0,7.90161E-2,-6.89693E-1,-1.2474636E-1,7.7759504E-2,-4.0106902E-1,7.402058E-2,-8.847459E-2,1.850648E-1,-1.1117502E0,7.266649E-2,-5.803597E-2,4.879412E-2,-9.329218E-2,-5.5796903E-1,-3.68291E-2,5.1268447E-2,-8.340443E-2,-3.8154345E-2,-3.4337312E-1,2.6413146E-1,-7.046388E-1,-1.4582748E-2,-2.1890124E-2,-3.125202E-3,2.787428E-2,4.785802E-3,-3.9559215E-2,9.751716E-3],"categories":[],"categories_nodes":[],"categories_segments":[],"categories_sizes":[],"default_left":[0,0,0,0,0,0,0,0,0,0,0,0,0,0,0,0,0,0,0,0,0,0,0,0,0,0,0,0,0,0,0,0,0,0,0,0,0],"id":3,"left_children":[1,3,5,7,-1,9,11,13,15,-1,17,19,-1,21,-1,-1,23,25,-1,-1,-1,27,29,-1,-1,-1,-1,31,33,35,-1,-1,-1,-1,-1,-1,-1],"loss_changes":[2.743561E2,6.217827E1,7.885628E1,2.0347162E1,0E0,4.4995422E1,7.190048E0,2.4767893E1,8.459217E0,0E0,3.2840725E1,5.0965223E0,0E0,1.901669E0,0E0,0E0,3.4555209E0,4.4316864E0,0E0,0E0,0E0,1.4190942E0,8.333502E-1,0E0,0E0,0E0,0E0,2.1607137E-1,2.7681682E-1,1.4347277E0,0E0,0E0,0E0,0E0,0E0,0E0,0E0],"parents":[2147483647,0,0,1,1,2,2,3,3,5,5,6,6,7,7,8,8,10,10,11,11,13,13,16,16,17,17,21,21,22,22,27,27,28,28,29,29],"right_children":[2,4,6,8,-1,10,12,14,16,-1,18,20,-1,22,-1,-1,24,26,-1,-1,-1,28,30,-1,-1,-1,-1,32,34,36,-1,-1,-1,-1,-1,-1,-1],"split_conditions":[-6.315179E-2,-7.636127E-1,1E0,1E0,-9.314501E-2,6.3730913E-1,-1.5698478E0,1E0,1E0,7.90161E-2,1E0,1E0,7.7759504E-2,3.037166E-1,7.402058E-2,-8.847459E-2,-1.646745E-1,-5.705054E-1,7.266649E-2,-5.803597E-2,4.879412E-2,-3.9887008E-1,-1.1138432E0,-3.68291E-2,5.1268447E-2,-8.340443E-2,-3.8154345E-2,-8.672612E-1,-1.646745E-1,1.2404988E0,-1.4582748E-2,-2.1890124E-2,-3.125202E-3,2.787428E-2,4.785802E-3,-3.9559215E-2,9.751716E-3],"split_indices":[4,4,5,5,0,4,3,7,1,0,7,1,0,3,0,0,3,2,0,0,0,3,4,0,0,0,0,3,3,3,0,0,0,0,0,0,0],"split_type":[0,0,0,0,0,0,0,0,0,0,0,0,0,0,0,0,0,0,0,0,0,0,0,0,0,0,0,0,0,0,0,0,0,0,0,0,0],"sum_hessian":[2.5082108E2,1.16793816E2,1.3402725E2,6.0637707E1,5.615611E1,4.4215694E1,8.981156E1,4.692E1,1.3717709E1,1.0693041E1,3.352265E1,2.4763381E0,8.733523E1,3.9457973E1,7.462024E0,1.1231098E1,2.4866104E0,2.8408892E1,5.1137605E0,1.2475128E0,1.2288252E0,1.3861565E1,2.5596409E1,1.2447742E0,1.2418361E0,9.4869585E0,1.8921934E1,8.178541E0,5.683023E0,1.5444574E1,1.01518345E1,5.702571E0,2.4759703E0,1.2301345E0,4.4528885E0,1.4199242E1,1.2453326E0],"tree_param":{"num_deleted":"0","num_feature":"8","num_nodes":"37","size_leaf_vector":"1"}},{"base_weights":[-3.2028016E-2,-1.0899512E0,8.819761E-1,-4.536836E-1,-8.788257E-2,-1.532028E-1,1.4250059E0,-9.022148E-2,3.356616E-1,-7.749554E-2,8.888768E-1,-3.9047614E-1,1.4837651E0,1.1021616E0,-1.2888665E0,7.4980035E-2,4.7811472E-1,2.6478756E-2,-5.637101E-2,1.2014091E0,7.968301E-2,4.6427032E-1,7.955595E-2,-8.375061E-2,1.7808808E-2,1.42519325E-2,5.9687115E-2,1.4031752E0,-7.038193E-2,4.246573E-2,1.5851488E-2,7.158645E-2,2.2087127E-2],"categories":[],"categories_nodes":[],"categories_segments":[],"categories_sizes":[],"default_left":[0,0,0,0,0,0,0,0,0,0,0,0,0,0,0,0,0,0,0,0,0,0,0,0,0,0,0,0,0,0,0,0,0],"id":4,"left_children":[1,3,5,7,-1,9,11,-1,13,-1,15,17,19,21,23,-1,25,-1,-1,27,-1,29,-1,-1,-1,-1,-1,31,-1,-1,-1,-1,-1],"loss_changes":[2.3496567E2,4.704669E1,7.351239E1,6.3526897E1,0E0,6.798922E1,9.712967E0,0E0,4.885114E1,0E0,6.017658E0,2.9538188E0,6.652832E-1,7.5013847E0,8.646076E0,0E0,2.0803032E0,0E0,0E0,1.6376282E1,0E0,4.6071172E-1,0E0,0E0,0E0,0E0,0E0,7.8388214E-2,0E0,0E0,0E0,0E0,0E0],"parents":[2147483647,0,0,1,1,2,2,3,3,5,5,6,6,8,8,10,10,11,11,12,12,13,13,14,14,16,16,19,19,21,21,27,27],"right_children":[2,4,6,8,-1,10,12,-1,14,-1,16,18,20,22,24,-1,26,-1,-1,28,-1,30,-1,-1,-1,-1,-1,32,-1,-1,-1,-1,-1],"split_conditions":[-6.315179E-2,-7.636127E-1,1E0,1E0,-8.788257E-2,1E0,-1.5698478E0,-9.022148E-2,1E0,-7.749554E-2,6.3730913E-1,2.038231E0,1E0,-1.1138432E0,1E0,7.4980035E-2,9.875396E-1,2.6478756E-2,-5.637101E-2,1.6880004E0,7.968301E-2,6.952104E-2,7.955595E-2,-8.375061E-2,1.7808808E-2,1.42519325E-2,5.9687115E-2,1.33777E0,-7.038193E-2,4.246573E-2,1.5851488E-2,7.158645E-2,2.2087127E-2],"split_indices":[4,4,5,6,0,6,3,0,5,0,4,4,1,4,1,0,4,0,0,4,0,3,0,0,0,0,0,4,0,0,0,0,0],"split_type":[0,0,0,0,0,0,0,0,0,0,0,0,0,0,0,0,0,0,0,0,0,0,0,0,0,0,0,0,0,0,0,0,0],"sum_hessian":[2.4100351E2,1.11617836E2,1.2938567E2,5.8014194E1,5.360364E1,4.4766003E1,8.461967E1,2.0923475E1,3.709072E1,1.892002E1,2.5845984E1,2.47592E0,8.2143745E1,2.541889E1,1.1671829E1,9.327305E0,1.6518679E1,1.2263061E0,1.249614E0,2.6356836E1,5.5786907E1,1.1875578E1,1.3543312E1,9.438164E0,2.2336662E0,1.4110087E1,2.4085915E0,2.48939E1,1.4629374E0,1.9660381E0,9.90954E0,2.3700846E1,1.1930548E0],"tree_param":{"num_deleted":"0","num_feature":"8","num_nodes":"33","size_leaf_vector":"1"}},{"base_weights":[-6.007951E-3,-5.139031E-1,1.3168335E0,-1.4955542E0,2.9824557E-2,4.5473363E-2,7.474231E-2,-1.6860951E0,5.4826707E-1,2.9563853E-1,-3.464058E-1,-8.849355E-2,-6.29335E-1,4.5246817E-2,4.8301034E-3,-4.6267927E-2,6.771173E-2,-9.4304186E-1,5.09917E-1,-4.2211544E-2,-3.377389E-1,-2.949353E-3,-4.726755E-4,-6.354437E-2,-7.5172865E-1,2.7160302E-1,8.1825644E-1,6.7322114E-3,-3.5916384E-2,-5.109076E-1,-5.8639225E-2,5.2609712E-2,4.9191922E-2,5.837204E-2,4.4685134E-1,-3.865255E-2,-3.2081997E-1,3.4790835E-1,-9.159983E-3,2.9707342E-2,1.3097386E-2,-5.575793E-3,-2.7903074E-2,2.2891048E-2,3.4932706E-3],"categories":[],"categories_nodes":[],"categories_segments":[],"categories_sizes":[],"default_left":[0,0,0,0,0,0,0,0,0,0,0,0,0,0,0,0,0,0,0,0,0,0,0,0,0,0,0,0,0,0,0,0,0,0,0,0,0,0,0,0,0,0,0,0,0],"id":5,"left_children":[1,3,5,7,9,-1,-1,11,13,15,17,-1,19,-1,-1,21,-1,23,25,-1,27,-1,-1,-1,29,31,33,-1,-1,35,-1,-1,37,-1,39,-1,41,43,-1,-1,-1,-1,-1,-1,-1],"loss_changes":[1.681304E2,9.655287E1,3.6749802E0,2.6031311E1,1.18373575E1,0E0,0E0,4.128769E0,9.1982937E-1,2.5145128E1,2.5536556E1,0E0,8.467698E-2,0E0,0E0,2.4422728E-2,0E0,8.794842E-1,1.3052211E0,0E0,8.465495E-1,0E0,0E0,0E0,1.5222559E0,2.2436953E0,5.8914757E-1,0E0,0E0,5.0349545E-1,0E0,0E0,8.508755E-1,0E0,1.5319586E-3,0E0,4.567461E-1,1.3017994E-1,0E0,0E0,0E0,0E0,0E0,0E0,0E0],"parents":[2147483647,0,0,1,1,2,2,3,3,4,4,7,7,8,8,9,9,10,10,12,12,15,15,17,17,18,18,20,20,24,24,25,25,26,26,29,29,32,32,34,34,36,36,37,37],"right_children":[2,4,6,8,10,-1,-1,12,14,16,18,-1,20,-1,-1,22,-1,24,26,-1,28,-1,-1,-1,30,32,34,-1,-1,36,-1,-1,38,-1,40,-1,42,44,-1,-1,-1,-1,-1,-1,-1],"split_conditions":[1E0,1E0,1E0,1E0,1E0,4.5473363E-2,7.474231E-2,-2.818365E-2,5.141381E-1,1E0,1E0,-8.849355E-2,1E0,4.5246817E-2,4.8301034E-3,-5.705054E-1,6.771173E-2,-2.818365E-2,1.3276207E0,-4.2211544E-2,7.8529894E-1,-2.949353E-3,-4.726755E-4,-6.354437E-2,1.8699424E0,-2.993445E-1,1E0,6.7322114E-3,-3.5916384E-2,2.4297722E-1,-5.8639225E-2,5.2609712E-2,1E0,5.837204E-2,1.8699424E0,-3.865255E-2,1.3276207E0,7.8529894E-1,-9.159983E-3,2.9707342E-2,1.3097386E-2,-5.575793E-3,-2.7903074E-2,2.2891048E-2,3.4932706E-3],"split_indices":[1,6,0,0,5,0,0,2,2,7,0,0,7,0,0,2,0,2,2,0,2,0,0,0,2,2,7,0,0,2,0,0,7,0,2,0,2,2,0,0,0,0,0,0,0],"split_type":[0,0,0,0,0,0,0,0,0,0,0,0,0,0,0,0,0,0,0,0,0,0,0,0,0,0,0,0,0,0,0,0,0,0,0,0,0,0,0,0,0,0,0,0,0],"sum_hessian":[2.4823721E2,1.7981146E2,6.842575E1,6.347055E1,1.1634091E2,2.2665873E1,4.575988E1,5.821804E1,5.252511E0,6.829992E1,4.8040993E1,5.331651E1,4.9015326E0,2.3741465E0,2.8783643E0,5.2348606E1,1.5951313E1,2.8253986E1,1.9787006E1,1.7307938E0,3.1707387E0,3.8458996E1,1.3889606E1,8.3323E0,1.9921686E1,1.222174E1,7.5652666E0,1.703095E0,1.4676436E0,1.40813265E1,5.8403587E0,1.8828148E0,1.0338924E1,2.7945766E0,4.77069E0,4.629764E0,9.451563E0,4.306398E0,6.032527E0,1.4234674E0,3.3472226E0,5.8024535E0,3.649109E0,2.6229436E0,1.6834542E0],"tree_param":{"num_deleted":"0","num_feature":"8","num_nodes":"45","size_leaf_vector":"1"}},{"base_weights":[-1.3881291E-2,-1.0253127E0,9.1289264E-1,-3.2997572E-1,-8.562531E-2,-2.8237267E-3,1.3415323E0,5.4692768E-2,-1.4331244E0,7.368792E-2,-5.9168965E-1,9.4785523E-1,7.603729E-2,-2.5839466E-1,6.891402E-2,-8.065208E-2,-6.8905293E-3,-9.085267E-1,6.532234E-2,1.25419E0,-7.705478E-2,-3.2231206E-1,-9.271069E-3,-1.0562925E0,4.986463E-2,7.2787404E-1,7.3999375E-2,-1.7712193E-2,1.3807592E-3,-7.8551404E-2,-3.170892E-2,9.9013495E-1,-1.2765044E-2,5.4817982E-2,2.1190286E-2],"categories":[],"categories_nodes":[],"categories_segments":[],"categories_sizes":[],"default_left":[0,0,0,0,0,0,0,0,0,0,0,0,0,0,0,0,0,0,0,0,0,0,0,0,0,0,0,0,0,0,0,0,0,0,0],"id":6,"left_children":[1,3,5,7,-1,9,11,13,15,-1,17,19,-1,21,-1,-1,-1,23,-1,25,-1,27,-1,29,-1,31,-1,-1,-1,-1,-1,33,-1,-1,-1],"loss_changes":[2.3003604E2,5.5502274E1,5.027305E1,2.5353184E1,0E0,3.724565E1,4.7134094E0,1.9056099E1,3.3750973E0,0E0,1.9601433E1,2.476415E1,0E0,1.14378214E-1,0E0,0E0,0E0,8.608967E0,0E0,2.156929E0,0E0,2.1703541E-1,0E0,4.519146E0,0E0,2.8668432E0,0E0,0E0,0E0,0E0,0E0,2.9143333E-2,0E0,0E0,0E0],"parents":[2147483647,0,0,1,1,2,2,3,3,5,5,6,6,7,7,8,8,10,10,11,11,13,13,17,17,19,19,21,21,23,23,25,25,31,31],"right_children":[2,4,6,8,-1,10,12,14,16,-1,18,20,-1,22,-1,-1,-1,24,-1,26,-1,28,-1,30,-1,32,-1,-1,-1,-1,-1,34,-1,-1,-1],"split_conditions":[-6.315179E-2,-7.636127E-1,1E0,1E0,-8.562531E-2,6.3730913E-1,1E0,1E0,1E0,7.368792E-2,1E0,1.6880004E0,7.603729E-2,-1.1138432E0,6.891402E-2,-8.065208E-2,-6.8905293E-3,1E0,6.532234E-2,1E0,-7.705478E-2,-5.705054E-1,-9.271069E-3,-5.705054E-1,4.986463E-2,1.8699424E0,7.3999375E-2,-1.7712193E-2,1.3807592E-3,-7.8551404E-2,-3.170892E-2,6.3730913E-1,-1.2765044E-2,5.4817982E-2,2.1190286E-2],"split_indices":[4,4,5,5,0,4,0,7,1,0,7,4,0,4,0,0,0,0,0,1,0,2,0,2,0,2,0,0,0,0,0,4,0,0,0],"split_type":[0,0,0,0,0,0,0,0,0,0,0,0,0,0,0,0,0,0,0,0,0,0,0,0,0,0,0,0,0,0,0,0,0,0,0],"sum_hessian":[2.4340771E2,1.16337204E2,1.2707051E2,5.8561707E1,5.77755E1,4.0832397E1,8.623811E1,4.412553E1,1.4436173E1,1.1213023E1,2.9619375E1,2.8944605E1,5.7293507E1,3.6335373E1,7.7901583E0,1.2460181E1,1.9759917E0,2.5829306E1,3.7900703E0,2.6214302E1,2.7303023E0,1.7548107E1,1.8787266E1,2.4384436E1,1.4448696E0,9.1379795E0,1.7076323E1,1.6069397E1,1.47871E0,9.760482E0,1.4623954E1,7.2081375E0,1.9298424E0,5.281582E0,1.9265554E0],"tree_param":{"num_deleted":"0","num_feature":"8","num_nodes":"35","size_leaf_vector":"1"}},{"base_weights":[8.180806E-3,-9.241159E-1,8.6131966E-1,-2.522803E-1,-8.157959E-2,-5.7546034E-2,1.3319758E0,8.881554E-2,-1.3002558E0,7.230755E-2,-6.162728E-1,-2.2989704E-1,6.935991E-2,-2.1592104E-1,6.7711286E-2,-7.783106E-2,2.0262463E-2,-9.8472834E-1,6.519134E-2,2.9952278E-2,-5.1506706E-2,-3.9491993E-1,-4.7819577E-2,-1.1028616E0,4.4718076E-2,-1.1500715E-3,-2.3990834E-2,-1.6399778E-1,-1.770466E-3,-7.558133E-2,-3.9998814E-2,-5.5654807E-4,-1.1854957E-2,9.378853E-3,-9.6334316E-2,-3.2355723E-3,-8.607068E-3],"categories":[],"categories_nodes":[],"categories_segments":[],"categories_sizes":[],"default_left":[0,0,0,0,0,0,0,0,0,0,0,0,0,0,0,0,0,0,0,0,0,0,0,0,0,0,0,0,0,0,0,0,0,0,0,0,0],"id":7,"left_children":[1,3,5,7,-1,9,11,13,15,-1,17,19,-1,21,-1,-1,-1,23,-1,-1,-1,25,27,29,-1,-1,-1,31,33,-1,-1,-1,-1,-1,35,-1,-1],"loss_changes":[1.9061415E2,5.4019524E1,5.4193153E1,2.1534958E1,0E0,3.73066E1,7.4595947E0,1.8086033E1,7.092251E0,0E0,2.4137129E1,3.0615711E0,0E0,1.1260451E0,0E0,0E0,0E0,7.1290016E0,0E0,0E0,0E0,5.6646514E-1,1.107746E-1,2.0695305E0,0E0,0E0,0E0,6.309059E-2,3.0237615E-1,0E0,0E0,0E0,0E0,0E0,1.5830003E-2,0E0,0E0],"parents":[2147483647,0,0,1,1,2,2,3,3,5,5,6,6,7,7,8,8,10,10,11,11,13,13,17,17,21,21,22,22,23,23,27,27,28,28,34,34],"right_children":[2,4,6,8,-1,10,12,14,16,-1,18,20,-1,22,-1,-1,-1,24,-1,-1,-1,26,28,30,-1,-1,-1,32,34,-1,-1,-1,-1,-1,36,-1,-1],"split_conditions":[-6.315179E-2,-7.636127E-1,1E0,1E0,-8.157959E-2,6.3730913E-1,-1.5698478E0,1E0,1E0,7.230755E-2,1E0,2.038231E0,6.935991E-2,-1.1138432E0,6.7711286E-2,-7.783106E-2,2.0262463E-2,9.875396E-1,6.519134E-2,2.9952278E-2,-5.1506706E-2,6.952104E-2,-3.9887008E-1,-5.705054E-1,4.4718076E-2,-1.1500715E-3,-2.3990834E-2,-1.1014568E0,6.952104E-2,-7.558133E-2,-3.9998814E-2,-5.5654807E-4,-1.1854957E-2,9.378853E-3,-5.705054E-1,-3.2355723E-3,-8.607068E-3],"split_indices":[4,4,5,5,0,4,3,7,1,0,7,4,0,4,0,0,0,4,0,0,0,3,3,2,0,0,0,3,3,0,0,0,0,0,2,0,0],"split_type":[0,0,0,0,0,0,0,0,0,0,0,0,0,0,0,0,0,0,0,0,0,0,0,0,0,0,0,0,0,0,0,0,0,0,0,0,0],"sum_hessian":[2.3765138E2,1.1351777E2,1.2413362E2,5.8921307E1,5.459646E1,4.2343605E1,8.179002E1,4.5143288E1,1.377802E1,1.1040932E1,3.1302671E1,2.68504E0,7.910498E1,3.705021E1,8.093079E0,1.2053479E1,1.72454E0,2.6671684E1,4.630988E0,1.4423579E0,1.2426822E0,1.729003E1,1.9760178E1,2.548274E1,1.1889436E0,3.4494586E0,1.3840571E1,4.881976E0,1.4878201E1,9.147202E0,1.6335539E1,1.9520949E0,2.929881E0,4.627947E0,1.0250254E1,8.54101E0,1.7092444E0],"tree_param":{"num_deleted":"0","num_feature":"8","num_nodes":"37","size_leaf_vector":"1"}},{"base_weights":[2.860873E-2,-3.8347253E-1,5.7645507E-2,-1.3571786E0,1.12495236E-1,-1.5659496E0,2.9039478E-2,3.7377623E-1,-2.7225703E-1,-8.100747E-2,-5.808862E-1,-5.829235E-1,5.2490807E-1,1.144602E-1,6.213955E-2,-6.2656656E-2,-1.5244175E-1,5.2976008E-3,-4.342169E-2,-3.555539E-2,-6.668791E-3,6.540093E-3,3.0145228E-2,1.666203E-1,-4.6364513E-1,-5.9898716E-1,2.7420744E-3,-2.295226E-2,2.9327515E-1,-5.1343113E-2,7.9754125E-3,-7.2358495E-1,-1.8213952E-3,-8.139127E-2,6.9866174E-1,-1.8081171E-2,1.9426154E-2,3.2725552E-1,-5.4259035E-3,-1.4346098E-2,-3.977124E-2,3.8450631E-1,-1.937271E-1,1.2909235E-2,4.2555995E-2,-4.4205687E-3,5.613965E-3,2.5254184E-2,1.17698675E-2,2.9105533E-2,-9.3656825E-3,-2.0984055E-3,-1.360019E-2],"categories":[],"categories_nodes":[],"categories_segments":[],"categories_sizes":[],"default_left":[0,0,0,0,0,0,0,0,0,0,0,0,0,0,0,0,0,0,0,0,0,0,0,0,0,0,0,0,0,0,0,0,0,0,0,0,0,0,0,0,0,0,0,0,0,0,0,0,0,0,0,0,0],"id":8,"left_children":[1,3,-1,5,7,9,11,13,15,-1,17,19,21,23,-1,-1,25,-1,-1,-1,-1,-1,-1,27,29,31,33,35,37,-1,-1,39,-1,41,43,-1,45,47,-1,-1,-1,49,51,-1,-1,-1,-1,-1,-1,-1,-1,-1,-1],"loss_changes":[1.1084476E2,8.472797E1,0E0,1.7171577E1,1.1858879E1,1.805809E0,2.9544132E0,1.5648926E1,5.435894E0,0E0,9.2983484E-1,1.5757203E-1,8.550942E-2,1.737864E0,0E0,0E0,3.0372238E0,0E0,0E0,0E0,0E0,0E0,0E0,1.2372342E0,1.8561664E0,7.658305E-1,2.0185108E0,3.149341E-1,4.5596528E-1,0E0,0E0,6.0363293E-2,0E0,1.6857271E0,2.9928207E-2,0E0,2.1035439E-1,3.4898877E-1,0E0,0E0,0E0,8.2269955E-1,2.9114652E-1,0E0,0E0,0E0,0E0,0E0,0E0,0E0,0E0,0E0,0E0],"parents":[2147483647,0,0,1,1,3,3,4,4,5,5,6,6,7,7,8,8,10,10,11,11,12,12,13,13,16,16,23,23,24,24,25,25,26,26,27,27,28,28,31,31,33,33,34,34,36,36,37,37,41,41,42,42],"right_children":[2,4,-1,6,8,10,12,14,16,-1,18,20,22,24,-1,-1,26,-1,-1,-1,-1,-1,-1,28,30,32,34,36,38,-1,-1,40,-1,42,44,-1,46,48,-1,-1,-1,50,52,-1,-1,-1,-1,-1,-1,-1,-1,-1,-1],"split_conditions":[1E0,1E0,5.7645507E-2,-2.818365E-2,1E0,1E0,6.952104E-2,1E0,-1.3356522E0,-8.100747E-2,-2.993445E-1,1.3276207E0,1.0063033E0,1.2404988E0,6.213955E-2,-6.2656656E-2,-2.818365E-2,5.2976008E-3,-4.342169E-2,-3.555539E-2,-6.668791E-3,6.540093E-3,3.0145228E-2,-3.9887008E-1,1.4746944E0,7.721077E-1,1.2404988E0,-1.3356522E0,-5.705054E-1,-5.1343113E-2,7.9754125E-3,-8.672612E-1,-1.8213952E-3,-6.3306564E-1,1.3276207E0,-1.8081171E-2,-5.705054E-1,1.0063033E0,-5.4259035E-3,-1.4346098E-2,-3.977124E-2,1.8699424E0,1.0564598E0,1.2909235E-2,4.2555995E-2,-4.4205687E-3,5.613965E-3,2.5254184E-2,1.17698675E-2,2.9105533E-2,-9.3656825E-3,-2.0984055E-3,-1.360019E-2],"split_indices":[1,6,0,2,5,5,3,7,3,0,2,2,3,3,0,0,2,0,0,0,0,0,0,3,3,3,3,3,2,0,0,3,0,3,2,0,2,3,0,0,0,2,2,0,0,0,0,0,0,0,0,0,0],"split_type":[0,0,0,0,0,0,0,0,0,0,0,0,0,0,0,0,0,0,0,0,0,0,0,0,0,0,0,0,0,0,0,0,0,0,0,0,0,0,0,0,0,0,0,0,0,0,0,0,0,0,0,0,0],"sum_hessian":[2.3729445E2,1.7413065E2,6.31638E1,5.817752E1,1.15953125E2,5.0449875E1,7.727646E0,6.907416E1,4.6878967E1,4.7207706E1,3.2421675E0,3.380335E0,4.347311E0,5.407097E1,1.500319E1,4.0733476E0,4.280562E1,1.1431541E0,2.0990133E0,2.177587E0,1.2027481E0,1.1604962E0,3.1868145E0,5.024899E1,3.8219798E0,1.0301869E1,3.250375E1,2.0453575E1,2.9795414E1,1.6672453E0,2.1547346E0,8.199561E0,2.102308E0,2.9785831E1,2.7179189E0,1.4369392E0,1.9016636E1,2.76431E1,2.1523137E0,1.8639368E0,6.3356247E0,5.3159256E0,2.4469906E1,1.3914027E0,1.326516E0,8.82052E0,1.01961155E1,7.883303E0,1.9759796E1,3.9373097E0,1.3786161E0,8.849356E0,1.5620549E1],"tree_param":{"num_deleted":"0","num_feature":"8","num_nodes":"53","size_leaf_vector":"1"}},{"base_weights":[2.6766526E-2,-8.472703E-1,8.316795E-1,-2.4633114E-1,-7.717889E-2,-3.5780546E-1,1.1947334E0,-7.96532E-2,4.8213747E-1,-7.098029E-2,1.1077704E0,8.3229667E-1,1.3072953E0,1.0950973E0,-1.1778727E0,6.714076E-2,2.2683781E-1,6.769421E-2,4.5084074E-1,5.251787E-3,6.632426E-2,6.3298476E-1,7.490324E-2,-7.2980165E-2,-5.3548664E-1,-2.434408E-3,2.1925429E-2,1.5292309E-1,5.8268357E-2,4.3978637E-1,5.5702735E-2,-4.517987E-2,-1.893942E-1,1.2760259E-4,4.312041E-2,5.7471558E-3,2.3214987E-2,8.318829E-3,-2.6889756E-2],"categories":[],"categories_nodes":[],"categories_segments":[],"categories_sizes":[],"default_left":[0,0,0,0,0,0,0,0,0,0,0,0,0,0,0,0,0,0,0,0,0,0,0,0,0,0,0,0,0,0,0,0,0,0,0,0,0,0,0],"id":9,"left_children":[1,3,5,7,-1,9,11,-1,13,-1,15,17,19,21,23,-1,25,-1,27,-1,-1,29,-1,-1,31,-1,-1,33,-1,35,-1,-1,37,-1,-1,-1,-1,-1,-1],"loss_changes":[1.6527939E2,4.675453E1,5.323581E1,6.1252605E1,0E0,4.7269302E1,2.7435303E0,0E0,4.2782387E1,0E0,2.366166E0,4.3653965E0,1.4736023E0,4.6940155E0,1.2957888E0,0E0,2.4996428E-1,0E0,3.215774E0,0E0,0E0,9.8278284E-1,0E0,0E0,4.759134E-1,0E0,0E0,1.3210664E0,0E0,4.981351E-2,0E0,0E0,5.70766E-1,0E0,0E0,0E0,0E0,0E0,0E0],"parents":[2147483647,0,0,1,1,2,2,3,3,5,5,6,6,8,8,10,10,11,11,12,12,13,13,14,14,16,16,18,18,21,21,24,24,27,27,29,29,32,32],"right_children":[2,4,6,8,-1,10,12,-1,14,-1,16,18,20,22,24,-1,26,-1,28,-1,-1,30,-1,-1,32,-1,-1,34,-1,36,-1,-1,38,-1,-1,-1,-1,-1,-1],"split_conditions":[-6.315179E-2,-7.636127E-1,1E0,1E0,-7.717889E-2,1E0,1E0,-7.96532E-2,1E0,-7.098029E-2,1.6880004E0,6.3730913E-1,-1.5698478E0,-1.1138432E0,7.721077E-1,6.714076E-2,-3.9887008E-1,6.769421E-2,1E0,5.251787E-3,6.632426E-2,1E0,7.490324E-2,-7.2980165E-2,2.4297722E-1,-2.434408E-3,2.1925429E-2,9.875396E-1,5.8268357E-2,-8.672612E-1,5.5702735E-2,-4.517987E-2,1.8699424E0,1.2760259E-4,4.312041E-2,5.7471558E-3,2.3214987E-2,8.318829E-3,-2.6889756E-2],"split_indices":[4,4,6,6,0,5,5,0,5,0,4,4,3,4,3,0,3,0,7,0,0,7,0,0,2,0,0,4,0,3,0,0,2,0,0,0,0,0,0],"split_type":[0,0,0,0,0,0,0,0,0,0,0,0,0,0,0,0,0,0,0,0,0,0,0,0,0,0,0,0,0,0,0,0,0,0,0,0,0,0,0],"sum_hessian":[2.3292921E2,1.1164443E2,1.2128479E2,6.065268E1,5.0991753E1,2.8365253E1,9.291953E1,2.0874588E1,3.977809E1,1.6466642E1,1.189861E1,2.400862E1,6.891092E1,2.9299528E1,1.0478562E1,8.978669E0,2.9199414E0,9.064681E0,1.4943937E1,1.1843387E0,6.772658E1,1.484569E1,1.4453837E1,6.399695E0,4.078868E0,1.6031487E0,1.3167926E0,1.1403383E1,3.5405543E0,1.195766E1,2.88803E0,1.1959624E0,2.8829052E0,1.0237256E1,1.1661271E0,1.2382162E0,1.0719444E1,1.6848607E0,1.1980447E0],"tree_param":{"num_deleted":"0","num_feature":"8","num_nodes":"39","size_leaf_vector":"1"}},{"base_weights":[4.42871E-2,-8.3756113E-1,8.245205E-1,-2.1101253E-1,-7.590515E-2,3.7357498E-2,1.2349817E0,1.5227357E-1,-1.2466352E0,6.842041E-2,-4.5590672E-1,-2.2530201E-1,1.2885185E0,-1.1085535E-1,6.2781446E-2,-7.285086E-2,-1.4841992E-3,-7.5522983E-1,6.068456E-2,-5.4666787E-2,4.346861E-2,1.0774893E0,6.9179E-2,-3.3898574E-1,1.1888642E-1,-8.577191E-1,4.2220663E-2,6.3103475E-2,-6.7478344E-2,-4.5332895E-3,-1.9284336E-2,-1.7076906E-2,2.4357058E-1,-6.916263E-2,-2.546801E-2,3.4772387E-1,-2.6387898E-2,3.128777E-2,1.2181236E-2],"categories":[],"categories_nodes":[],"categories_segments":[],"categories_sizes":[],"default_left":[0,0,0,0,0,0,0,0,0,0,0,0,0,0,0,0,0,0,0,0,0,0,0,0,0,0,0,0,0,0,0,0,0,0,0,0,0,0,0],"id":10,"left_children":[1,3,5,7,-1,9,11,13,15,-1,17,19,21,23,-1,-1,-1,25,-1,-1,-1,27,-1,29,31,33,-1,-1,-1,-1,-1,-1,35,-1,-1,37,-1,-1,-1],"loss_changes":[1.5597926E2,4.506671E1,3.880674E1,2.1477552E1,0E0,2.8359941E1,6.4669113E0,1.2559074E1,3.7466278E0,0E0,1.6694918E1,4.4142823E0,4.108429E-2,1.8988304E0,0E0,0E0,0E0,5.214611E0,0E0,0E0,0E0,1.4352238E1,0E0,1.7438054E-1,1.1399636E0,4.098566E0,0E0,0E0,0E0,0E0,0E0,0E0,1.3941242E0,0E0,0E0,2.492578E-1,0E0,0E0,0E0],"parents":[2147483647,0,0,1,1,2,2,3,3,5,5,6,6,7,7,8,8,10,10,11,11,12,12,13,13,17,17,21,21,23,23,24,24,25,25,32,32,35,35],"right_children":[2,4,6,8,-1,10,12,14,16,-1,18,20,22,24,-1,-1,-1,26,-1,-1,-1,28,-1,30,32,34,-1,-1,-1,-1,-1,-1,36,-1,-1,38,-1,-1,-1],"split_conditions":[-6.315179E-2,-7.636127E-1,1E0,1E0,-7.590515E-2,6.3730913E-1,-1.5698478E0,1E0,1E0,6.842041E-2,1E0,1E0,1E0,-1.1138432E0,6.2781446E-2,-7.285086E-2,-1.4841992E-3,9.875396E-1,6.068456E-2,-5.4666787E-2,4.346861E-2,1.6880004E0,6.9179E-2,6.952104E-2,-8.672612E-1,-5.705054E-1,4.2220663E-2,6.3103475E-2,-6.7478344E-2,-4.5332895E-3,-1.9284336E-2,-1.7076906E-2,1.2404988E0,-6.916263E-2,-2.546801E-2,-1.646745E-1,-2.6387898E-2,3.128777E-2,1.2181236E-2],"split_indices":[4,4,5,5,0,4,3,7,1,0,7,7,1,4,0,0,0,4,0,0,0,4,0,3,3,2,0,0,0,0,0,0,3,0,0,3,0,0,0],"split_type":[0,0,0,0,0,0,0,0,0,0,0,0,0,0,0,0,0,0,0,0,0,0,0,0,0,0,0,0,0,0,0,0,0,0,0,0,0,0,0],"sum_hessian":[2.2469472E2,1.0544428E2,1.1925044E2,5.5582077E1,4.9862206E1,4.1244564E1,7.800588E1,4.1779285E1,1.3802793E1,1.0672128E1,3.0572435E1,2.6452484E0,7.5360634E1,3.446062E1,7.318663E0,1.1600136E1,2.202657E0,2.6389093E1,4.183341E0,1.4760339E0,1.1692144E0,2.7235195E1,4.8125435E1,1.7052359E1,1.7408262E1,2.5236025E1,1.1530691E0,2.5756393E1,1.4788021E0,3.1649556E0,1.3887403E1,3.339005E0,1.4069258E1,8.875582E0,1.6360443E1,1.2879336E1,1.1899216E0,2.1434329E0,1.0735904E1],"tree_param":{"num_deleted":"0","num_feature":"8","num_nodes":"39","size_leaf_vector":"1"}},{"base_weights":[-1.1338727E-2,-8.5985637E-1,8.0495197E-1,-3.0146605E-1,-7.301507E-2,-2.441434E-1,1.1384652E0,-7.679241E-2,3.8806885E-1,-1.0653088E0,6.546543E-2,8.6784446E-1,6.867959E-2,9.289393E-1,-1.1507028E0,4.306478E-2,-1.4002059E0,9.6973187E-1,-6.1119247E-2,-1.652856E-2,9.992257E-1,-6.753147E-2,1.0802686E-2,-7.233784E-2,-2.0385062E-2,7.649278E-1,6.545E-2,3.4415558E-2,1.2190785E0,8.637669E-1,-2.7598003E-2,6.652702E-2,1.6310763E-2,6.386444E-2,4.6005E-1,2.50047E-2,1.3206921E-3],"categories":[],"categories_nodes":[],"categories_segments":[],"categories_sizes":[],"default_left":[0,0,0,0,0,0,0,0,0,0,0,0,0,0,0,0,0,0,0,0,0,0,0,0,0,0,0,0,0,0,0,0,0,0,0,0,0],"id":11,"left_children":[1,3,5,7,-1,9,11,-1,13,15,-1,17,-1,19,21,-1,23,25,-1,-1,27,-1,-1,-1,-1,29,-1,-1,31,33,-1,-1,-1,-1,35,-1,-1],"loss_changes":[1.5803654E2,3.706729E1,4.0969414E1,5.1004677E1,0E0,3.8231564E1,4.4342346E0,0E0,3.335829E1,1.3750542E1,0E0,1.0518513E1,0E0,2.9205685E0,3.1709995E0,0E0,1.9301224E-1,1.9409714E0,0E0,0E0,1.0722275E0,0E0,0E0,0E0,0E0,4.226799E0,0E0,0E0,1.066988E0,3.9515362E0,0E0,0E0,0E0,0E0,2.5282788E-1,0E0,0E0],"parents":[2147483647,0,0,1,1,2,2,3,3,5,5,6,6,8,8,9,9,11,11,13,13,14,14,16,16,17,17,20,20,25,25,28,28,29,29,34,34],"right_children":[2,4,6,8,-1,10,12,-1,14,16,-1,18,-1,20,22,-1,24,26,-1,-1,28,-1,-1,-1,-1,30,-1,-1,32,34,-1,-1,-1,-1,36,-1,-1],"split_conditions":[-6.315179E-2,-7.636127E-1,1E0,1E0,-7.301507E-2,1E0,1E0,-7.679241E-2,-2.993445E-1,6.3730913E-1,6.546543E-2,1.6880004E0,6.867959E-2,-1.3356522E0,1E0,4.306478E-2,9.875396E-1,1E0,-6.1119247E-2,-1.652856E-2,-1.1138432E0,-6.753147E-2,1.0802686E-2,-7.233784E-2,-2.0385062E-2,1.8699424E0,6.545E-2,3.4415558E-2,-5.705054E-1,6.3730913E-1,-2.7598003E-2,6.652702E-2,1.6310763E-2,6.386444E-2,7.721077E-1,2.50047E-2,1.3206921E-3],"split_indices":[4,4,6,6,0,0,0,0,2,4,0,4,0,3,0,0,4,1,0,0,4,0,0,0,0,2,0,0,2,4,0,0,0,0,3,0,0],"split_type":[0,0,0,0,0,0,0,0,0,0,0,0,0,0,0,0,0,0,0,0,0,0,0,0,0,0,0,0,0,0,0,0,0,0,0,0,0],"sum_hessian":[2.2616716E2,1.1086837E2,1.152988E2,5.822421E1,5.264416E1,2.7877047E1,8.742175E1,2.042776E1,3.779645E1,1.8442465E1,9.434583E0,4.282405E1,4.45977E1,2.8259642E1,9.536809E0,2.4983084E0,1.5944156E1,4.134478E1,1.4792717E0,1.2979296E0,2.6961712E1,8.330099E0,1.2067105E0,1.479266E1,1.1514963E0,2.7810942E1,1.3533839E1,1.287904E1,1.4082673E1,2.618938E1,1.6215608E0,1.2083961E1,1.9987125E0,1.1868653E1,1.4320727E1,1.296978E1,1.3509473E0],"tree_param":{"num_deleted":"0","num_feature":"8","num_nodes":"37","size_leaf_vector":"1"}},{"base_weights":[-3.672203E-3,-8.189222E-1,7.8503793E-1,-2.3608662E-1,-7.110932E-2,-2.8878558E-1,1.1364675E0,-7.4184E-2,3.7822512E-1,-1.0421176E0,6.37569E-2,9.1414595E-1,6.7267634E-2,1.0143223E0,-1.0563848E0,3.9551865E-2,-1.3383262E0,1.0106629E0,-5.6818046E-2,2.7547091E-2,7.103211E-2,-6.6999316E-2,2.3557147E-2,-7.060342E-2,-1.8651234E-2,6.102826E-2,7.717222E-1,5.000667E-1,6.061066E-2,2.7795762E-2,-5.949977E-3],"categories":[],"categories_nodes":[],"categories_segments":[],"categories_sizes":[],"default_left":[0,0,0,0,0,0,0,0,0,0,0,0,0,0,0,0,0,0,0,0,0,0,0,0,0,0,0,0,0,0,0],"id":12,"left_children":[1,3,5,7,-1,9,11,-1,13,15,-1,17,-1,19,21,-1,23,25,-1,-1,-1,-1,-1,-1,-1,-1,27,29,-1,-1,-1],"loss_changes":[1.4305823E2,3.8129906E1,4.300403E1,4.412509E1,0E0,3.5120075E1,2.7363358E0,0E0,3.6555347E1,1.1868378E1,0E0,9.953808E0,0E0,4.3855343E0,6.018119E0,0E0,7.196655E-1,1.2157516E0,0E0,0E0,0E0,0E0,0E0,0E0,0E0,0E0,2.1266785E0,6.134093E-1,0E0,0E0,0E0],"parents":[2147483647,0,0,1,1,2,2,3,3,5,5,6,6,8,8,9,9,11,11,13,13,14,14,16,16,17,17,26,26,27,27],"right_children":[2,4,6,8,-1,10,12,-1,14,16,-1,18,-1,20,22,-1,24,26,-1,-1,-1,-1,-1,-1,-1,-1,28,30,-1,-1,-1],"split_conditions":[-6.315179E-2,-7.636127E-1,1E0,1E0,-7.110932E-2,1E0,1E0,-7.4184E-2,1E0,6.3730913E-1,6.37569E-2,1.6880004E0,6.7267634E-2,-1.1138432E0,1E0,3.9551865E-2,9.875396E-1,6.3730913E-1,-5.6818046E-2,2.7547091E-2,7.103211E-2,-6.6999316E-2,2.3557147E-2,-7.060342E-2,-1.8651234E-2,6.102826E-2,1E0,7.721077E-1,6.061066E-2,2.7795762E-2,-5.949977E-3],"split_indices":[4,4,6,6,0,0,0,0,5,4,0,4,0,4,0,0,4,4,0,0,0,0,0,0,0,0,1,3,0,0,0],"split_type":[0,0,0,0,0,0,0,0,0,0,0,0,0,0,0,0,0,0,0,0,0,0,0,0,0,0,0,0,0,0,0],"sum_hessian":[2.2048714E2,1.0840059E2,1.1208655E2,5.584145E1,5.255914E1,2.7681515E1,8.440504E1,1.7957247E1,3.7884205E1,1.890753E1,8.773986E0,4.3491886E1,4.0913147E1,2.6449585E1,1.143462E1,2.3977795E0,1.650975E1,4.202108E1,1.4708085E0,1.3457798E1,1.2991786E1,9.747642E0,1.6869775E0,1.4908056E1,1.6016939E0,2.0182827E1,2.1838251E1,1.4828566E1,7.0096855E0,1.3695086E1,1.13348E0],"tree_param":{"num_deleted":"0","num_feature":"8","num_nodes":"31","size_leaf_vector":"1"}},{"base_weights":[3.0514814E-2,-7.793707E-1,7.8716123E-1,-2.457558E-1,-7.0183344E-2,4.4773415E-2,1.1679282E0,4.7465544E-2,-1.1475999E0,6.405746E-2,-3.9358875E-1,8.506268E-1,6.616639E-2,-1.7837383E-1,5.9548397E-2,-6.716155E-2,2.786366E-2,-6.418351E-1,5.686946E-2,1.0919751E0,-6.6600285E-2,-1.8773884E-2,-1.270603E-1,-7.322498E-1,3.8691904E-2,7.5750417E-1,6.353017E-2,8.961718E-3,-1.8734193E-1,-5.196174E-1,-6.1558016E-2,4.9213916E-2,3.5362023E-1,-2.4098864E-1,-9.817529E-2,-4.8249103E-2,-2.1151299E-2,-1.3990405E-2,3.9474037E-2,-1.5117066E-2,1.4841608E-2,8.5033756E-4,-2.8823478E-2],"categories":[],"categories_nodes":[],"categories_segments":[],"categories_sizes":[],"default_left":[0,0,0,0,0,0,0,0,0,0,0,0,0,0,0,0,0,0,0,0,0,0,0,0,0,0,0,0,0,0,0,0,0,0,0,0,0,0,0,0,0,0,0],"id":13,"left_children":[1,3,5,7,-1,9,11,13,15,-1,17,19,-1,21,-1,-1,-1,23,-1,25,-1,-1,27,29,-1,31,-1,-1,33,35,-1,-1,37,39,41,-1,-1,-1,-1,-1,-1,-1,-1],"loss_changes":[1.3636617E2,3.546788E1,3.246308E1,1.5702232E1,0E0,2.2202814E1,2.6213455E0,1.1992349E1,5.6041718E0,0E0,1.22539425E1,1.608905E1,0E0,3.463514E-1,0E0,0E0,0E0,3.9880219E0,0E0,5.6490517E-1,0E0,0E0,6.3227105E-1,2.080184E0,0E0,6.939044E-1,0E0,0E0,1.08278394E-1,4.3957758E-1,0E0,0E0,1.7811954E0,6.3529515E-1,6.735569E-1,0E0,0E0,0E0,0E0,0E0,0E0,0E0,0E0],"parents":[2147483647,0,0,1,1,2,2,3,3,5,5,6,6,7,7,8,8,10,10,11,11,13,13,17,17,19,19,22,22,23,23,25,25,28,28,29,29,32,32,33,33,34,34],"right_children":[2,4,6,8,-1,10,12,14,16,-1,18,20,-1,22,-1,-1,-1,24,-1,26,-1,-1,28,30,-1,32,-1,-1,34,36,-1,-1,38,40,42,-1,-1,-1,-1,-1,-1,-1,-1],"split_conditions":[-6.315179E-2,-7.636127E-1,1E0,1E0,-7.0183344E-2,6.3730913E-1,1E0,1E0,1E0,6.405746E-2,1E0,1.6880004E0,6.616639E-2,-3.9887008E-1,5.9548397E-2,-6.716155E-2,2.786366E-2,1E0,5.686946E-2,1E0,-6.6600285E-2,-1.8773884E-2,6.952104E-2,-3.9887008E-1,3.8691904E-2,6.952104E-2,6.353017E-2,8.961718E-3,-1.1138432E0,-6.3306564E-1,-6.1558016E-2,4.9213916E-2,1E0,1.2404988E0,1.2404988E0,-4.8249103E-2,-2.1151299E-2,-1.3990405E-2,3.9474037E-2,-1.5117066E-2,1.4841608E-2,8.5033756E-4,-2.8823478E-2],"split_indices":[4,4,5,5,0,4,0,7,0,0,7,4,0,3,0,0,0,0,0,1,0,0,3,3,0,3,0,0,4,3,0,0,7,3,3,0,0,0,0,0,0,0,0],"split_type":[0,0,0,0,0,0,0,0,0,0,0,0,0,0,0,0,0,0,0,0,0,0,0,0,0,0,0,0,0,0,0,0,0,0,0,0,0,0,0,0,0,0,0],"sum_hessian":[2.2052959E2,1.065029E2,1.1402669E2,5.8173206E1,4.8329693E1,3.9035706E1,7.499098E1,4.4614746E1,1.355846E1,9.714349E0,2.9321358E1,2.6781393E1,4.8209587E1,3.796145E1,6.6532974E0,1.2353089E1,1.2053711E0,2.573003E1,3.5913277E0,2.4564796E1,2.2165954E0,6.5364685E0,3.142498E1,2.4639158E1,1.0908717E0,1.0376354E1,1.4188442E1,4.843185E0,2.6581797E1,1.8707605E1,5.931554E0,5.7248907E0,4.651464E0,1.5533474E1,1.1048323E1,1.7318814E0,1.6975723E1,2.041957E0,2.6095068E0,1.4335923E1,1.1975503E0,9.681325E0,1.3669977E0],"tree_param":{"num_deleted":"0","num_feature":"8","num_nodes":"43","size_leaf_vector":"1"}},{"base_weights":[3.2146734E-3,-7.92873E-1,7.392361E-1,-2.9448596E-1,-1.3464564E0,-3.1630293E-1,1.0253757E0,-7.21316E-2,3.5391596E-1,-4.4577364E-2,-7.028641E-2,-5.9553392E-2,8.6313605E-1,7.279306E-1,1.1562374E0,8.9940757E-1,-5.859974E-2,-1.627644E-2,1.04018E0,4.224736E-1,6.0945716E-2,5.698539E-4,5.936575E-2,4.6422982E-1,6.7897074E-2,5.8433194E-2,4.6257466E-1,5.8255423E-2,8.6321235E-2,2.8547364E-1,4.9419347E-2,1.5626587E-3,3.5276245E-2,9.195704E-4,1.742257E-2,4.215935E-3,1.4987131E-2],"categories":[],"categories_nodes":[],"categories_segments":[],"categories_sizes":[],"default_left":[0,0,0,0,0,0,0,0,0,0,0,0,0,0,0,0,0,0,0,0,0,0,0,0,0,0,0,0,0,0,0,0,0,0,0,0,0],"id":14,"left_children":[1,3,5,7,9,11,13,-1,15,-1,-1,-1,17,19,21,23,-1,-1,25,27,-1,-1,-1,29,-1,-1,31,-1,33,35,-1,-1,-1,-1,-1,-1,-1],"loss_changes":[1.2164853E2,2.7121346E1,3.2905746E1,4.053723E1,1.3259888E-2,2.5552908E1,2.4709244E0,0E0,3.0323647E1,0E0,0E0,0E0,2.5908666E0,3.789527E0,2.0287704E0,4.6514454E0,0E0,0E0,1.6838264E-1,4.6985054E0,0E0,0E0,0E0,1.1326663E0,0E0,0E0,3.3355248E-1,0E0,2.4847057E-1,1.1081576E-2,0E0,0E0,0E0,0E0,0E0,0E0,0E0],"parents":[2147483647,0,0,1,1,2,2,3,3,4,4,5,5,6,6,8,8,12,12,13,13,14,14,15,15,18,18,19,19,23,23,26,26,28,28,29,29],"right_children":[2,4,6,8,10,12,14,-1,16,-1,-1,-1,18,20,22,24,-1,-1,26,28,-1,-1,-1,30,-1,-1,32,-1,34,36,-1,-1,-1,-1,-1,-1,-1],"split_conditions":[-6.315179E-2,-7.636127E-1,1E0,1E0,-1.1014568E0,1E0,-2.993445E-1,-7.21316E-2,1E0,-4.4577364E-2,-7.028641E-2,-5.9553392E-2,-1.3356522E0,1E0,-1.5698478E0,-1.1138432E0,-5.859974E-2,-1.627644E-2,1.6880004E0,6.3730913E-1,6.0945716E-2,5.698539E-4,5.936575E-2,1E0,6.7897074E-2,5.8433194E-2,6.952104E-2,5.8255423E-2,9.875396E-1,-6.3306564E-1,4.9419347E-2,1.5626587E-3,3.5276245E-2,9.195704E-4,1.742257E-2,4.215935E-3,1.4987131E-2],"split_indices":[4,4,6,6,3,5,2,0,5,0,0,0,3,7,3,4,0,0,4,4,0,0,0,7,0,0,3,0,4,3,0,0,0,0,0,0,0],"split_type":[0,0,0,0,0,0,0,0,0,0,0,0,0,0,0,0,0,0,0,0,0,0,0,0,0,0,0,0,0,0,0,0,0,0,0,0,0],"sum_hessian":[2.0561314E2,9.873894E1,1.0687421E2,5.2766033E1,4.5972904E1,2.2770569E1,8.410364E1,1.860199E1,3.4164043E1,7.1486683E0,3.8824238E1,1.3068258E1,9.702311E0,2.7701477E1,5.640216E1,2.5469597E1,8.694446E0,1.1490376E0,8.553273E0,1.822412E1,9.477357E0,1.5267346E0,5.4875423E1,1.4100115E1,1.1369482E1,6.1597843E0,2.3934884E0,4.9102597E0,1.331386E1,1.166617E1,2.4339445E0,1.2690756E0,1.1244127E0,1.1423638E1,1.890222E0,1.2303741E0,1.0435796E1],"tree_param":{"num_deleted":"0","num_feature":"8","num_nodes":"37","size_leaf_vector":"1"}},{"base_weights":[-1.6940627E-2,-7.3946196E-1,6.6871005E-1,-2.3035073E-1,-6.692428E-2,-3.5809702E-1,9.854752E-1,-7.050661E-2,4.0775672E-1,-1.1008345E0,6.0156595E-2,6.8853086E-1,6.402368E-2,9.523457E-1,-5.5551585E-2,-6.544899E-2,3.0217916E-2,8.2460886E-1,-6.407365E-2,4.9201992E-1,6.768013E-2,1.0957985E0,5.2889967E-1,1.7659219E-2,4.5778196E-2,6.1143883E-2,1.0910764E-3,1.9995688E-1,5.353702E-2,-4.659777E-3,5.1059164E-2],"categories":[],"categories_nodes":[],"categories_segments":[],"categories_sizes":[],"default_left":[0,0,0,0,0,0,0,0,0,0,0,0,0,0,0,0,0,0,0,0,0,0,0,0,0,0,0,0,0,0,0],"id":15,"left_children":[1,3,5,7,-1,9,11,-1,13,15,-1,17,-1,19,-1,-1,-1,21,-1,23,-1,25,27,-1,-1,-1,-1,29,-1,-1,-1],"loss_changes":[1.0394834E2,3.084615E1,3.537461E1,4.305723E1,0E0,3.16117E1,6.3500137E0,0E0,3.1990587E1,7.2583027E0,0E0,1.2665657E1,0E0,4.5180416E0,0E0,0E0,0E0,2.717617E0,0E0,5.3762937E-1,0E0,2.7730541E0,3.6360364E0,0E0,0E0,0E0,0E0,3.6271496E0,0E0,0E0,0E0],"parents":[2147483647,0,0,1,1,2,2,3,3,5,5,6,6,8,8,9,9,11,11,13,13,17,17,19,19,21,21,22,22,27,27],"right_children":[2,4,6,8,-1,10,12,-1,14,16,-1,18,-1,20,-1,-1,-1,22,-1,24,-1,26,28,-1,-1,-1,-1,30,-1,-1,-1],"split_conditions":[-6.315179E-2,-7.636127E-1,1E0,1E0,-6.692428E-2,1E0,1E0,-7.050661E-2,1E0,2.4297722E-1,6.0156595E-2,1.6880004E0,6.402368E-2,-1.1138432E0,-5.5551585E-2,-6.544899E-2,3.0217916E-2,6.3730913E-1,-6.407365E-2,1E0,6.768013E-2,1.8699424E0,-2.993445E-1,1.7659219E-2,4.5778196E-2,6.1143883E-2,1.0910764E-3,1E0,5.353702E-2,-4.659777E-3,5.1059164E-2],"split_indices":[4,4,6,6,0,0,0,0,5,2,0,4,0,4,0,0,0,4,0,7,0,2,2,0,0,0,0,7,0,0,0],"split_type":[0,0,0,0,0,0,0,0,0,0,0,0,0,0,0,0,0,0,0,0,0,0,0,0,0,0,0,0,0,0,0],"sum_hessian":[2.0783008E2,1.0115598E2,1.06674095E2,5.5430256E1,4.5725727E1,2.5119081E1,8.1555016E1,1.9032206E1,3.639805E1,1.7221186E1,7.8978963E0,4.230499E1,3.9250023E1,2.7066004E1,9.332047E0,1.5554833E1,1.666353E0,4.0115437E1,2.189555E0,1.3641983E1,1.342402E1,1.951391E1,2.0601526E1,1.1655312E1,1.9866718E0,1.7325243E1,2.188666E0,1.3671071E1,6.930455E0,1.0728017E1,2.9430535E0],"tree_param":{"num_deleted":"0","num_feature":"8","num_nodes":"31","size_leaf_vector":"1"}},{"base_weights":[-2.5059278E-3,-7.4020875E-1,7.104935E-1,-2.3523526E-1,-1.2927178E0,-2.7555975E-1,1.0169598E0,-6.85616E-2,3.46776E-1,-8.504286E-1,-6.749333E-2,-5.7938177E-2,8.845044E-1,7.3115313E-1,6.307414E-2,9.2961323E-1,-9.978969E-1,-4.0460593E-1,-5.5070143E-2,-1.5753081E-2,1.0455585E0,8.429218E-1,-5.5470444E-2,5.197246E-1,6.607658E-2,-6.549027E-2,2.547625E-2,-4.2069606E-2,7.6980577E-3,5.8230948E-2,4.374628E-1,1.0561593E0,5.952874E-1,4.2475078E-1,4.328099E-2,-1.7964943E-4,3.4659393E-2,5.952402E-2,-2.0689357E-3,1.11990245E-2,5.358779E-2,3.9367187E-3,2.2683678E-2],"categories":[],"categories_nodes":[],"categories_segments":[],"categories_sizes":[],"default_left":[0,0,0,0,0,0,0,0,0,0,0,0,0,0,0,0,0,0,0,0,0,0,0,0,0,0,0,0,0,0,0,0,0,0,0,0,0,0,0,0,0,0,0],"id":16,"left_children":[1,3,5,7,9,11,13,-1,15,17,-1,-1,19,21,-1,23,25,27,-1,-1,29,31,-1,33,-1,-1,-1,-1,-1,-1,35,37,39,41,-1,-1,-1,-1,-1,-1,-1,-1,-1],"loss_changes":[1.0796385E2,2.7842087E1,3.1823112E1,3.613241E1,6.40564E-2,2.7188587E1,4.6576614E0,0E0,2.9501204E1,4.7070122E-1,0E0,0E0,2.5714703E0,8.99782E0,0E0,3.4821777E0,6.0775185E0,1.2348485E0,0E0,0E0,2.4804592E-1,1.3523903E0,0E0,1.0319376E-1,0E0,0E0,0E0,0E0,0E0,0E0,3.763594E-1,2.8307037E0,3.2364078E0,9.6473455E-2,0E0,0E0,0E0,0E0,0E0,0E0,0E0,0E0,0E0],"parents":[2147483647,0,0,1,1,2,2,3,3,4,4,5,5,6,6,8,8,9,9,12,12,13,13,15,15,16,16,17,17,20,20,21,21,23,23,30,30,31,31,32,32,33,33],"right_children":[2,4,6,8,10,12,14,-1,16,18,-1,-1,20,22,-1,24,26,28,-1,-1,30,32,-1,34,-1,-1,-1,-1,-1,-1,36,38,40,42,-1,-1,-1,-1,-1,-1,-1,-1,-1],"split_conditions":[-6.315179E-2,-7.636127E-1,1E0,1E0,-1.1014568E0,1E0,1E0,-6.85616E-2,1E0,-5.705054E-1,-6.749333E-2,-5.7938177E-2,-1.3356522E0,1.6880004E0,6.307414E-2,-1.1138432E0,1E0,1E0,-5.5070143E-2,-1.5753081E-2,1.6880004E0,6.3730913E-1,-5.5470444E-2,-5.705054E-1,6.607658E-2,-6.549027E-2,2.547625E-2,-4.2069606E-2,7.6980577E-3,5.8230948E-2,2.4297722E-1,1.8699424E0,1E0,-8.672612E-1,4.328099E-2,-1.7964943E-4,3.4659393E-2,5.952402E-2,-2.0689357E-3,1.11990245E-2,5.358779E-2,3.9367187E-3,2.2683678E-2],"split_indices":[4,4,6,6,3,5,0,0,5,2,0,0,3,4,0,4,0,6,0,0,4,4,0,2,0,0,0,0,0,0,2,2,5,3,0,0,0,0,0,0,0,0,0],"split_type":[0,0,0,0,0,0,0,0,0,0,0,0,0,0,0,0,0,0,0,0,0,0,0,0,0,0,0,0,0,0,0,0,0,0,0,0,0,0,0,0,0,0,0],"sum_hessian":[2.0326175E2,9.9881485E1,1.0338026E2,5.2930588E1,4.69509E1,2.453616E1,7.884409E1,1.7471966E1,3.5458622E1,7.1896057E0,3.9761295E1,1.3931026E1,1.0605133E1,3.8192997E1,4.06511E1,2.4952038E1,1.0506582E1,3.5304208E0,3.659185E0,1.1421213E0,9.463012E0,3.651749E1,1.6755054E0,1.3333388E1,1.16186495E1,8.81394E0,1.6926422E0,1.6970375E0,1.8333833E0,7.1482487E0,2.314763E0,1.7867144E1,1.8650347E1,1.2209069E1,1.1243185E0,1.2113924E0,1.1033707E0,1.58434725E1,2.0236716E0,1.1308126E1,7.3422213E0,1.2289392E0,1.098013E1],"tree_param":{"num_deleted":"0","num_feature":"8","num_nodes":"43","size_leaf_vector":"1"}},{"base_weights":[1.4521562E-2,-6.765313E-1,6.7184526E-1,-1.3002194E-1,-6.452034E-2,-2.8873485E-1,9.754032E-1,-6.702611E-2,4.5768273E-1,-9.3596977E-1,5.8405217E-2,6.864665E-1,6.186387E-2,-1.9478824E-2,5.0663966E-1,3.6454793E-2,-1.2182363E0,8.093621E-1,-5.7217952E-2,2.5092706E-1,6.8378735E-1,-6.410719E-2,-1.8646713E-2,5.850118E-1,5.781592E-2,3.1726938E-2,1.634253E-1,3.215843E-1,4.853284E-2,4.7226414E-2,2.9521295E-1,-2.5096033E-2,2.7618554E-1,4.090167E-1,-7.841956E-3,3.6739258E-3,4.8248615E-2,9.299845E-3,2.5797024E-2,4.9510966E-3,2.556224E-2],"categories":[],"categories_nodes":[],"categories_segments":[],"categories_sizes":[],"default_left":[0,0,0,0,0,0,0,0,0,0,0,0,0,0,0,0,0,0,0,0,0,0,0,0,0,0,0,0,0,0,0,0,0,0,0,0,0,0,0,0,0],"id":17,"left_children":[1,3,5,7,-1,9,11,-1,13,15,-1,17,-1,-1,19,-1,21,23,-1,25,27,-1,-1,29,-1,-1,31,33,-1,-1,35,-1,37,39,-1,-1,-1,-1,-1,-1,-1],"loss_changes":[9.155126E1,3.2798203E1,3.0397995E1,3.838666E1,0E0,2.5206429E1,5.1062164E0,0E0,1.710866E0,9.4710045E0,0E0,9.851419E0,0E0,0E0,1.4106855E0,0E0,3.855877E-1,2.262617E0,0E0,4.2915612E-1,1.771656E0,0E0,0E0,2.3211193E0,0E0,0E0,1.2094483E0,4.9746716E-1,0E0,0E0,2.1970673E0,0E0,1.8188703E-1,2.3571646E-1,0E0,0E0,0E0,0E0,0E0,0E0,0E0],"parents":[2147483647,0,0,1,1,2,2,3,3,5,5,6,6,8,8,9,9,11,11,14,14,16,16,17,17,19,19,20,20,23,23,26,26,27,27,30,30,32,32,33,33],"right_children":[2,4,6,8,-1,10,12,-1,14,16,-1,18,-1,-1,20,-1,22,24,-1,26,28,-1,-1,30,-1,-1,32,34,-1,-1,36,-1,38,40,-1,-1,-1,-1,-1,-1,-1],"split_conditions":[-6.315179E-2,-7.636127E-1,1E0,1E0,-6.452034E-2,1E0,1E0,-6.702611E-2,-1.3356522E0,6.3730913E-1,5.8405217E-2,1.6880004E0,6.186387E-2,-1.9478824E-2,-1.1138432E0,3.6454793E-2,9.875396E-1,1E0,-5.7217952E-2,-6.3306564E-1,7.721077E-1,-6.410719E-2,-1.8646713E-2,6.3730913E-1,5.781592E-2,3.1726938E-2,7.721077E-1,6.952104E-2,4.853284E-2,4.7226414E-2,1E0,-2.5096033E-2,1E0,-6.3306564E-1,-7.841956E-3,3.6739258E-3,4.8248615E-2,9.299845E-3,2.5797024E-2,4.9510966E-3,2.556224E-2],"split_indices":[4,4,6,6,0,0,1,0,3,4,0,4,0,0,4,0,4,7,0,3,3,0,0,4,0,0,3,3,0,0,0,0,7,3,0,0,0,0,0,0,0],"split_type":[0,0,0,0,0,0,0,0,0,0,0,0,0,0,0,0,0,0,0,0,0,0,0,0,0,0,0,0,0,0,0,0,0,0,0,0,0,0,0,0,0],"sum_hessian":[1.995452E2,9.726257E1,1.02282616E2,5.209565E1,4.5166924E1,2.457289E1,7.770973E1,1.6607697E1,3.5487957E1,1.7261568E1,7.311322E0,3.866756E1,3.904217E1,1.5585096E0,3.3929447E1,2.2726135E0,1.4988955E1,3.6758068E1,1.9094894E0,1.4874541E1,1.9054905E1,1.3454933E1,1.534021E0,2.3954584E1,1.2803487E1,1.6015496E0,1.3272991E1,9.359083E0,9.695822E0,9.68294E0,1.4271644E1,1.4233346E0,1.1849657E1,8.035636E0,1.3234471E0,1.1555667E1,2.7159777E0,9.900983E0,1.9486742E0,2.4809823E0,5.554653E0],"tree_param":{"num_deleted":"0","num_feature":"8","num_nodes":"41","size_leaf_vector":"1"}},{"base_weights":[6.302283E-3,-7.127385E-1,7.260894E-1,-2.6597613E-1,-1.2396287E0,-1.5653907E-1,1.0003846E0,-6.610164E-2,3.0703393E-1,-7.4920887E-1,-6.5033585E-2,-8.520032E-1,5.8283247E-2,-1.6786027E-1,1.0369109E0,-3.8644616E-2,3.7150759E-1,-4.7655158E-2,-4.4785357E-1,4.8458744E-2,-1.177138E0,1.4190306E-2,-2.6354855E-2,8.237849E-1,6.0850706E-2,4.4549254E-1,1.5566775E-1,-3.676156E-2,-6.9036456E-3,-6.2366422E-2,-1.8064162E-2,9.1542983E-1,-2.2241509E-2,1.9565399E-1,6.420977E-1,-1.3058265E-1,1.7720927E-2,5.5671334E-2,6.789077E-1,1.7739287E-2,6.8809553E-3,1.3806769E-1,4.296849E-2,6.736436E-3,-1.7444056E-2,4.3528128E-1,5.507806E-2,1.5003174E-2,-8.42883E-3,1.3954175E-2,4.3007076E-2],"categories":[],"categories_nodes":[],"categories_segments":[],"categories_sizes":[],"default_left":[0,0,0,0,0,0,0,0,0,0,0,0,0,0,0,0,0,0,0,0,0,0,0,0,0,0,0,0,0,0,0,0,0,0,0,0,0,0,0,0,0,0,0,0,0,0,0,0,0,0,0],"id":18,"left_children":[1,3,5,7,9,11,13,-1,15,17,-1,19,-1,21,23,-1,25,-1,27,-1,29,-1,-1,31,-1,33,35,-1,-1,-1,-1,37,-1,39,41,43,-1,-1,45,-1,-1,47,-1,-1,-1,49,-1,-1,-1,-1,-1],"loss_changes":[1.0076469E2,2.2598091E1,2.3710999E1,3.3071976E1,3.553009E-1,2.2999348E1,3.3471298E0,0E0,2.7801712E0,2.0192146E-2,0E0,1.0769106E1,0E0,6.5503895E-1,1.770546E0,0E0,4.810009E-1,0E0,3.277989E-1,0E0,3.653183E-1,0E0,0E0,4.614031E0,0E0,1.108695E0,6.342565E-1,0E0,0E0,0E0,0E0,8.397503E-1,0E0,6.66568E-2,1.3733807E0,3.3461598E-1,0E0,0E0,1.3830757E0,0E0,0E0,3.1363246E-1,0E0,0E0,0E0,6.3113236E-1,0E0,0E0,0E0,0E0,0E0],"parents":[2147483647,0,0,1,1,2,2,3,3,4,4,5,5,6,6,8,8,9,9,11,11,13,13,14,14,16,16,18,18,20,20,23,23,25,25,26,26,31,31,33,33,34,34,35,35,38,38,41,41,45,45],"right_children":[2,4,6,8,10,12,14,-1,16,18,-1,20,-1,22,24,-1,26,-1,28,-1,30,-1,-1,32,-1,34,36,-1,-1,-1,-1,38,-1,40,42,44,-1,-1,46,-1,-1,48,-1,-1,-1,50,-1,-1,-1,-1,-1],"split_conditions":[-6.315179E-2,-7.636127E-1,1E0,1E0,-1.1014568E0,1E0,-1.5698478E0,-6.610164E-2,-1.3356522E0,-1.3356522E0,-6.5033585E-2,6.3730913E-1,5.8283247E-2,2.038231E0,1E0,-3.8644616E-2,1E0,-4.7655158E-2,1E0,4.8458744E-2,9.875396E-1,1.4190306E-2,-2.6354855E-2,1.33777E0,6.0850706E-2,-1.1138432E0,7.721077E-1,-3.676156E-2,-6.9036456E-3,-6.2366422E-2,-1.8064162E-2,6.3730913E-1,-2.2241509E-2,-6.3306564E-1,-1.646745E-1,-3.9887008E-1,1.7720927E-2,5.5671334E-2,1E0,1.7739287E-2,6.8809553E-3,-3.9887008E-1,4.296849E-2,6.736436E-3,-1.7444056E-2,1E0,5.507806E-2,1.5003174E-2,-8.42883E-3,1.3954175E-2,4.3007076E-2],"split_indices":[4,4,6,6,3,0,3,0,3,3,0,4,0,4,1,0,7,0,6,0,4,0,0,4,0,4,3,0,0,0,0,4,0,3,3,3,0,0,7,0,0,3,0,0,0,0,0,0,0,0,0],"split_type":[0,0,0,0,0,0,0,0,0,0,0,0,0,0,0,0,0,0,0,0,0,0,0,0,0,0,0,0,0,0,0,0,0,0,0,0,0,0,0,0,0,0,0,0,0,0,0,0,0,0,0],"sum_hessian":[1.9269325E2,9.6401505E1,9.629175E1,5.29818E1,4.34197E1,2.2931602E1,7.3360146E1,1.81761E1,3.48057E1,6.275538E0,3.7144165E1,1.5260417E1,7.6711855E0,2.1151268E0,7.1245026E1,1.3418669E0,3.3463833E1,2.4530828E0,3.822455E0,2.01166E0,1.3248757E1,1.0300394E0,1.0850875E0,3.5183914E1,3.6061108E1,2.4128977E1,9.334855E0,1.2704709E0,2.551984E0,1.17122555E1,1.5365015E0,3.307311E1,2.1108048E0,1.1504566E1,1.2624412E1,3.9659238E0,5.368931E0,1.5984613E1,1.7088495E1,1.7079761E0,9.79659E0,4.2953873E0,8.329024E0,1.9629974E0,2.0029266E0,1.2127707E1,4.9607887E0,2.8246343E0,1.470753E0,1.0079069E1,2.0486376E0],"tree_param":{"num_deleted":"0","num_feature":"8","num_nodes":"51","size_leaf_vector":"1"}},{"base_weights":[-7.83221E-3,-6.836746E-1,6.321869E-1,-2.422471E-1,-1.2162234E0,1.5048294E-1,6.1429143E-2,-6.4363115E-2,2.7416986E-1,-8.0708843E-1,-6.393506E-2,-8.83305E-1,5.922154E-1,8.830944E-1,-9.881569E-1,-3.464787E-1,-5.302117E-2,3.3518013E-2,-1.1615517E0,7.269366E-1,-5.8342863E-2,5.0992435E-1,6.285247E-2,-6.0222905E-2,1.68263E-2,-3.759667E-2,4.8091384E-3,-6.237174E-2,-1.9628475E-3,1.050274E0,4.0604493E-1,3.947289E-2,1.9610723E-2,5.9753746E-2,1.7670542E-1,5.7557644E-3,4.342073E-2,-1.5286751E-3,1.5787488E-2],"categories":[],"categories_nodes":[],"categories_segments":[],"categories_sizes":[],"default_left":[0,0,0,0,0,0,0,0,0,0,0,0,0,0,0,0,0,0,0,0,0,0,0,0,0,0,0,0,0,0,0,0,0,0,0,0,0,0,0],"id":19,"left_children":[1,3,5,7,9,11,-1,-1,13,15,-1,17,19,21,23,25,-1,-1,27,29,-1,31,-1,-1,-1,-1,-1,-1,-1,33,35,-1,-1,-1,37,-1,-1,-1,-1],"loss_changes":[8.086023E1,2.1078667E1,2.7400276E1,2.7854729E1,1.492691E-2,2.5299948E1,0E0,0E0,2.772271E1,5.8211136E-1,0E0,7.9741E0,9.998776E0,2.7210274E0,3.797512E0,8.5713434E-1,0E0,0E0,1.3469238E0,3.358755E0,0E0,1.4250255E-1,0E0,0E0,0E0,0E0,0E0,0E0,0E0,2.0076904E0,2.5823581E0,0E0,0E0,0E0,1.1536034E-1,0E0,0E0,0E0,0E0],"parents":[2147483647,0,0,1,1,2,2,3,3,4,4,5,5,8,8,9,9,11,11,12,12,13,13,14,14,15,15,18,18,19,19,21,21,29,29,30,30,34,34],"right_children":[2,4,6,8,10,12,-1,-1,14,16,-1,18,20,22,24,26,-1,-1,28,30,-1,32,-1,-1,-1,-1,-1,-1,-1,34,36,-1,-1,-1,38,-1,-1,-1,-1],"split_conditions":[-6.315179E-2,-7.636127E-1,1E0,1E0,-1.1014568E0,1E0,6.1429143E-2,-6.4363115E-2,1E0,-5.705054E-1,-6.393506E-2,6.3730913E-1,1.6880004E0,-1.1138432E0,1E0,1E0,-5.302117E-2,3.3518013E-2,-2.818365E-2,6.3730913E-1,-5.8342863E-2,6.952104E-2,6.285247E-2,-6.0222905E-2,1.68263E-2,-3.759667E-2,4.8091384E-3,-6.237174E-2,-1.9628475E-3,1.8699424E0,-2.993445E-1,3.947289E-2,1.9610723E-2,5.9753746E-2,3.037166E-1,5.7557644E-3,4.342073E-2,-1.5286751E-3,1.5787488E-2],"split_indices":[4,4,0,6,3,6,0,0,5,2,0,4,4,4,0,6,0,0,2,4,0,3,0,0,0,0,0,0,0,2,2,0,0,0,3,0,0,0,0],"split_type":[0,0,0,0,0,0,0,0,0,0,0,0,0,0,0,0,0,0,0,0,0,0,0,0,0,0,0,0,0,0,0,0,0,0,0,0,0,0,0],"sum_hessian":[1.8493837E2,8.991861E1,9.501976E1,4.9961014E1,3.9957596E1,5.325692E1,4.176284E1,1.6030073E1,3.393094E1,7.137267E0,3.2820328E1,1.5644473E1,3.761245E1,2.3092125E1,1.0838816E1,3.3727162E0,3.7645512E0,2.1621728E0,1.3482301E1,3.5481773E1,2.1306734E0,1.2741236E1,1.0350889E1,9.395437E0,1.4433786E0,1.395681E0,1.9770352E0,1.2420337E1,1.061964E0,1.6541355E1,1.8940418E1,2.0844173E0,1.0656818E1,1.3873651E1,2.667705E0,1.2392099E1,6.5483193E0,1.384256E0,1.283449E0],"tree_param":{"num_deleted":"0","num_feature":"8","num_nodes":"39","size_leaf_vector":"1"}},{"base_weights":[-4.274818E-2,-7.2306985E-1,6.307643E-1,-2.6340258E-1,-6.241854E-2,1.7932782E-1,6.0371585E-2,-4.541059E-2,-9.553587E-1,1.0302049E0,-3.2235828E-1,-2.2284889E-1,5.1821746E-2,-5.8184452E-2,1.6294591E-2,5.4491647E-2,4.7283587E-1,-5.711628E-1,5.5547625E-1,6.166031E-2,-3.4925467E-1,1.5425353E-3,3.6804434E-2,-7.5430125E-1,3.7283194E-1,5.471579E-2,-5.4126423E-2,-1.2500447E-1,1.672771E-2,-3.9068928E-1,2.1888248E-3,-5.819733E-2,-5.090566E-1,-6.8531145E-4,2.974079E-2,-1.571035E-4,-1.6405472E-1,-2.2731943E-2,-1.15707405E-2,1.7856596E-2,-1.5518801E-2,-4.2289596E-2,-2.1360803E-2,-1.13416985E-2,-1.1359219E-3],"categories":[],"categories_nodes":[],"categories_segments":[],"categories_sizes":[],"default_left":[0,0,0,0,0,0,0,0,0,0,0,0,0,0,0,0,0,0,0,0,0,0,0,0,0,0,0,0,0,0,0,0,0,0,0,0,0,0,0,0,0,0,0,0,0],"id":20,"left_children":[1,3,5,7,-1,9,-1,11,13,15,17,19,-1,-1,-1,-1,21,23,25,27,29,-1,-1,31,33,-1,-1,35,-1,37,39,-1,41,-1,-1,-1,43,-1,-1,-1,-1,-1,-1,-1,-1],"loss_changes":[8.376792E1,2.1624992E1,2.3708305E1,7.461935E0,0E0,2.2838058E1,0E0,7.695651E0,3.5476255E0,1.4253998E-1,7.7276306E0,1.252579E0,0E0,0E0,0E0,0E0,4.0539098E-1,4.9367743E0,8.245359E0,6.215075E-1,3.4816265E-1,0E0,0E0,1.7065258E0,4.4101447E-1,0E0,0E0,3.5106458E-2,0E0,1.1215544E-1,5.0023127E-1,0E0,8.213425E-2,0E0,0E0,0E0,4.4974014E-2,0E0,0E0,0E0,0E0,0E0,0E0,0E0,0E0],"parents":[2147483647,0,0,1,1,2,2,3,3,5,5,7,7,8,8,9,9,10,10,11,11,16,16,17,17,18,18,19,19,20,20,23,23,24,24,27,27,29,29,30,30,32,32,36,36],"right_children":[2,4,6,8,-1,10,-1,12,14,16,18,20,-1,-1,-1,-1,22,24,26,28,30,-1,-1,32,34,-1,-1,36,-1,38,40,-1,42,-1,-1,-1,44,-1,-1,-1,-1,-1,-1,-1,-1],"split_conditions":[-6.315179E-2,-7.636127E-1,1E0,1E0,-6.241854E-2,6.3730913E-1,6.0371585E-2,1E0,1E0,1.8699424E0,1E0,6.952104E-2,5.1821746E-2,-5.8184452E-2,1.6294591E-2,5.4491647E-2,1E0,-2.818365E-2,1.6880004E0,-3.9887008E-1,-5.705054E-1,1.5425353E-3,3.6804434E-2,-5.705054E-1,1.3276207E0,5.471579E-2,-5.4126423E-2,-1.1014568E0,1.672771E-2,-1.1138432E0,-1.1138432E0,-5.819733E-2,-1.5698478E0,-6.8531145E-4,2.974079E-2,-1.571035E-4,-8.672612E-1,-2.2731943E-2,-1.15707405E-2,1.7856596E-2,-1.5518801E-2,-4.2289596E-2,-2.1360803E-2,-1.13416985E-2,-1.1359219E-3],"split_indices":[4,4,0,5,0,4,0,7,0,2,7,3,0,0,0,0,7,2,4,3,2,0,0,2,2,0,0,3,0,4,4,0,3,0,0,0,3,0,0,0,0,0,0,0,0],"split_type":[0,0,0,0,0,0,0,0,0,0,0,0,0,0,0,0,0,0,0,0,0,0,0,0,0,0,0,0,0,0,0,0,0,0,0,0,0,0,0,0,0,0,0,0,0],"sum_hessian":[1.8082213E2,8.991974E1,9.09024E1,4.8756523E1,4.116321E1,5.172283E1,3.9179565E1,3.7886494E1,1.0870031E1,1.8794025E1,3.2928802E1,3.323026E1,4.656233E0,9.428689E0,1.4413422E0,1.6114733E1,2.6792924E0,2.592908E1,6.999725E0,1.0379866E1,2.2850393E1,1.4171594E0,1.2621329E0,2.1884377E1,4.044702E0,5.516826E0,1.4828987E0,6.4855514E0,3.8943145E0,2.0340601E1,2.5097935E0,6.7924747E0,1.5091903E1,1.8177423E0,2.2269597E0,1.8361185E0,4.6494327E0,1.3190218E1,7.150382E0,1.1084605E0,1.401333E0,1.1256716E0,1.3966231E1,2.8005507E0,1.8488822E0],"tree_param":{"num_deleted":"0","num_feature":"8","num_nodes":"45","size_leaf_vector":"1"}},{"base_weights":[1.7192712E-2,-8.518592E-1,3.4893528E-1,-1.1816359E0,8.515876E-1,1.1585174E-1,8.8758665E-1,-6.320096E-2,-7.582656E-2,3.415798E-1,5.2249905E-2,3.0167347E-1,-2.2860032E-1,2.9440079E-2,5.2090973E-2,-1.5440615E-2,8.055699E-3,2.5565779E-2,-3.3550975E-3,1.2859742E-1,8.9269286E-1,-6.7032725E-1,2.8491625E-1,1.7546152E-1,-2.9616162E-1,-2.4857617E-3,5.0285228E-2,-9.717693E-1,-3.5504863E-1,2.1465002E-2,5.7643956E-1,-1.7921023E-2,2.0254754E-1,-2.1612491E-2,-3.8551216E-3,-4.7948542E-1,-5.6738973E-2,-1.2584366E-1,-4.7960117E-1,1.4144735E-1,-1.6963053E-1,3.6573645E-2,2.7401212E-1,3.0416566E-1,7.1404554E-2,-2.935045E-2,-8.687903E-3,-3.111114E-1,6.687214E-3,-5.6560053E-3,-4.116353E-2,-1.2962873E-1,3.2003143E-1,-2.3062445E-2,9.946546E-3,2.2097865E-2,3.149923E-3,2.2594234E-2,1.3322848E-2,1.9302116E-3,1.59703E-2,-4.037455E-3,-1.9608235E-2,3.6089816E-3,-4.581444E-3,-1.4076493E-3,-8.1784865E-3,2.6440857E-2,1.3391939E-3],"categories":[],"categories_nodes":[],"categories_segments":[],"categories_sizes":[],"default_left":[0,0,0,0,0,0,0,0,0,0,0,0,0,0,0,0,0,0,0,0,0,0,0,0,0,0,0,0,0,0,0,0,0,0,0,0,0,0,0,0,0,0,0,0,0,0,0,0,0,0,0,0,0,0,0,0,0,0,0,0,0,0,0,0,0,0,0,0,0],"id":21,"left_children":[1,3,5,7,9,11,13,-1,15,17,-1,19,21,-1,-1,-1,-1,-1,-1,23,25,27,29,31,33,-1,-1,35,37,39,41,-1,43,-1,-1,45,-1,47,49,51,53,-1,55,57,59,-1,-1,61,-1,63,-1,65,67,-1,-1,-1,-1,-1,-1,-1,-1,-1,-1,-1,-1,-1,-1,-1,-1],"loss_changes":[5.1324665E1,2.863818E1,1.6068726E1,3.6965752E0,4.8733902E-1,5.89694E0,1.1723728E0,0E0,2.6781845E-1,3.0061555E-1,0E0,5.979363E0,7.557678E0,0E0,0E0,0E0,0E0,0E0,0E0,9.9252284E-1,1.4693079E0,1.3425374E0,1.1949146E0,6.97054E-1,1.1773172E-1,0E0,0E0,1.3813782E-1,2.3240137E-1,2.3713256E-1,1.4762759E-1,0E0,5.344869E-1,0E0,0E0,2.4451792E-2,0E0,2.8045532E-1,1.0196238E0,3.4432894E-1,5.259884E-1,0E0,1.1798069E-1,8.871317E-3,1.4652137E-1,0E0,0E0,2.8057039E-2,0E0,3.1039914E-2,0E0,6.403476E-3,2.3438773E-1,0E0,0E0,0E0,0E0,0E0,0E0,0E0,0E0,0E0,0E0,0E0,0E0,0E0,0E0,0E0,0E0],"parents":[2147483647,0,0,1,1,2,2,3,3,4,4,5,5,6,6,8,8,9,9,11,11,12,12,19,19,20,20,21,21,22,22,23,23,24,24,27,27,28,28,29,29,30,30,32,32,35,35,37,37,38,38,39,39,40,40,42,42,43,43,44,44,47,47,49,49,51,51,52,52],"right_children":[2,4,6,8,10,12,14,-1,16,18,-1,20,22,-1,-1,-1,-1,-1,-1,24,26,28,30,32,34,-1,-1,36,38,40,42,-1,44,-1,-1,46,-1,48,50,52,54,-1,56,58,60,-1,-1,62,-1,64,-1,66,68,-1,-1,-1,-1,-1,-1,-1,-1,-1,-1,-1,-1,-1,-1,-1,-1],"split_conditions":[1E0,1E0,1E0,1E0,1E0,-2.993445E-1,1E0,-6.320096E-2,2.4297722E-1,1.3276207E0,5.2249905E-2,1E0,1E0,2.9440079E-2,5.2090973E-2,-1.5440615E-2,8.055699E-3,2.5565779E-2,-3.3550975E-3,1.2404988E0,-1.1014568E0,2.4297722E-1,1.3276207E0,-1.3356522E0,1.4746944E0,-2.4857617E-3,5.0285228E-2,1E0,1.3276207E0,2.4297722E-1,1E0,-1.7921023E-2,6.952104E-2,-2.1612491E-2,-3.8551216E-3,-3.9887008E-1,-5.6738973E-2,1E0,-3.9887008E-1,-3.9887008E-1,6.952104E-2,3.6573645E-2,1.8699424E0,-1.1014568E0,-5.705054E-1,-2.935045E-2,-8.687903E-3,-3.9887008E-1,6.687214E-3,1.8699424E0,-4.116353E-2,-2.818365E-2,5.3791213E-1,-2.3062445E-2,9.946546E-3,2.2097865E-2,3.149923E-3,2.2594234E-2,1.3322848E-2,1.9302116E-3,1.59703E-2,-4.037455E-3,-1.9608235E-2,3.6089816E-3,-4.581444E-3,-1.4076493E-3,-8.1784865E-3,2.6440857E-2,1.3391939E-3],"split_indices":[6,0,1,7,1,2,0,0,2,2,0,7,0,0,0,0,0,0,0,3,3,2,2,3,3,0,0,7,2,2,7,0,3,0,0,3,0,7,3,3,3,0,2,3,2,0,0,3,0,2,0,2,3,0,0,0,0,0,0,0,0,0,0,0,0,0,0,0,0],"split_type":[0,0,0,0,0,0,0,0,0,0,0,0,0,0,0,0,0,0,0,0,0,0,0,0,0,0,0,0,0,0,0,0,0,0,0,0,0,0,0,0,0,0,0,0,0,0,0,0,0,0,0,0,0,0,0,0,0,0,0,0,0,0,0,0,0,0,0,0,0],"sum_hessian":[1.7599326E2,4.8188377E1,1.2780488E2,4.0629154E1,7.559223E0,9.005266E1,3.7752224E1,3.767898E1,2.9501743E0,2.8390265E0,4.7201967E0,5.8576538E1,3.147612E1,1.4493167E1,2.3259056E1,1.3345586E0,1.6156158E0,1.8284793E0,1.0105473E0,4.6250095E1,1.2326442E1,1.6756668E1,1.471945E1,4.2182926E1,4.067169E0,1.3798573E0,1.0946585E1,7.5018215E0,9.254848E0,8.295967E0,6.423483E0,1.4461311E0,4.0736797E1,1.9083912E0,2.1587777E0,2.8466132E0,4.655208E0,3.9663079E0,5.2885394E0,5.2558236E0,3.0401437E0,3.308681E0,3.114802E0,2.2208704E1,1.8528091E1,1.4252983E0,1.421315E0,2.1986508E0,1.767657E0,2.6501908E0,2.6383488E0,2.1962404E0,3.0595832E0,1.5568368E0,1.4833068E0,1.1249828E0,1.989819E0,2.2827516E0,1.9925953E1,1.7384504E1,1.1435884E0,1.0918217E0,1.106829E0,1.4751234E0,1.1750674E0,1.009008E0,1.1872324E0,1.3179322E0,1.7416509E0],"tree_param":{"num_deleted":"0","num_feature":"8","num_nodes":"69","size_leaf_vector":"1"}},{"base_weights":[4.5991056E-2,-5.827885E-1,6.418412E-1,-1.2759915E-1,-5.964908E-2,2.3813513E-1,5.9119213E-2,-6.1434146E-2,3.1835738E-1,-6.954941E-1,6.2923205E-1,8.03377E-1,-9.2001957E-1,3.8027443E-2,-1.0392289E0,7.334603E-1,-5.172959E-2,3.2234517E-1,6.244823E-2,-5.986744E-2,5.872295E-3,-6.0051437E-2,1.7929489E-2,1.0093424E0,4.7590914E-1,2.3254992E-1,3.749236E-2,5.4696858E-2,4.440149E-1,1.4285362E-2,4.0926486E-2,1.8647665E-2,8.826877E-3,3.3542454E-2,5.2188295E-3],"categories":[],"categories_nodes":[],"categories_segments":[],"categories_sizes":[],"default_left":[0,0,0,0,0,0,0,0,0,0,0,0,0,0,0,0,0,0,0,0,0,0,0,0,0,0,0,0,0,0,0,0,0,0,0],"id":22,"left_children":[1,3,5,7,-1,9,-1,-1,11,13,15,17,19,-1,21,23,-1,25,-1,-1,-1,-1,-1,27,29,31,-1,-1,33,-1,-1,-1,-1,-1,-1],"loss_changes":[6.5823204E1,2.3601402E1,1.9395294E1,2.499267E1,0E0,1.9742748E1,0E0,0E0,2.26342E1,8.840246E0,7.3117E0,5.326296E0,3.2264833E0,0E0,3.4691458E0,2.0878277E0,0E0,3.7075102E-1,0E0,0E0,0E0,0E0,0E0,3.0618668E-1,1.1076255E0,3.785199E-2,0E0,0E0,2.2570431E-1,0E0,0E0,0E0,0E0,0E0,0E0],"parents":[2147483647,0,0,1,1,2,2,3,3,5,5,8,8,9,9,10,10,11,11,12,12,14,14,15,15,17,17,23,23,24,24,25,25,28,28],"right_children":[2,4,6,8,-1,10,-1,-1,12,14,16,18,20,-1,22,24,-1,26,-1,-1,-1,-1,-1,28,30,32,-1,-1,34,-1,-1,-1,-1,-1,-1],"split_conditions":[-6.315179E-2,-7.636127E-1,1E0,1E0,-5.964908E-2,1E0,5.9119213E-2,-6.1434146E-2,1E0,6.3730913E-1,1.6880004E0,-1.1138432E0,1E0,3.8027443E-2,2.4297722E-1,6.3730913E-1,-5.172959E-2,-5.705054E-1,6.244823E-2,-5.986744E-2,5.872295E-3,-6.0051437E-2,1.7929489E-2,1.8699424E0,1E0,6.952104E-2,3.749236E-2,5.4696858E-2,6.952104E-2,1.4285362E-2,4.0926486E-2,1.8647665E-2,8.826877E-3,3.3542454E-2,5.2188295E-3],"split_indices":[4,4,1,6,0,6,0,0,5,4,4,4,1,0,2,4,0,2,0,0,0,0,0,2,5,3,0,0,3,0,0,0,0,0,0],"split_type":[0,0,0,0,0,0,0,0,0,0,0,0,0,0,0,0,0,0,0,0,0,0,0,0,0,0,0,0,0,0,0,0,0,0,0],"sum_hessian":[1.7369019E2,8.452055E1,8.916963E1,4.910128E1,3.541927E1,5.1870533E1,3.72991E1,1.3648197E1,3.5453083E1,1.50838785E1,3.6786655E1,2.5727848E1,9.725238E0,2.6492379E0,1.243464E1,3.5144257E1,1.6423981E0,1.3200609E1,1.2527238E1,7.5522933E0,2.1729443E0,1.1270809E1,1.1638309E0,1.5558935E1,1.9585323E1,1.218514E1,1.01547E0,1.272042E1,2.8385148E0,1.3773186E1,5.8121376E0,1.8612446E0,1.03238945E1,1.1171906E0,1.7213242E0],"tree_param":{"num_deleted":"0","num_feature":"8","num_nodes":"35","size_leaf_vector":"1"}},{"base_weights":[-1.3629874E-2,-6.2032795E-1,5.9747505E-1,-1.8884924E-1,-1.1557304E0,1.8526164E-1,5.8438014E-2,5.7646085E-2,-9.426448E-1,-6.9604534E-1,-6.1168164E-2,9.255039E-1,-2.2049722E-1,-1.3690287E-1,5.186026E-2,-5.928371E-2,5.5818204E-3,-1.0449621E-2,-4.922853E-2,5.219506E-2,2.860513E-1,-4.993679E-1,6.2834877E-1,-3.246498E-1,6.267526E-2,2.2800032E-2,-5.816764E-4,-6.616884E-1,3.404224E-1,5.470149E-2,-5.045705E-2,3.1620425E-3,-2.0085448E-2,-2.4675106E-1,1.6255343E-1,-5.2269544E-2,-2.1655438E-2,7.595403E-4,2.6319368E-2,-1.659879E-2,-4.4686617E-3,1.9823616E-2,2.9661456E-2,2.2515403E-3,-1.2170507E-3],"categories":[],"categories_nodes":[],"categories_segments":[],"categories_sizes":[],"default_left":[0,0,0,0,0,0,0,0,0,0,0,0,0,0,0,0,0,0,0,0,0,0,0,0,0,0,0,0,0,0,0,0,0,0,0,0,0,0,0,0,0,0,0,0,0],"id":23,"left_children":[1,3,5,7,9,11,-1,13,15,17,-1,19,21,23,-1,-1,-1,-1,-1,-1,25,27,29,31,33,-1,-1,35,37,-1,-1,-1,-1,39,41,-1,-1,-1,-1,-1,-1,-1,43,-1,-1],"loss_changes":[6.3339207E1,1.9583641E1,1.9828787E1,9.095788E0,3.316536E-1,1.5412118E1,0E0,7.309742E0,3.2195005E0,8.0617476E-1,0E0,1.0732212E0,8.24693E0,1.229243E0,0E0,0E0,0E0,0E0,0E0,0E0,2.1820593E-1,3.7398505E0,7.761217E0,5.2714646E-1,5.4932684E-1,0E0,0E0,1.4720678E0,2.8452748E-1,0E0,0E0,0E0,0E0,2.95842E-2,3.94193E-1,0E0,0E0,0E0,0E0,0E0,0E0,0E0,8.905197E-3,0E0,0E0],"parents":[2147483647,0,0,1,1,2,2,3,3,4,4,5,5,7,7,8,8,9,9,11,11,12,12,13,13,20,20,21,21,22,22,23,23,24,24,27,27,28,28,33,33,34,34,42,42],"right_children":[2,4,6,8,10,12,-1,14,16,18,-1,20,22,24,-1,-1,-1,-1,-1,-1,26,28,30,32,34,-1,-1,36,38,-1,-1,-1,-1,40,42,-1,-1,-1,-1,-1,-1,-1,44,-1,-1],"split_conditions":[-6.315179E-2,-7.636127E-1,1E0,1E0,-1.1014568E0,6.3730913E-1,5.8438014E-2,1E0,1E0,-5.705054E-1,-6.1168164E-2,1.8699424E0,1E0,-1.1138432E0,5.186026E-2,-5.928371E-2,5.5818204E-3,-1.0449621E-2,-4.922853E-2,5.219506E-2,6.952104E-2,-2.818365E-2,1.6880004E0,6.952104E-2,-3.9887008E-1,2.2800032E-2,-5.816764E-4,-5.705054E-1,1.3276207E0,5.470149E-2,-5.045705E-2,3.1620425E-3,-2.0085448E-2,-1.1014568E0,6.952104E-2,-5.2269544E-2,-2.1655438E-2,7.595403E-4,2.6319368E-2,-1.659879E-2,-4.4686617E-3,1.9823616E-2,-5.705054E-1,2.2515403E-3,-1.2170507E-3],"split_indices":[4,4,1,5,3,4,0,7,1,2,0,2,7,4,0,0,0,0,0,0,3,2,4,3,3,0,0,2,2,0,0,0,0,3,3,0,0,0,0,0,0,0,2,0,0],"split_type":[0,0,0,0,0,0,0,0,0,0,0,0,0,0,0,0,0,0,0,0,0,0,0,0,0,0,0,0,0,0,0,0,0,0,0,0,0,0,0,0,0,0,0,0,0],"sum_hessian":[1.6883823E2,8.4717026E1,8.41212E1,4.766041E1,3.7056614E1,4.9632755E1,3.448845E1,3.6611706E1,1.1048705E1,6.201048E0,3.0855568E1,1.711969E1,3.2513065E1,3.1262869E1,5.348837E0,8.877634E0,2.1710715E0,2.9483511E0,3.2526968E0,1.3911439E1,3.2082517E0,2.4782877E1,7.7301884E0,1.5785998E1,1.547687E1,1.7037508E0,1.5045009E0,2.0946308E1,3.8365684E0,6.2769814E0,1.4532069E0,2.6460357E0,1.3139962E1,3.417819E0,1.20590515E1,6.4857163E0,1.4460592E1,1.7891805E0,2.0473878E0,1.4974732E0,1.9203457E0,3.650303E0,8.408749E0,6.675114E0,1.7336339E0],"tree_param":{"num_deleted":"0","num_feature":"8","num_nodes":"45","size_leaf_vector":"1"}},{"base_weights":[2.3106528E-2,-7.9329646E-1,3.3316436E-1,-1.0927167E0,4.0393528E-2,1.477706E-1,7.736695E-1,-6.0369026E-2,-1.5562934E-1,3.5158473E-1,-2.0028585E-1,8.811475E-1,6.2560415E-1,-2.8510196E-2,1.15281194E-1,1.8914509E-1,5.096811E-2,-5.432233E-1,-6.7470655E-2,4.6369505E-1,4.964223E-2,6.888564E-1,2.364273E-1,-1.25706E-3,1.3454405E-2,-8.943396E-3,2.2245151E-1,-6.99461E-3,-6.0840255E-1,-1.15005344E-1,1.6802324E-2,3.6242288E-2,1.0740309E-2,4.9175707E-1,4.4759214E-2,2.1790711E-2,2.0762188E-4,1.2358696E-1,2.6856008E-1,-4.3064456E-2,-3.8267362E-1,-1.1459843E-2,-2.181753E-1,2.8364608E-2,6.7366767E-3,2.2247616E-2,2.2778219E-2,2.1689968E-1,2.826401E-2,-1.4838357E-1,-2.7847294E-2,1.04007125E-1,-1.8432118E-1,-1.8421268E-2,1.3770033E-1,-6.4471955E-3,3.8825814E-3,1.3936351E-2,-1.772671E-2,-1.1944919E-2,1.369768E-3,1.6066654E-2,-2.2305187E-2,-2.1080477E-2,4.4865026E-3,-2.1972319E-3,1.4939281E-2],"categories":[],"categories_nodes":[],"categories_segments":[],"categories_sizes":[],"default_left":[0,0,0,0,0,0,0,0,0,0,0,0,0,0,0,0,0,0,0,0,0,0,0,0,0,0,0,0,0,0,0,0,0,0,0,0,0,0,0,0,0,0,0,0,0,0,0,0,0,0,0,0,0,0,0,0,0,0,0,0,0,0,0,0,0,0,0],"id":24,"left_children":[1,3,5,7,-1,9,11,-1,13,15,17,19,21,-1,23,25,-1,27,29,31,-1,33,35,-1,-1,-1,37,-1,39,41,-1,-1,-1,43,-1,-1,-1,45,47,-1,49,51,53,-1,-1,-1,55,57,-1,59,-1,61,63,-1,65,-1,-1,-1,-1,-1,-1,-1,-1,-1,-1,-1,-1],"loss_changes":[4.226272E1,2.2918818E1,9.763387E0,4.0185127E0,0E0,6.19677E0,1.5125275E-2,0E0,6.7401E-1,5.7547474E0,1.445072E0,3.8701153E-1,2.9049015E-1,0E0,9.547482E-2,5.954014E-1,0E0,1.4991021E-1,5.103395E-1,2.1559477E-1,0E0,1.8278646E-1,1.8794954E-1,0E0,0E0,0E0,1.5832663E-1,0E0,9.269285E-2,2.404795E-1,0E0,0E0,0E0,1.9469857E-1,0E0,0E0,0E0,4.8276788E-1,3.0350447E-1,0E0,1.5042734E-1,2.6681697E-1,6.569635E-1,0E0,0E0,0E0,1.1521087E-1,9.926336E-1,0E0,6.697371E-2,0E0,1.1090759E0,3.8440198E-1,0E0,1.3291252E-1,0E0,0E0,0E0,0E0,0E0,0E0,0E0,0E0,0E0,0E0,0E0,0E0],"parents":[2147483647,0,0,1,1,2,2,3,3,5,5,6,6,8,8,9,9,10,10,11,11,12,12,14,14,15,15,17,17,18,18,19,19,21,21,22,22,26,26,28,28,29,29,33,33,37,37,38,38,40,40,41,41,42,42,46,46,47,47,49,49,51,51,52,52,54,54],"right_children":[2,4,6,8,-1,10,12,-1,14,16,18,20,22,-1,24,26,-1,28,30,32,-1,34,36,-1,-1,-1,38,-1,40,42,-1,-1,-1,44,-1,-1,-1,46,48,-1,50,52,54,-1,-1,-1,56,58,-1,60,-1,62,64,-1,66,-1,-1,-1,-1,-1,-1,-1,-1,-1,-1,-1,-1],"split_conditions":[1E0,1E0,1E0,1E0,4.0393528E-2,1E0,1E0,-6.0369026E-2,-2.818365E-2,1E0,-2.818365E-2,5.141381E-1,1.8699424E0,-2.8510196E-2,6.952104E-2,-1.1014568E0,5.096811E-2,-5.705054E-1,1.2404988E0,-2.818365E-2,4.964223E-2,6.952104E-2,1.0063033E0,-1.25706E-3,1.3454405E-2,-8.943396E-3,-3.9887008E-1,-6.99461E-3,-1.3356522E0,1.5987816E0,1.6802324E-2,3.6242288E-2,1.0740309E-2,-1.646745E-1,4.4759214E-2,2.1790711E-2,2.0762188E-4,-6.3306564E-1,-5.705054E-1,-4.3064456E-2,-3.9887008E-1,1E0,1E0,2.8364608E-2,6.7366767E-3,2.2247616E-2,-5.705054E-1,1.2404988E0,2.826401E-2,-6.3306564E-1,-2.7847294E-2,1.0063033E0,-3.9887008E-1,-1.8421268E-2,6.952104E-2,-6.4471955E-3,3.8825814E-3,1.3936351E-2,-1.772671E-2,-1.1944919E-2,1.369768E-3,1.6066654E-2,-2.2305187E-2,-2.1080477E-2,4.4865026E-3,-2.1972319E-3,1.4939281E-2],"split_indices":[6,0,0,7,0,5,7,0,2,7,2,2,2,0,3,3,0,2,3,2,0,3,3,0,0,0,3,0,3,2,0,0,0,3,0,0,0,3,2,0,3,7,7,0,0,0,2,3,0,3,0,3,3,0,3,0,0,0,0,0,0,0,0,0,0,0,0],"split_type":[0,0,0,0,0,0,0,0,0,0,0,0,0,0,0,0,0,0,0,0,0,0,0,0,0,0,0,0,0,0,0,0,0,0,0,0,0,0,0,0,0,0,0,0,0,0,0,0,0,0,0,0,0,0,0,0,0,0,0,0,0,0,0,0,0,0,0],"sum_hessian":[1.6491501E2,4.496379E1,1.1995122E2,3.814768E1,6.8161144E0,8.536108E1,3.459014E1,3.373176E1,4.4159203E0,5.3829548E1,3.1531528E1,1.7173286E1,1.7416853E1,1.3086002E0,3.10732E0,4.4329464E1,9.500082E0,7.9399614E0,2.3591566E1,4.7124662E0,1.246082E1,1.4319494E1,3.0973592E0,2.0616336E0,1.0456866E0,3.3162966E0,4.101317E1,1.542318E0,6.3976436E0,2.174498E1,1.8465859E0,1.3664109E0,3.3460555E0,9.053914E0,5.26558E0,1.1951472E0,1.9022121E0,1.4214732E1,2.6798437E1,1.6894003E0,4.7082434E0,1.1407269E1,1.0337712E1,6.9867797E0,2.0671341E0,2.5790915E0,1.1635641E1,2.4298876E1,2.4995608E0,2.7980359E0,1.9102074E0,7.077799E0,4.329469E0,7.244031E0,3.0936816E0,2.7319894E0,8.903651E0,2.2388718E1,1.9101571E0,1.6099377E0,1.1880982E0,5.371585E0,1.7062143E0,2.0317965E0,2.2976727E0,1.7958359E0,1.2978457E0],"tree_param":{"num_deleted":"0","num_feature":"8","num_nodes":"67","size_leaf_vector":"1"}},{"base_weights":[7.826737E-3,-6.0759413E-1,6.4230555E-1,-2.0358932E-1,-1.1343652E0,-2.1393612E-1,9.0925837E-1,-6.0254343E-2,3.0014998E-1,-6.8664855E-1,-6.0201503E-2,-8.61314E-1,5.2519854E-2,6.895276E-1,5.7182606E-2,7.80179E-1,-4.6163306E-2,-3.6935234E-1,-4.572941E-2,2.5295103E-2,-5.4669023E-2,7.6557696E-1,-4.1482788E-2,3.8050404E-1,6.0370147E-2,-3.4428507E-2,-2.0998006E-3,5.616128E-1,5.594681E-2,2.3486196E-1,4.2094644E-2,4.2464744E-2,3.0515724E-1,2.188637E-2,8.622892E-3,3.5558257E-1,4.7449663E-2,9.9467235E-3,3.951774E-2,-7.630034E-3,1.1925937E-2],"categories":[],"categories_nodes":[],"categories_segments":[],"categories_sizes":[],"default_left":[0,0,0,0,0,0,0,0,0,0,0,0,0,0,0,0,0,0,0,0,0,0,0,0,0,0,0,0,0,0,0,0,0,0,0,0,0,0,0,0,0],"id":25,"left_children":[1,3,5,7,9,11,13,-1,15,17,-1,19,-1,21,-1,23,-1,25,-1,-1,-1,27,-1,29,-1,-1,-1,31,-1,33,-1,-1,35,-1,-1,37,39,-1,-1,-1,-1],"loss_changes":[6.454301E1,1.762752E1,1.879636E1,2.4935518E1,3.0247116E-1,1.739889E1,2.4164696E0,0E0,2.0223322E1,1.8307805E-1,0E0,4.956107E0,0E0,4.636978E0,0E0,3.7056952E0,0E0,4.609989E-1,0E0,0E0,0E0,1.7865047E0,0E0,7.4727035E-1,0E0,0E0,0E0,1.4563007E0,0E0,7.73859E-2,0E0,0E0,1.6315937E-1,0E0,0E0,6.2141466E-1,1.6716655E-1,0E0,0E0,0E0,0E0],"parents":[2147483647,0,0,1,1,2,2,3,3,4,4,5,5,6,6,8,8,9,9,11,11,13,13,15,15,17,17,21,21,23,23,27,27,29,29,32,32,35,35,36,36],"right_children":[2,4,6,8,10,12,14,-1,16,18,-1,20,-1,22,-1,24,-1,26,-1,-1,-1,28,-1,30,-1,-1,-1,32,-1,34,-1,-1,36,-1,-1,38,40,-1,-1,-1,-1],"split_conditions":[-6.315179E-2,-7.636127E-1,1E0,1E0,-1.1014568E0,1E0,1E0,-6.0254343E-2,1E0,1E0,-6.0201503E-2,6.3730913E-1,5.2519854E-2,1.6880004E0,5.7182606E-2,-1.1138432E0,-4.6163306E-2,1E0,-4.572941E-2,2.5295103E-2,-5.4669023E-2,1E0,-4.1482788E-2,1E0,6.0370147E-2,-3.4428507E-2,-2.0998006E-3,6.3730913E-1,5.594681E-2,6.952104E-2,4.2094644E-2,4.2464744E-2,7.721077E-1,2.188637E-2,8.622892E-3,1E0,1.2404988E0,9.9467235E-3,3.951774E-2,-7.630034E-3,1.1925937E-2],"split_indices":[4,4,6,6,3,0,0,0,5,5,0,4,0,4,0,4,0,6,0,0,0,7,0,7,0,0,0,4,0,3,0,0,3,0,0,5,3,0,0,0,0],"split_type":[0,0,0,0,0,0,0,0,0,0,0,0,0,0,0,0,0,0,0,0,0,0,0,0,0,0,0,0,0,0,0,0,0,0,0,0,0,0,0,0,0],"sum_hessian":[1.632956E2,8.291424E1,8.038136E1,4.770985E1,3.5204384E1,1.915167E1,6.122969E1,1.5500538E1,3.2209312E1,6.2020454E0,2.9002338E1,1.2877004E1,6.2746663E0,3.3637856E1,2.7591835E1,2.3392963E1,8.81635E0,3.688283E0,2.5137625E0,1.6973137E0,1.117969E1,3.2506653E1,1.1312026E0,1.3062977E1,1.0329987E1,1.3086958E0,2.379587E0,2.2251888E1,1.0254765E1,1.1075816E1,1.9871612E0,9.397955E0,1.2853933E1,1.1906886E0,9.885128E0,1.0432775E1,2.4211588E0,8.74097E0,1.6918044E0,1.2811354E0,1.1400232E0],"tree_param":{"num_deleted":"0","num_feature":"8","num_nodes":"41","size_leaf_vector":"1"}},{"base_weights":[2.3340011E-2,-2.53776E-1,4.499558E-2,-1.0205914E0,9.024171E-2,-5.843432E-2,-2.6057473E-1,3.297462E-1,-2.7905896E-1,-4.4977954E-1,1.4374109E-2,1.9635941E-1,4.6508003E-2,-5.384395E-1,-1.5223694E-1,-6.1999166E-1,-7.99724E-4,4.204442E-1,1.4984149E-1,-3.1431526E-2,-1.4219208E-1,-2.0366774E-1,1.5763467E-2,-3.9312642E-2,-1.04005225E-2,2.3460876E-2,3.3716436E-3,-8.564038E-3,2.27998E-1,2.560193E-3,-1.4553494E-2,-6.046731E-2,-3.9749914E-1,-5.9162583E-3,1.4601533E-3,2.4879215E-2,1.3722856E-1,-2.4480926E-2,2.2617878E-2,9.15078E-2,-6.2592155E-1,8.6289E-3,-5.408042E-3,1.4077127E-2,-6.599506E-3,-8.260579E-3,1.9679E-2,-1.4066267E-2,-3.871126E-2],"categories":[],"categories_nodes":[],"categories_segments":[],"categories_sizes":[],"default_left":[0,0,0,0,0,0,0,0,0,0,0,0,0,0,0,0,0,0,0,0,0,0,0,0,0,0,0,0,0,0,0,0,0,0,0,0,0,0,0,0,0,0,0,0,0,0,0,0,0],"id":26,"left_children":[1,3,-1,5,7,-1,9,11,13,15,-1,17,-1,19,21,23,-1,25,27,-1,29,31,-1,-1,-1,-1,-1,33,35,-1,-1,37,39,-1,-1,-1,41,-1,43,45,47,-1,-1,-1,-1,-1,-1,-1,-1],"loss_changes":[3.886771E1,3.2180298E1,0E0,3.9446487E0,7.600214E0,0E0,9.011641E-1,3.977954E0,1.0343697E0,4.2742884E-1,0E0,3.9330924E-1,0E0,2.947924E-1,6.457537E-1,1.2602234E-1,0E0,8.8389754E-2,4.6997756E-1,0E0,1.0949998E-1,5.9762853E-1,0E0,0E0,0E0,0E0,0E0,5.9225246E-2,5.5203915E-1,0E0,0E0,5.1240426E-1,1.1001909E0,0E0,0E0,0E0,1.9515085E-1,0E0,5.469831E-1,3.632086E-1,1.13940954E-1,0E0,0E0,0E0,0E0,0E0,0E0,0E0,0E0],"parents":[2147483647,0,0,1,1,3,3,4,4,6,6,7,7,8,8,9,9,11,11,13,13,14,14,15,15,17,17,18,18,20,20,21,21,27,27,28,28,31,31,32,32,36,36,38,38,39,39,40,40],"right_children":[2,4,-1,6,8,-1,10,12,14,16,-1,18,-1,20,22,24,-1,26,28,-1,30,32,-1,-1,-1,-1,-1,34,36,-1,-1,38,40,-1,-1,-1,42,-1,44,46,48,-1,-1,-1,-1,-1,-1,-1,-1],"split_conditions":[1E0,1E0,4.499558E-2,-2.993445E-1,1E0,-5.843432E-2,1.0063033E0,1E0,-2.818365E-2,1.3276207E0,1.4374109E-2,-6.3306564E-1,4.6508003E-2,7.721077E-1,1.2404988E0,1E0,-7.99724E-4,-5.705054E-1,-3.9887008E-1,-3.1431526E-2,1.2404988E0,6.952104E-2,1.5763467E-2,-3.9312642E-2,-1.04005225E-2,2.3460876E-2,3.3716436E-3,-5.705054E-1,1.0063033E0,2.560193E-3,-1.4553494E-2,-1.3356522E0,1.0564598E0,-5.9162583E-3,1.4601533E-3,2.4879215E-2,1.2404988E0,-2.4480926E-2,-6.3306564E-1,2.4297722E-1,1.8699424E0,8.6289E-3,-5.408042E-3,1.4077127E-2,-6.599506E-3,-8.260579E-3,1.9679E-2,-1.4066267E-2,-3.871126E-2],"split_indices":[1,6,0,2,5,0,3,7,2,2,0,3,0,3,3,7,0,2,3,0,3,3,0,0,0,0,0,2,3,0,0,3,2,0,0,0,3,0,3,2,2,0,0,0,0,0,0,0,0],"split_type":[0,0,0,0,0,0,0,0,0,0,0,0,0,0,0,0,0,0,0,0,0,0,0,0,0,0,0,0,0,0,0,0,0,0,0,0,0,0,0,0,0,0,0,0,0,0,0,0,0],"sum_hessian":[1.580672E2,1.20639244E2,3.7427948E1,3.6752117E1,8.388713E1,3.0308552E1,6.443565E0,5.095083E1,3.29363E1,4.9232416E0,1.5203234E0,4.2775047E1,8.175782E0,9.749885E0,2.3186415E1,3.2275352E0,1.6957064E0,5.9714103E0,3.680364E1,7.464426E0,2.2854583E0,2.1396877E1,1.7895377E0,1.6522696E0,1.5752656E0,4.9573054E0,1.014105E0,1.2453547E1,2.4350092E1,1.2794669E0,1.0059915E0,1.3060148E1,8.33673E0,2.6420455E0,9.811501E0,5.0045805E0,1.934551E1,1.3247234E0,1.1735424E1,2.845173E0,5.4915566E0,1.7168962E1,2.1765487E0,4.080587E0,7.6548376E0,1.7829695E0,1.0622034E0,2.523934E0,2.967623E0],"tree_param":{"num_deleted":"0","num_feature":"8","num_nodes":"49","size_leaf_vector":"1"}},{"base_weights":[2.0107124E-2,-5.355988E-1,6.042058E-1,-7.55283E-2,-5.7431467E-2,2.2131696E-1,5.7071067E-2,1.7724136E-1,-9.0193415E-1,5.2211564E-2,-2.2777188E-1,4.0246904E-2,4.883067E-2,-5.5352088E-2,2.5073325E-2,-4.4373512E-1,5.2477133E-1,-1.5793686E-1,8.16417E-2,-5.326688E-2,-1.9606143E-1,5.1301517E-2,-4.729917E-2,-1.0613658E-2,-3.5575111E-3,1.4846481E-2,1.815533E-2,-3.2367635E-1,2.756907E-2,-2.272271E-3,1.2358202E-1,-4.4492178E-2,-2.1200255E-1,9.046371E-3,-5.2201226E-3,-1.3605098E-2,1.2655012E-2],"categories":[],"categories_nodes":[],"categories_segments":[],"categories_sizes":[],"default_left":[0,0,0,0,0,0,0,0,0,0,0,0,0,0,0,0,0,0,0,0,0,0,0,0,0,0,0,0,0,0,0,0,0,0,0,0,0],"id":27,"left_children":[1,3,5,7,-1,9,-1,11,13,-1,15,17,-1,-1,-1,19,21,23,25,-1,27,-1,-1,-1,-1,-1,29,31,-1,-1,33,-1,35,-1,-1,-1,-1],"loss_changes":[5.2352627E1,2.3230118E1,1.591901E1,1.0249053E1,0E0,1.7660402E1,0E0,4.102557E0,3.8587952E0,0E0,5.3230934E0,2.8633767E-1,0E0,0E0,0E0,3.6212382E0,6.457181E0,1.3661459E-2,3.804741E-1,0E0,1.9922552E0,0E0,0E0,0E0,0E0,0E0,1.5894721E-1,8.7812734E-1,0E0,0E0,1.3489747E-1,0E0,4.994889E-1,0E0,0E0,0E0,0E0],"parents":[2147483647,0,0,1,1,2,2,3,3,5,5,7,7,8,8,10,10,11,11,15,15,16,16,17,17,18,18,20,20,26,26,27,27,30,30,32,32],"right_children":[2,4,6,8,-1,10,-1,12,14,-1,16,18,-1,-1,-1,20,22,24,26,-1,28,-1,-1,-1,-1,-1,30,32,-1,-1,34,-1,36,-1,-1,-1,-1],"split_conditions":[-6.315179E-2,-7.636127E-1,1E0,1E0,-5.7431467E-2,6.3730913E-1,5.7071067E-2,1E0,1E0,5.2211564E-2,1E0,-8.672612E-1,4.883067E-2,-5.5352088E-2,2.5073325E-2,-5.705054E-1,1.6880004E0,-1.1138432E0,6.952104E-2,-5.326688E-2,1.3276207E0,5.1301517E-2,-4.729917E-2,-1.0613658E-2,-3.5575111E-3,1.4846481E-2,-1.1138432E0,-1.5698478E0,2.756907E-2,-2.272271E-3,-5.705054E-1,-4.4492178E-2,-2.993445E-1,9.046371E-3,-5.2201226E-3,-1.3605098E-2,1.2655012E-2],"split_indices":[4,4,0,5,0,4,0,7,0,0,7,3,0,0,0,2,4,4,3,0,2,0,0,0,0,0,4,3,0,0,2,0,2,0,0,0,0],"split_type":[0,0,0,0,0,0,0,0,0,0,0,0,0,0,0,0,0,0,0,0,0,0,0,0,0,0,0,0,0,0,0,0,0,0,0,0,0],"sum_hessian":[1.5929291E2,8.167301E1,7.76199E1,4.7299E1,3.4374012E1,4.6143837E1,3.1476063E1,3.6821938E1,1.0477061E1,1.5823498E1,3.0320341E1,3.233141E1,4.490531E0,9.325332E0,1.1517292E0,2.3878183E1,6.4421573E0,5.0998297E0,2.7231579E1,5.862733E0,1.801545E1,5.030167E0,1.4119905E0,2.247052E0,2.852778E0,5.364163E0,2.1867416E1,1.5872422E1,2.1430285E0,1.3994122E1,7.8732944E0,1.4669578E0,1.4405464E1,6.455847E0,1.4174476E0,1.3124512E1,1.2809526E0],"tree_param":{"num_deleted":"0","num_feature":"8","num_nodes":"37","size_leaf_vector":"1"}},{"base_weights":[1.4444807E-2,-5.608732E-1,6.0604274E-1,-1.596027E-1,-1.1000786E0,2.3913166E-1,5.650113E-2,6.3136786E-2,-8.7843555E-1,-6.1469597E-1,-5.8774907E-2,4.6103798E-2,-1.4690155E-1,-8.613159E-2,4.7827087E-2,-5.3989775E-2,1.4792943E-2,-1.2688182E-2,-4.4138588E-2,-3.6401582E-1,4.8203222E-2,9.073179E-2,-1.7580232E-1,-2.2283734E-1,-5.8617856E-2,-1.3638315E-2,1.6760491E-1,-2.7178365E-1,2.2771543E-4,-4.155343E-1,4.5274533E-2,4.9850143E-2,1.2746552E-2,-1.7773358E-2,1.960498E-2,-2.5224832E-1,-4.1715167E-2,9.138732E-3,-3.2630872E-3,-2.4800964E-2,-9.980151E-3],"categories":[],"categories_nodes":[],"categories_segments":[],"categories_sizes":[],"default_left":[0,0,0,0,0,0,0,0,0,0,0,0,0,0,0,0,0,0,0,0,0,0,0,0,0,0,0,0,0,0,0,0,0,0,0,0,0,0,0,0,0],"id":28,"left_children":[1,3,5,7,9,11,-1,13,15,17,-1,-1,19,21,-1,-1,-1,-1,-1,23,-1,25,27,29,-1,-1,31,33,-1,35,-1,37,-1,-1,-1,39,-1,-1,-1,-1,-1],"loss_changes":[5.2775227E1,1.6836058E1,1.4424877E1,7.4602375E0,4.9925232E-1,1.2322012E1,0E0,4.915245E0,2.922226E0,4.1310644E-1,0E0,0E0,7.6822233E0,5.229665E-1,0E0,0E0,0E0,0E0,0E0,2.7231514E0,0E0,3.6469138E-1,3.7435943E-1,5.485258E0,0E0,0E0,9.055236E-2,9.218404E-1,0E0,1.2087944E0,0E0,9.6375674E-2,0E0,0E0,0E0,1.1102831E-1,0E0,0E0,0E0,0E0,0E0],"parents":[2147483647,0,0,1,1,2,2,3,3,4,4,5,5,7,7,8,8,9,9,12,12,13,13,19,19,21,21,22,22,23,23,26,26,27,27,29,29,31,31,35,35],"right_children":[2,4,6,8,10,12,-1,14,16,18,-1,-1,20,22,-1,-1,-1,-1,-1,24,-1,26,28,30,-1,-1,32,34,-1,36,-1,38,-1,-1,-1,40,-1,-1,-1,-1,-1],"split_conditions":[-6.315179E-2,-7.636127E-1,1E0,1E0,-1.1014568E0,6.3730913E-1,5.650113E-2,1E0,1E0,1E0,-5.8774907E-2,4.6103798E-2,1E0,3.037166E-1,4.7827087E-2,-5.3989775E-2,1.4792943E-2,-1.2688182E-2,-4.4138588E-2,1.33777E0,4.8203222E-2,-1.1014568E0,-1.1138432E0,1E0,-5.8617856E-2,-1.3638315E-2,-3.9887008E-1,1.2404988E0,2.2771543E-4,-3.9887008E-1,4.5274533E-2,-1.1138432E0,1.2746552E-2,-1.7773358E-2,1.960498E-2,-6.3306564E-1,-4.1715167E-2,9.138732E-3,-3.2630872E-3,-2.4800964E-2,-9.980151E-3],"split_indices":[4,4,0,5,3,4,0,7,0,5,0,0,1,3,0,0,0,0,0,4,0,3,4,7,0,0,3,3,0,3,0,4,0,0,0,3,0,0,0,0,0],"split_type":[0,0,0,0,0,0,0,0,0,0,0,0,0,0,0,0,0,0,0,0,0,0,0,0,0,0,0,0,0,0,0,0,0,0,0,0,0,0,0,0,0],"sum_hessian":[1.5305977E2,7.76239E1,7.543587E1,4.5247345E1,3.237656E1,4.522438E1,3.0211489E1,3.5239964E1,1.0007381E1,5.58475E0,2.679181E1,1.5830147E1,2.9394234E1,3.0969269E1,4.270694E0,8.611257E0,1.3961254E0,3.2097774E0,2.374973E0,2.5151299E1,4.242934E0,1.0415088E1,2.0554182E1,2.2497702E1,2.6535976E0,1.3732667E0,9.041821E0,1.3084181E1,7.4700003E0,1.9755554E1,2.742147E0,4.519014E0,4.5228066E0,1.2032082E1,1.0520989E0,1.5366301E1,4.3892546E0,1.8244479E0,2.694566E0,1.2333646E0,1.4132936E1],"tree_param":{"num_deleted":"0","num_feature":"8","num_nodes":"41","size_leaf_vector":"1"}},{"base_weights":[4.0856145E-2,-4.867704E-1,5.628877E-1,-4.59148E-2,-1.083465E0,1.9735636E-1,5.5716436E-2,-5.779148E-2,4.2215732E-1,-6.089112E-1,-5.7976127E-2,4.6307415E-2,-2.0353125E-1,7.932045E-1,-7.200176E-1,-2.761685E-1,-4.3064263E-2,-9.652728E-1,2.416513E-1,4.203726E-1,5.9170313E-2,-5.3355318E-2,2.2348186E-2,-3.1984586E-2,3.1686053E-3,-5.4288007E-2,-6.813418E-3,3.7548387E-1,-4.451124E-2,3.4419965E-2,3.2310718E-1,1.381633E-1,4.9085956E-2,1.2061386E-2,3.1080922E-2,1.8935075E-1,-6.843017E-3,4.0027867E-3,3.3986796E-2],"categories":[],"categories_nodes":[],"categories_segments":[],"categories_sizes":[],"default_left":[0,0,0,0,0,0,0,0,0,0,0,0,0,0,0,0,0,0,0,0,0,0,0,0,0,0,0,0,0,0,0,0,0,0,0,0,0,0,0],"id":29,"left_children":[1,3,5,7,9,11,-1,-1,13,15,-1,-1,17,19,21,23,-1,25,27,29,-1,-1,-1,-1,-1,-1,-1,31,-1,-1,33,35,-1,-1,-1,37,-1,-1,-1],"loss_changes":[4.249024E1,2.0143124E1,1.5403101E1,2.3965256E1,4.6959686E-1,1.4161448E1,0E0,0E0,1.4352363E1,3.1681418E-1,0E0,0E0,1.0974268E1,3.1424942E0,3.9189415E0,5.7387733E-1,0E0,1.0390034E0,3.4836388E0,1.515677E-1,0E0,0E0,0E0,0E0,0E0,0E0,0E0,2.640439E0,0E0,0E0,1.5338743E-1,2.3751435E-1,0E0,0E0,0E0,6.472581E-1,0E0,0E0,0E0],"parents":[2147483647,0,0,1,1,2,2,3,3,4,4,5,5,8,8,9,9,12,12,13,13,14,14,15,15,17,17,18,18,19,19,27,27,30,30,31,31,35,35],"right_children":[2,4,6,8,10,12,-1,-1,14,16,-1,-1,18,20,22,24,-1,26,28,30,-1,-1,-1,-1,-1,-1,-1,32,-1,-1,34,36,-1,-1,-1,38,-1,-1,-1],"split_conditions":[-6.315179E-2,-7.636127E-1,1E0,1E0,-1.1014568E0,6.3730913E-1,5.5716436E-2,-5.779148E-2,1E0,1E0,-5.7976127E-2,4.6307415E-2,1E0,-1.1138432E0,1E0,1E0,-4.3064263E-2,1E0,1.6880004E0,6.952104E-2,5.9170313E-2,-5.3355318E-2,2.2348186E-2,-3.1984586E-2,3.1686053E-3,-5.4288007E-2,-6.813418E-3,1E0,-4.451124E-2,3.4419965E-2,1E0,6.952104E-2,4.9085956E-2,1.2061386E-2,3.1080922E-2,1E0,-6.843017E-3,4.0027867E-3,3.3986796E-2],"split_indices":[4,4,1,6,3,4,0,0,5,5,0,0,6,4,1,6,0,5,4,3,0,0,0,0,0,0,0,7,0,0,7,3,0,0,0,5,0,0,0],"split_type":[0,0,0,0,0,0,0,0,0,0,0,0,0,0,0,0,0,0,0,0,0,0,0,0,0,0,0,0,0,0,0,0,0,0,0,0,0,0,0],"sum_hessian":[1.5226964E2,7.5762596E1,7.650705E1,4.4190384E1,3.157221E1,4.6825752E1,2.9681293E1,1.2672176E1,3.1518206E1,5.605177E0,2.5967035E1,1.6152016E1,3.0673737E1,2.4020449E1,7.4977565E0,3.3209503E0,2.2842267E0,1.0883304E1,1.9790432E1,1.3345933E1,1.0674517E1,5.8449187E0,1.6528376E0,1.176915E0,2.144035E0,9.231835E0,1.651468E0,1.829545E1,1.4949826E0,1.9353379E0,1.1410595E1,1.4030779E1,4.264671E0,1.0373361E1,1.0372343E0,1.2091767E1,1.9390113E0,1.0839217E1,1.2525496E0],"tree_param":{"num_deleted":"0","num_feature":"8","num_nodes":"39","size_leaf_vector":"1"}},{"base_weights":[-3.7241016E-2,-5.81978E-1,5.465574E-1,-2.3476067E-1,-1.0713692E0,1.7627487E-1,5.555233E-2,-5.764673E-2,1.8849772E-1,-5.6588614E-1,-5.749494E-2,-7.0104045E-1,5.0902575E-1,-1.2828511E-1,3.109807E-1,-3.947063E-2,-2.9018387E-1,3.0824542E-2,-5.1329125E-2,6.1153954E-1,-4.4749912E-2,-4.160569E-3,-2.7687848E-2,1.591973E-2,6.256647E-1,-3.0901497E-2,2.4200646E-4,4.303589E-1,5.1360197E-2,1.260398E-1,-1.2875828E-2,-6.208032E-2,2.2063177E-2,4.045421E-2,8.096272E-3,7.1917695E-1,1.8315408E-1,-1.2803743E-2,3.1195718E-1,-3.2962726E-3,-1.0351547E-3,4.3192137E-2,1.9704089E-2,2.2930475E-3,3.749036E-2,2.1138618E-2,5.606646E-3],"categories":[],"categories_nodes":[],"categories_segments":[],"categories_sizes":[],"default_left":[0,0,0,0,0,0,0,0,0,0,0,0,0,0,0,0,0,0,0,0,0,0,0,0,0,0,0,0,0,0,0,0,0,0,0,0,0,0,0,0,0,0,0,0,0,0,0],"id":30,"left_children":[1,3,5,7,9,11,-1,-1,13,15,-1,17,19,21,23,-1,25,-1,-1,27,-1,29,-1,31,33,-1,-1,35,-1,37,-1,39,-1,-1,-1,41,43,-1,45,-1,-1,-1,-1,-1,-1,-1,-1],"loss_changes":[4.731685E1,1.2821758E1,1.4822607E1,1.820506E1,6.0564804E-1,1.3370467E1,0E0,0E0,1.3024902E0,1.5453851E-1,0E0,6.07107E0,5.2825756E0,5.1427E-1,2.1961088E0,0E0,4.255111E-1,0E0,0E0,1.9117327E0,0E0,3.1548372E-1,0E0,4.682491E-1,8.447156E-1,0E0,0E0,1.5452514E0,0E0,5.302048E-1,0E0,5.6113675E-4,0E0,0E0,0E0,1.5294695E-1,1.0545746E0,0E0,5.699846E-2,0E0,0E0,0E0,0E0,0E0,0E0,0E0,0E0],"parents":[2147483647,0,0,1,1,2,2,3,3,4,4,5,5,8,8,9,9,11,11,12,12,13,13,14,14,16,16,19,19,21,21,23,23,24,24,27,27,29,29,31,31,35,35,36,36,38,38],"right_children":[2,4,6,8,10,12,-1,-1,14,16,-1,18,20,22,24,-1,26,-1,-1,28,-1,30,-1,32,34,-1,-1,36,-1,38,-1,40,-1,-1,-1,42,44,-1,46,-1,-1,-1,-1,-1,-1,-1,-1],"split_conditions":[-6.315179E-2,-7.636127E-1,1E0,1E0,-1.1014568E0,1E0,5.555233E-2,-5.764673E-2,-1.646745E-1,-1.3356522E0,-5.749494E-2,6.3730913E-1,1.6880004E0,1E0,-1.1138432E0,-3.947063E-2,1E0,3.0824542E-2,-5.1329125E-2,1E0,-4.4749912E-2,1E0,-2.7687848E-2,1.2404988E0,1E0,-3.0901497E-2,2.4200646E-4,6.3730913E-1,5.1360197E-2,-1.1138432E0,-1.2875828E-2,1E0,2.2063177E-2,4.045421E-2,8.096272E-3,6.952104E-2,1E0,-1.2803743E-2,-8.672612E-1,-3.2962726E-3,-1.0351547E-3,4.3192137E-2,1.9704089E-2,2.2930475E-3,3.749036E-2,2.1138618E-2,5.606646E-3],"split_indices":[4,4,0,6,3,6,0,0,3,3,0,4,4,1,4,0,6,0,0,1,0,7,0,3,7,0,0,4,0,4,0,7,0,0,0,3,7,0,3,0,0,0,0,0,0,0,0],"split_type":[0,0,0,0,0,0,0,0,0,0,0,0,0,0,0,0,0,0,0,0,0,0,0,0,0,0,0,0,0,0,0,0,0,0,0,0,0,0,0,0,0,0,0,0,0,0,0],"sum_hessian":[1.4678714E2,7.593552E1,7.085162E1,4.5285603E1,3.0649912E1,4.3578274E1,2.7273352E1,1.3744887E1,3.1540714E1,5.224786E0,2.5425127E1,1.1679046E1,3.1899227E1,8.781467E0,2.2759247E1,1.8564136E0,3.3683724E0,2.1368928E0,9.542153E0,3.0254642E1,1.644584E0,7.5799255E0,1.2015423E0,1.2288046E1,1.0471201E1,1.0768613E0,2.291511E0,2.2487913E1,7.766729E0,5.338813E0,2.2411125E0,1.1105545E1,1.1825012E0,6.969792E0,3.5014088E0,9.490543E0,1.2997371E1,1.6238885E0,3.7149243E0,9.618438E0,1.487107E0,5.421017E0,4.0695257E0,1.1332562E1,1.6648083E0,1.6719835E0,2.042941E0],"tree_param":{"num_deleted":"0","num_feature":"8","num_nodes":"47","size_leaf_vector":"1"}},{"base_weights":[4.324594E-2,-1.9929695E-1,3.7224274E-2,-9.928918E-1,1.1543514E-1,-1.1222585E0,-2.1770319E-2,3.4434867E-1,-2.8265956E-1,-5.7371307E-2,-2.01511E-2,-2.2782966E-1,1.7583532E-2,2.1686211E-1,4.6528354E-2,-5.1671165E-1,-8.938346E-2,6.2556737E-3,-2.605193E-2,2.3511237E-1,-4.5631826E-2,-2.5819582E-1,-6.1894256E-1,2.0804225E-1,-2.8657648E-1,2.81382E-1,1.625517E-1,-1.6813584E-2,1.2606694E-2,-2.6279345E-2,4.347242E-3,-1.3665266E-2,-3.461817E-2,3.217396E-1,-1.4493538E-2,-4.2925504E-1,1.0819223E-1,1.6719747E-2,2.0804621E-1,6.741889E-3,1.44874705E-2,1.9844165E-2,6.5602264E-3,-6.4897924E-3,4.517007E-3,-7.473014E-3,-2.8675443E-2,8.714533E-3,1.4212367E-4,-1.8415006E-3,1.1826604E-2],"categories":[],"categories_nodes":[],"categories_segments":[],"categories_sizes":[],"default_left":[0,0,0,0,0,0,0,0,0,0,0,0,0,0,0,0,0,0,0,0,0,0,0,0,0,0,0,0,0,0,0,0,0,0,0,0,0,0,0,0,0,0,0,0,0,0,0,0,0,0,0],"id":31,"left_children":[1,3,-1,5,7,9,11,13,15,-1,-1,17,-1,19,-1,21,23,-1,-1,25,27,29,31,33,35,37,39,-1,-1,-1,-1,-1,-1,41,43,45,47,-1,49,-1,-1,-1,-1,-1,-1,-1,-1,-1,-1,-1,-1],"loss_changes":[2.432481E1,2.6691452E1,0E0,3.7847137E0,7.122053E0,2.1526337E-2,4.32867E-1,3.4895873E0,1.2517507E0,0E0,0E0,4.3369144E-1,0E0,2.1132958E-1,0E0,1.776278E-1,1.0522256E0,0E0,0E0,8.625364E-2,3.928386E-1,5.379592E-1,2.4802208E-2,1.9004014E-1,6.4334613E-1,1.844287E-2,2.324149E-2,0E0,0E0,0E0,0E0,0E0,0E0,1.7971992E-2,5.3239368E-2,2.3658693E-1,2.4656966E-2,0E0,9.34301E-2,0E0,0E0,0E0,0E0,0E0,0E0,0E0,0E0,0E0,0E0,0E0,0E0],"parents":[2147483647,0,0,1,1,3,3,4,4,5,5,6,6,7,7,8,8,11,11,13,13,15,15,16,16,19,19,20,20,21,21,22,22,23,23,24,24,25,25,26,26,33,33,34,34,35,35,36,36,38,38],"right_children":[2,4,-1,6,8,10,12,14,16,-1,-1,18,-1,20,-1,22,24,-1,-1,26,28,30,32,34,36,38,40,-1,-1,-1,-1,-1,-1,42,44,46,48,-1,50,-1,-1,-1,-1,-1,-1,-1,-1,-1,-1,-1,-1],"split_conditions":[1E0,1E0,3.7224274E-2,-2.818365E-2,1E0,1E0,1.8699424E0,1E0,2.4297722E-1,-5.7371307E-2,-2.01511E-2,-1.646745E-1,1.7583532E-2,1.2404988E0,4.6528354E-2,1E0,1.5987816E0,6.2556737E-3,-2.605193E-2,1.0063033E0,1.4746944E0,-2.818365E-2,-2.993445E-1,1E0,1E0,-5.705054E-1,-5.705054E-1,-1.6813584E-2,1.2606694E-2,-2.6279345E-2,4.347242E-3,-1.3665266E-2,-3.461817E-2,6.952104E-2,-1.646745E-1,6.952104E-2,-1.646745E-1,1.6719747E-2,-6.3306564E-1,6.741889E-3,1.44874705E-2,1.9844165E-2,6.5602264E-3,-6.4897924E-3,4.517007E-3,-7.473014E-3,-2.8675443E-2,8.714533E-3,1.4212367E-4,-1.8415006E-3,1.1826604E-2],"split_indices":[0,6,0,2,5,5,2,7,2,0,0,3,0,3,0,7,2,0,0,3,3,2,2,7,7,2,2,0,0,0,0,0,0,3,3,3,3,0,3,0,0,0,0,0,0,0,0,0,0,0,0],"split_type":[0,0,0,0,0,0,0,0,0,0,0,0,0,0,0,0,0,0,0,0,0,0,0,0,0,0,0,0,0,0,0,0,0,0,0,0,0,0,0,0,0,0,0,0,0,0,0,0,0,0,0],"sum_hessian":[1.411469E2,1.0540536E2,3.5741535E1,2.932013E1,7.608523E1,2.5736095E1,3.5840333E0,4.83931E1,2.7692125E1,2.429077E1,1.4453268E0,2.5608892E0,1.0231439E0,4.0874043E1,7.5190578E0,1.17679825E1,1.5924144E1,1.4222211E0,1.1386682E0,3.8314487E1,2.559556E0,4.334006E0,7.4339767E0,6.3266525E0,9.597491E0,2.1638449E1,1.6676037E1,1.2298354E0,1.3297205E0,2.147473E0,2.1865325E0,2.1298592E0,5.3041177E0,3.8922482E0,2.4344046E0,6.985435E0,2.612056E0,1.049329E1,1.1145159E1,1.5384185E1,1.2918526E0,2.0146945E0,1.8775536E0,1.0459236E0,1.388481E0,3.068964E0,3.9164708E0,1.2029206E0,1.4091355E0,1.1308637E0,1.0014296E1],"tree_param":{"num_deleted":"0","num_feature":"8","num_nodes":"51","size_leaf_vector":"1"}},{"base_weights":[4.2352676E-3,-5.5047005E-1,5.7470286E-1,-1.5069756E-1,-5.3133886E-2,2.2874716E-1,5.476578E-2,-5.5960603E-2,2.8964812E-1,4.6182655E-2,-1.3704488E-1,7.687549E-1,-9.2962354E-1,-5.0374575E-2,2.4357057E-1,1.8024236E-2,5.7625707E-2,-5.5084486E-2,5.428286E-3,3.8360742E-1,-4.3952417E-2,2.0275924E-1,4.542645E-2,1.30077405E-2,-7.6845475E-3],"categories":[],"categories_nodes":[],"categories_segments":[],"categories_sizes":[],"default_left":[0,0,0,0,0,0,0,0,0,0,0,0,0,0,0,0,0,0,0,0,0,0,0,0,0],"id":32,"left_children":[1,3,5,7,-1,9,-1,-1,11,-1,13,15,17,-1,19,-1,-1,-1,-1,21,-1,23,-1,-1,-1],"loss_changes":[4.4146797E1,1.4324259E1,1.2136309E1,1.776459E1,0E0,1.0950502E1,0E0,0E0,1.7600784E1,0E0,9.776348E0,2.921691E0,1.6571546E0,0E0,3.6104403E0,0E0,0E0,0E0,0E0,1.639226E0,0E0,3.5859436E-1,0E0,0E0,0E0],"parents":[2147483647,0,0,1,1,2,2,3,3,5,5,8,8,10,10,11,11,12,12,14,14,19,19,21,21],"right_children":[2,4,6,8,-1,10,-1,-1,12,-1,14,16,18,-1,20,-1,-1,-1,-1,22,-1,24,-1,-1,-1],"split_conditions":[-6.315179E-2,-7.636127E-1,1E0,1E0,-5.3133886E-2,6.3730913E-1,5.476578E-2,-5.5960603E-2,1E0,4.6182655E-2,1E0,-1.1138432E0,1E0,-5.0374575E-2,1.6880004E0,1.8024236E-2,5.7625707E-2,-5.5084486E-2,5.428286E-3,1E0,-4.3952417E-2,1E0,4.542645E-2,1.30077405E-2,-7.6845475E-3],"split_indices":[4,4,0,6,0,4,0,0,5,0,6,4,0,0,4,0,0,0,0,1,0,5,0,0,0],"split_type":[0,0,0,0,0,0,0,0,0,0,0,0,0,0,0,0,0,0,0,0,0,0,0,0,0],"sum_hessian":[1.3751044E2,6.973616E1,6.777427E1,3.989374E1,2.9842419E1,4.1581833E1,2.6192434E1,1.1987117E1,2.7906626E1,1.3813963E1,2.776787E1,2.0299524E1,7.607101E0,7.9468513E0,1.9821018E1,1.0775324E1,9.5242E0,6.4731045E0,1.1339967E0,1.8208021E1,1.6129981E0,1.4573399E1,3.6346226E0,1.2784923E1,1.7884761E0],"tree_param":{"num_deleted":"0","num_feature":"8","num_nodes":"25","size_leaf_vector":"1"}},{"base_weights":[1.6323185E-2,-2.2677903E-1,8.4590775E-1,-2.9393125E-1,2.3425429E-1,5.534467E-1,4.901794E-2,-3.8619477E-1,1.2820654E-1,4.268049E-1,3.2245193E-2,3.3407927E-1,6.497015E-1,-3.2063437E-1,-3.7794E-2,4.561906E-2,-4.8426497E-1,5.199014E-3,2.3312809E-2,-1.04646064E-1,2.3072556E-2,2.19658E-2,1.1000565E-1,5.1770234E-3,3.652276E-2,-3.652674E-1,-2.0017894E-1,-3.9472736E-2,-2.0178029E-1,6.8771355E-2,-1.8043553E-2,1.2883543E-2,-4.6901586E-3,-3.2674608E-1,-3.3151604E-2,-1.2397227E-2,3.422454E-3,-6.054464E-2,-2.3651058E-2,9.112499E-3,-6.065146E-2,-1.606439E-1,-3.4282014E-1,-1.2750747E-2,1.023057E-1,-9.1288425E-3,4.487233E-3,-1.3881008E-2,-3.3373272E-3,-2.6865123E-2,-1.4254694E-2,-8.6727267E-4,9.441216E-3],"categories":[],"categories_nodes":[],"categories_segments":[],"categories_sizes":[],"default_left":[0,0,0,0,0,0,0,0,0,0,0,0,0,0,0,0,0,0,0,0,0,0,0,0,0,0,0,0,0,0,0,0,0,0,0,0,0,0,0,0,0,0,0,0,0,0,0,0,0,0,0,0,0],"id":33,"left_children":[1,3,5,7,9,11,-1,13,15,17,19,21,23,25,-1,-1,27,-1,-1,29,-1,-1,31,-1,-1,33,35,-1,37,39,-1,-1,-1,41,-1,-1,-1,43,-1,-1,45,47,49,-1,51,-1,-1,-1,-1,-1,-1,-1,-1],"loss_changes":[2.7770868E1,3.3675041E0,6.843834E-1,3.6889954E0,5.3478956E-1,3.8936615E-2,0E0,1.6222591E0,8.852161E0,4.243529E-2,5.16212E-1,8.7397754E-2,2.4931741E-1,2.8753376E-1,0E0,0E0,7.446506E-1,0E0,0E0,3.2933843E-1,0E0,0E0,1.1967518E-1,0E0,0E0,3.308711E-1,2.780698E-1,0E0,2.3142189E-1,8.341595E-2,0E0,0E0,0E0,6.303835E-2,0E0,0E0,0E0,2.0378274E-1,0E0,0E0,7.235238E-2,4.5010865E-2,2.8973675E-1,0E0,4.2275272E-2,0E0,0E0,0E0,0E0,0E0,0E0,0E0,0E0],"parents":[2147483647,0,0,1,1,2,2,3,3,4,4,5,5,7,7,8,8,9,9,10,10,11,11,12,12,13,13,16,16,19,19,22,22,25,25,26,26,28,28,29,29,33,33,37,37,40,40,41,41,42,42,44,44],"right_children":[2,4,6,8,10,12,-1,14,16,18,20,22,24,26,-1,-1,28,-1,-1,30,-1,-1,32,-1,-1,34,36,-1,38,40,-1,-1,-1,42,-1,-1,-1,44,-1,-1,46,48,50,-1,52,-1,-1,-1,-1,-1,-1,-1,-1],"split_conditions":[1E0,1E0,1E0,1E0,1E0,-3.9887008E-1,4.901794E-2,1E0,1E0,-6.3306564E-1,1.2404988E0,5.141381E-1,-2.818365E-2,-5.705054E-1,-3.7794E-2,4.561906E-2,-2.818365E-2,5.199014E-3,2.3312809E-2,1.3276207E0,2.3072556E-2,2.19658E-2,1E0,5.1770234E-3,3.652276E-2,1.2404988E0,5.3791213E-1,-3.9472736E-2,1.8699424E0,-1.646745E-1,-1.8043553E-2,1.2883543E-2,-4.6901586E-3,-1.1014568E0,-3.3151604E-2,-1.2397227E-2,3.422454E-3,2.4297722E-1,-2.3651058E-2,9.112499E-3,3.037166E-1,-1.3356522E0,-3.9887008E-1,-1.2750747E-2,3.037166E-1,-9.1288425E-3,4.487233E-3,-1.3881008E-2,-3.3373272E-3,-2.6865123E-2,-1.4254694E-2,-8.6727267E-4,9.441216E-3],"split_indices":[1,0,0,7,7,3,0,5,5,3,3,2,2,2,0,0,2,0,0,2,0,0,7,0,0,3,3,0,2,3,0,0,0,3,0,0,0,2,0,0,3,3,3,0,3,0,0,0,0,0,0,0,0],"split_type":[0,0,0,0,0,0,0,0,0,0,0,0,0,0,0,0,0,0,0,0,0,0,0,0,0,0,0,0,0,0,0,0,0,0,0,0,0,0,0,0,0,0,0,0,0,0,0,0,0,0,0,0,0],"sum_hessian":[1.3575067E2,1.05547554E2,3.0203115E1,9.244487E1,1.3102687E1,1.1123456E1,1.9079659E1,7.593374E1,1.6511131E1,6.138655E0,6.964031E0,4.7557473E0,6.3677087E0,6.6082E1,9.851738E0,7.0258937E0,9.485237E0,1.0644083E0,5.074247E0,5.8533473E0,1.110684E0,2.582352E0,2.1733954E0,1.114203E0,5.2535057E0,4.6733273E1,1.9348726E1,3.696714E0,5.7885227E0,3.9270506E0,1.9262964E0,1.1070381E0,1.0663573E0,4.3237095E1,3.49618E0,1.6493042E1,2.8556833E0,4.610855E0,1.1776677E0,1.8749285E0,2.052122E0,4.7849984E0,3.8452095E1,1.8434838E0,2.7673714E0,1.0151621E0,1.0369601E0,1.259408E0,3.5255904E0,6.899524E0,3.155257E1,1.4968358E0,1.2705356E0],"tree_param":{"num_deleted":"0","num_feature":"8","num_nodes":"53","size_leaf_vector":"1"}},{"base_weights":[-2.7873095E-2,-5.4713666E-1,4.885229E-1,-1.7264909E-1,-1.0401444E0,1.2894817E-1,5.413388E-2,-5.453793E-2,1.9334383E-1,-5.6992304E-1,-5.6198925E-2,-7.0585704E-1,4.6600637E-1,5.9099483E-1,-7.6268935E-1,-7.7204234E-3,-4.325158E-2,2.8698256E-2,-4.998852E-2,5.2894795E-1,-3.5840794E-2,2.0291045E-1,5.5805605E-2,-4.8726175E-2,1.2249189E-2,7.876246E-1,3.169039E-1,9.129404E-2,3.7842646E-2,4.8418205E-2,-6.6636847E-3,7.471288E-3,6.673999E-1,1.94109E-2,-2.4614864E-4,4.2552244E-2,1.30450195E-2],"categories":[],"categories_nodes":[],"categories_segments":[],"categories_sizes":[],"default_left":[0,0,0,0,0,0,0,0,0,0,0,0,0,0,0,0,0,0,0,0,0,0,0,0,0,0,0,0,0,0,0,0,0,0,0,0,0],"id":34,"left_children":[1,3,5,7,9,11,-1,-1,13,15,-1,17,19,21,23,-1,-1,-1,-1,25,-1,27,-1,-1,-1,29,31,33,-1,-1,-1,-1,35,-1,-1,-1,-1],"loss_changes":[3.6194687E1,1.2241739E1,1.4325331E1,1.3461635E1,4.9647903E-1,1.251676E1,0E0,0E0,1.1492394E1,6.50362E-1,0E0,5.409747E0,2.7212152E0,4.0685463E0,2.153142E0,0E0,0E0,0E0,0E0,