{"learner":{"attributes":{"scikit_learn":"{\"_estimator_type\": \"classifier\"}"},"feature_names":["A1","A2","A3","A4","A5","A6","A7","A8","A9","A10_Autism_Spectrum_Quotient","Social_Responsiveness_Scale","Age_Years","Qchat_10_Score","Speech Delay/Language Disorder","Learning disorder","Genetic_Disorders","Depression","Global developmental delay/intellectual disability","Social/Behavioural Issues","Childhood Autism Rating Scale","Anxiety_disorder","Sex","Jaundice","Family_mem_with_ASD","Who_completed_the_test"],"feature_types":["float","float","float","float","float","float","float","float","float","float","float","float","float","int","int","int","int","int","int","float","int","int","int","int","int"],"gradient_booster":{"model":{"cats":{"enc":[],"feature_segments":[],"sorted_idx":[]},"gbtree_model_param":{"num_parallel_tree":"1","num_trees":"500"},"iteration_indptr":[0,1,2,3,4,5,6,7,8,9,10,11,12,13,14,15,16,17,18,19,20,21,22,23,24,25,26,27,28,29,30,31,32,33,34,35,36,37,38,39,40,41,42,43,44,45,46,47,48,49,50,51,52,53,54,55,56,57,58,59,60,61,62,63,64,65,66,67,68,69,70,71,72,73,74,75,76,77,78,79,80,81,82,83,84,85,86,87,88,89,90,91,92,93,94,95,96,97,98,99,100,101,102,103,104,105,106,107,108,109,110,111,112,113,114,115,116,117,118,119,120,121,122,123,124,125,126,127,128,129,130,131,132,133,134,135,136,137,138,139,140,141,142,143,144,145,146,147,148,149,150,151,152,153,154,155,156,157,158,159,160,161,162,163,164,165,166,167,168,169,170,171,172,173,174,175,176,177,178,179,180,181,182,183,184,185,186,187,188,189,190,191,192,193,194,195,196,197,198,199,200,201,202,203,204,205,206,207,208,209,210,211,212,213,214,215,216,217,218,219,220,221,222,223,224,225,226,227,228,229,230,231,232,233,234,235,236,237,238,239,240,241,242,243,244,245,246,247,248,249,250,251,252,253,254,255,256,257,258,259,260,261,262,263,264,265,266,267,268,269,270,271,272,273,274,275,276,277,278,279,280,281,282,283,284,285,286,287,288,289,290,291,292,293,294,295,296,297,298,299,300,301,302,303,304,305,306,307,308,309,310,311,312,313,314,315,316,317,318,319,320,321,322,323,324,325,326,327,328,329,330,331,332,333,334,335,336,337,338,339,340,341,342,343,344,345,346,347,348,349,350,351,352,353,354,355,356,357,358,359,360,361,362,363,364,365,366,367,368,369,370,371,372,373,374,375,376,377,378,379,380,381,382,383,384,385,386,387,388,389,390,391,392,393,394,395,396,397,398,399,400,401,402,403,404,405,406,407,408,409,410,411,412,413,414,415,416,417,418,419,420,421,422,423,424,425,426,427,428,429,430,431,432,433,434,435,436,437,438,439,440,441,442,443,444,445,446,447,448,449,450,451,452,453,454,455,456,457,458,459,460,461,462,463,464,465,466,467,468,469,470,471,472,473,474,475,476,477,478,479,480,481,482,483,484,485,486,487,488,489,490,491,492,493,494,495,496,497,498,499,500],"tree_info":[0,0,0,0,0,0,0,0,0,0,0,0,0,0,0,0,0,0,0,0,0,0,0,0,0,0,0,0,0,0,0,0,0,0,0,0,0,0,0,0,0,0,0,0,0,0,0,0,0,0,0,0,0,0,0,0,0,0,0,0,0,0,0,0,0,0,0,0,0,0,0,0,0,0,0,0,0,0,0,0,0,0,0,0,0,0,0,0,0,0,0,0,0,0,0,0,0,0,0,0,0,0,0,0,0,0,0,0,0,0,0,0,0,0,0,0,0,0,0,0,0,0,0,0,0,0,0,0,0,0,0,0,0,0,0,0,0,0,0,0,0,0,0,0,0,0,0,0,0,0,0,0,0,0,0,0,0,0,0,0,0,0,0,0,0,0,0,0,0,0,0,0,0,0,0,0,0,0,0,0,0,0,0,0,0,0,0,0,0,0,0,0,0,0,0,0,0,0,0,0,0,0,0,0,0,0,0,0,0,0,0,0,0,0,0,0,0,0,0,0,0,0,0,0,0,0,0,0,0,0,0,0,0,0,0,0,0,0,0,0,0,0,0,0,0,0,0,0,0,0,0,0,0,0,0,0,0,0,0,0,0,0,0,0,0,0,0,0,0,0,0,0,0,0,0,0,0,0,0,0,0,0,0,0,0,0,0,0,0,0,0,0,0,0,0,0,0,0,0,0,0,0,0,0,0,0,0,0,0,0,0,0,0,0,0,0,0,0,0,0,0,0,0,0,0,0,0,0,0,0,0,0,0,0,0,0,0,0,0,0,0,0,0,0,0,0,0,0,0,0,0,0,0,0,0,0,0,0,0,0,0,0,0,0,0,0,0,0,0,0,0,0,0,0,0,0,0,0,0,0,0,0,0,0,0,0,0,0,0,0,0,0,0,0,0,0,0,0,0,0,0,0,0,0,0,0,0,0,0,0,0,0,0,0,0,0,0,0,0,0,0,0,0,0,0,0,0,0,0,0,0,0,0,0,0,0,0,0,0,0,0,0,0,0,0,0,0,0,0,0,0,0,0,0,0,0,0,0,0,0,0,0,0,0,0,0,0,0,0,0,0,0,0,0,0,0,0,0,0,0,0,0,0,0,0,0,0,0,0,0,0,0,0,0,0,0,0,0,0,0],"trees":[{"base_weights":[-1.9543648E-2,-6.8233323E-1,1.5183975E0,-9.9807346E-1,2.5032127E-1,9.2272794E-1,8.78264E-2,-1.1219326E0,1.1983557E0,8.642994E-2,-5.0318134E-1,1.245964E-1,7.46892E-2,-1.1743797E0,2.3090184E-1,5.492628E-1,7.286816E-2,-1.2227093E0,1.0007476E0,-5.722431E-1,1.0747421E0,-9.9253845E-1,-1.4760203E0,-2.0231893E-2,4.4740703E-2,6.586218E-3,3.522836E-2,-1.6640046E0,1.03005454E-1,9.533541E-2,7.196596E-2,-5.642552E-2,1.2780818E-1,6.586218E-3,6.766082E-2,-8.4804034E-1,-9.738498E-2,-1.0315013E-1,-9.7545666E-1,-1.8061851E0,-2.2225345E-2,-5.5708367E-2,9.383925E-1,-3.262311E-2,4.041585E-2,-3.262311E-2,5.1196862E-2,-6.3693035E-1,-4.8916593E-2,-1.0884515E0,1.1257679E-2,-9.612691E-2,-2.5014032E-2,1.5147562E-2,5.8675595E-2,-4.394605E-2,-7.490185E-3,-5.8189224E-2,6.586218E-3],"categories":[],"categories_nodes":[],"categories_segments":[],"categories_sizes":[],"default_left":[0,0,0,0,0,0,0,0,0,0,0,0,0,0,0,0,0,0,0,0,0,0,0,0,0,0,0,0,0,0,0,0,0,0,0,0,0,0,0,0,0,0,0,0,0,0,0,0,0,0,0,0,0,0,0,0,0,0,0],"id":0,"left_children":[1,3,5,7,9,11,-1,13,15,-1,17,19,-1,21,23,25,-1,27,29,31,33,35,37,-1,-1,-1,-1,39,41,43,-1,-1,45,-1,-1,47,-1,-1,49,51,-1,-1,53,-1,-1,-1,-1,55,-1,57,-1,-1,-1,-1,-1,-1,-1,-1,-1],"loss_changes":[2.5467308E2,5.1659004E1,9.053024E0,3.6880707E1,5.0942604E1,1.0569073E1,0E0,9.081177E0,4.530964E-1,0E0,3.4282898E1,7.853704E0,0E0,5.10054E0,2.670027E0,1.4916623E-1,0E0,1.2523882E1,4.0069113E0,2.8544736E0,1.1277347E0,9.076759E0,1.0612175E1,0E0,0E0,0E0,0E0,1.9539185E0,7.364794E0,2.9141293E0,0E0,0E0,3.4509048E0,0E0,0E0,1.2827148E0,0E0,0E0,3.6484966E0,1.1521873E0,0E0,0E0,2.76196E-1,0E0,0E0,0E0,0E0,3.323267E0,0E0,2.2767086E0,0E0,0E0,0E0,0E0,0E0,0E0,0E0,0E0,0E0],"parents":[2147483647,0,0,1,1,2,2,3,3,4,4,5,5,7,7,8,8,10,10,11,11,13,13,14,14,15,15,17,17,18,18,19,19,20,20,21,21,22,22,27,27,28,28,29,29,32,32,35,35,38,38,39,39,42,42,47,47,49,49],"right_children":[2,4,6,8,10,12,-1,14,16,-1,18,20,-1,22,24,26,-1,28,30,32,34,36,38,-1,-1,-1,-1,40,42,44,-1,-1,46,-1,-1,48,-1,-1,50,52,-1,-1,54,-1,-1,-1,-1,56,-1,58,-1,-1,-1,-1,-1,-1,-1,-1,-1],"split_conditions":[1E0,1E0,1E0,1E0,1E0,1E0,8.78264E-2,1E0,1E0,8.642994E-2,1E0,1E0,7.46892E-2,1E0,7.8529894E-1,7.8529894E-1,7.286816E-2,1E0,1E0,1E0,1E0,1E0,-5.705054E-1,-2.0231893E-2,4.4740703E-2,6.586218E-3,3.522836E-2,1E0,1E0,1E0,7.196596E-2,-5.642552E-2,1E0,6.586218E-3,6.766082E-2,1.0063033E0,-9.738498E-2,-1.0315013E-1,1E0,1.2404988E0,-2.2225345E-2,-5.5708367E-2,-2.818365E-2,-3.262311E-2,4.041585E-2,-3.262311E-2,5.1196862E-2,-3.9887008E-1,-4.8916593E-2,1E0,1.1257679E-2,-9.612691E-2,-2.5014032E-2,1.5147562E-2,5.8675595E-2,-4.394605E-2,-7.490185E-3,-5.8189224E-2,6.586218E-3],"split_indices":[5,23,4,2,13,3,0,4,4,0,1,1,0,9,10,10,0,3,0,0,24,16,10,0,0,0,0,4,9,3,0,0,9,0,0,11,0,0,1,11,0,0,10,0,0,0,0,11,0,3,0,0,0,0,0,0,0,0,0],"split_type":[0,0,0,0,0,0,0,0,0,0,0,0,0,0,0,0,0,0,0,0,0,0,0,0,0,0,0,0,0,0,0,0,0,0,0,0,0,0,0,0,0,0,0,0,0,0,0,0,0,0,0,0,0,0,0,0,0,0,0],"sum_hessian":[2.4782687E2,1.7357814E2,7.424873E1,1.2962488E2,4.3953262E1,2.259744E1,5.165129E1,1.23168465E2,6.4564114E0,1.4402764E1,2.9550499E1,9.9329405E0,1.2664499E1,1.1869864E2,4.4698234E0,2.7315586E0,3.7248528E0,2.0114204E1,9.436294E0,5.9597645E0,3.9731762E0,7.6731964E1,4.1966675E1,2.4832351E0,1.9865881E0,1.2416176E0,1.4899411E0,1.4899411E1,5.2147937E0,3.4765291E0,5.9597645E0,2.9798822E0,2.9798822E0,1.2416176E0,2.7315586E0,6.828896E1,8.443E0,1.7879293E1,2.4087381E1,1.2912823E1,1.9865881E0,1.9865881E0,3.2282057E0,1.7382646E0,1.7382646E0,1.7382646E0,1.2416176E0,2.830888E1,3.9980087E1,2.2100792E1,1.9865881E0,1.1422882E1,1.4899411E0,1.4899411E0,1.7382646E0,1.837594E1,9.9329405E0,2.0859175E1,1.2416176E0],"tree_param":{"num_deleted":"0","num_feature":"25","num_nodes":"59","size_leaf_vector":"1"}},{"base_weights":[-2.9663397E-2,-1.2390087E0,1.028735E0,-5.254977E-1,-1.01459935E-1,-2.3272996E-1,1.5662035E0,-1.0180404E-1,3.8700604E-1,-9.814816E-2,1.0321916E0,8.1435823E-1,8.8359766E-2,1.1741173E0,-1.6567019E0,8.39924E-2,1.966637E-2,1.2361253E0,-7.586434E-2,2.4481058E-2,8.611018E-2,-9.4213575E-2,6.212264E-3,3.640242E-1,8.1910945E-2,-4.019692E-1,6.513546E-2,-5.977961E-2,5.0832607E-2],"categories":[],"categories_nodes":[],"categories_segments":[],"categories_sizes":[],"default_left":[0,0,0,0,0,0,0,0,0,0,0,0,0,0,0,0,0,0,0,0,0,0,0,0,0,0,0,0,0],"id":1,"left_children":[1,3,5,7,-1,9,11,-1,13,-1,15,17,-1,19,21,-1,-1,23,-1,-1,-1,-1,-1,25,-1,27,-1,-1,-1],"loss_changes":[3.1877905E2,6.446304E1,9.0423035E1,8.683667E1,0E0,9.07882E1,1.265593E1,0E0,6.5899925E1,0E0,9.304321E0,2.3048273E1,0E0,1.0144569E1,4.882511E0,0E0,0E0,5.9902077E0,0E0,0E0,0E0,0E0,0E0,5.7099695E0,0E0,6.547571E0,0E0,0E0,0E0],"parents":[2147483647,0,0,1,1,2,2,3,3,5,5,6,6,8,8,10,10,11,11,13,13,14,14,17,17,23,23,25,25],"right_children":[2,4,6,8,-1,10,12,-1,14,-1,16,18,-1,20,22,-1,-1,24,-1,-1,-1,-1,-1,26,-1,28,-1,-1,-1],"split_conditions":[-6.315179E-2,-7.636127E-1,1E0,1E0,-1.01459935E-1,1E0,1E0,-1.0180404E-1,1E0,-9.814816E-2,1E0,2.038231E0,8.8359766E-2,-1.1138432E0,1E0,8.39924E-2,1.966637E-2,1E0,-7.586434E-2,2.4481058E-2,8.611018E-2,-9.4213575E-2,6.212264E-3,1E0,8.1910945E-2,1E0,6.513546E-2,-5.977961E-2,5.0832607E-2],"split_indices":[12,12,13,21,0,21,6,0,13,0,9,12,0,12,0,0,0,5,0,0,0,0,0,1,0,3,0,0,0],"split_type":[0,0,0,0,0,0,0,0,0,0,0,0,0,0,0,0,0,0,0,0,0,0,0,0,0,0,0,0,0],"sum_hessian":[2.4705629E2,1.1522615E2,1.3183014E2,6.1425926E1,5.3800224E1,3.9556374E1,9.227377E1,2.2668526E1,3.87574E1,1.6472494E1,2.308388E1,2.0529873E1,7.17439E1,2.8288065E1,1.0469335E1,1.0653915E1,1.2429965E1,1.7782988E1,2.746885E0,1.3420611E1,1.4867454E1,9.231692E0,1.2376425E0,6.212976E0,1.1570011E1,3.7360377E0,2.4769382E0,2.4965832E0,1.2394546E0],"tree_param":{"num_deleted":"0","num_feature":"25","num_nodes":"29","size_leaf_vector":"1"}},{"base_weights":[2.0829368E-2,-1.1281016E0,1.0275924E0,-3.699885E-1,-9.723773E-2,-2.7606526E-1,1.5378408E0,2.0140408E-2,-1.5162969E0,7.97995E-2,-8.981685E-1,-2.9589375E-2,1.5826925E0,-4.226118E-2,5.397902E-2,-9.254271E-2,3.9345834E-2,-5.8677685E-1,-8.564802E-2,1.1026177E0,8.5063905E-2,-1.75448E-1,1.04897164E-1,-2.4547039E-2,-5.9120663E-2,1.2905641E0,-5.533118E-2,3.2258442E-1,-3.0970764E-1,-5.246009E-3,1.4209104E-1,6.343892E-1,7.968545E-2,7.906981E-3,2.2210343E-2,-1.1535877E-2,-2.836267E-2,1.844444E-2,7.9469636E-2,-1.13292694E-1,6.829675E-2,-6.3155848E-3,8.26599E-3,-3.6799245E-2,4.8994623E-2],"categories":[],"categories_nodes":[],"categories_segments":[],"categories_sizes":[],"default_left":[0,0,0,0,0,0,0,0,0,0,0,0,0,0,0,0,0,0,0,0,0,0,0,0,0,0,0,0,0,0,0,0,0,0,0,0,0,0,0,0,0,0,0,0,0],"id":2,"left_children":[1,3,5,7,-1,9,11,13,15,-1,17,-1,19,21,-1,-1,-1,23,-1,25,-1,27,29,-1,-1,31,-1,33,35,-1,37,39,-1,-1,-1,-1,-1,-1,41,43,-1,-1,-1,-1,-1],"loss_changes":[2.9430307E2,7.2853195E1,9.062132E1,2.814264E1,0E0,4.684239E1,1.02595825E1,3.2114444E0,1.3765907E1,0E0,6.58243E0,0E0,3.5816498E0,9.2361504E-1,0E0,0E0,0E0,7.414136E-1,0E0,1.0492813E1,0E0,1.7459841E0,1.9102395E-1,0E0,0E0,3.0828667E0,0E0,4.4096112E-2,2.739737E-1,0E0,2.4896961E-1,4.6206484E0,0E0,0E0,0E0,0E0,0E0,0E0,3.146598E-1,4.098448E0,0E0,0E0,0E0,0E0,0E0],"parents":[2147483647,0,0,1,1,2,2,3,3,5,5,6,6,7,7,8,8,10,10,12,12,13,13,17,17,19,19,21,21,22,22,25,25,27,27,28,28,30,30,31,31,38,38,39,39],"right_children":[2,4,6,8,-1,10,12,14,16,-1,18,-1,20,22,-1,-1,-1,24,-1,26,-1,28,30,-1,-1,32,-1,34,36,-1,38,40,-1,-1,-1,-1,-1,-1,42,44,-1,-1,-1,-1,-1],"split_conditions":[-6.315179E-2,-7.636127E-1,1E0,1E0,-9.723773E-2,1E0,-1.8040434E0,3E0,1E0,7.97995E-2,1E0,-2.9589375E-2,1E0,1E0,5.397902E-2,-9.254271E-2,3.9345834E-2,-3.9887008E-1,-8.564802E-2,2.038231E0,8.5063905E-2,6.952104E-2,-8.672612E-1,-2.4547039E-2,-5.9120663E-2,1E0,-5.533118E-2,-8.672612E-1,-1.1138432E0,-5.246009E-3,-1.646745E-1,1E0,7.968545E-2,7.906981E-3,2.2210343E-2,-1.1535877E-2,-2.836267E-2,1.844444E-2,3.037166E-1,1E0,6.829675E-2,-6.3155848E-3,8.26599E-3,-3.6799245E-2,4.8994623E-2],"split_indices":[12,12,16,13,0,9,11,24,8,0,22,0,6,22,0,0,0,11,0,12,0,11,11,0,0,5,0,11,12,0,11,9,0,0,0,0,0,0,11,3,0,0,0,0,0],"split_type":[0,0,0,0,0,0,0,0,0,0,0,0,0,0,0,0,0,0,0,0,0,0,0,0,0,0,0,0,0,0,0,0,0,0,0,0,0,0,0,0,0,0,0,0,0],"sum_hessian":[2.5243091E2,1.1783526E2,1.3459564E2,6.186135E1,5.5973907E1,3.799061E1,9.6605034E1,4.688662E1,1.497473E1,9.085307E0,2.8905304E1,1.7410868E0,9.4863945E1,4.518529E1,1.7013279E0,1.3246927E1,1.7278018E0,2.2157467E1,6.7478366E0,2.0831013E1,7.4032936E1,2.3617682E1,2.156761E1,2.0657902E1,1.499565E0,1.9581034E1,1.2499794E0,4.717087E0,1.8900595E1,2.9733727E0,1.8594238E1,7.1648936E0,1.2416139E1,2.983444E0,1.7336425E0,1.5915189E1,2.9854069E0,2.965007E0,1.56292305E1,3.961324E0,3.2035697E0,4.4621744E0,1.1167056E1,2.7319324E0,1.2293916E0],"tree_param":{"num_deleted":"0","num_feature":"25","num_nodes":"45","size_leaf_vector":"1"}},{"base_weights":[3.220178E-3,-1.1269811E0,1.0211598E0,-4.4556132E-1,-9.260639E-2,-2.0457421E-1,1.4793215E0,-9.558525E-2,3.2662806E-1,-8.998241E-2,8.6941797E-1,-2.863468E-2,1.5222175E0,1.1399271E0,-1.3937752E0,7.7718556E-2,1.4078352E-2,1.0238667E0,8.219672E-2,5.829064E-1,8.2292594E-2,-8.763969E-2,3.8207192E-2,1.2842929E0,-6.1655052E-2,2.3930853E-2,4.97394E-2,7.4546874E-1,7.766696E-2,-2.745981E-2,6.689774E-2,-3.139336E-2,4.650276E-2],"categories":[],"categories_nodes":[],"categories_segments":[],"categories_sizes":[],"default_left":[0,0,0,0,0,0,0,0,0,0,0,0,0,0,0,0,0,0,0,0,0,0,0,0,0,0,0,0,0,0,0,0,0],"id":3,"left_children":[1,3,5,7,-1,9,11,-1,13,-1,15,-1,17,19,21,-1,-1,23,-1,25,-1,-1,-1,27,-1,-1,-1,29,-1,31,-1,-1,-1],"loss_changes":[2.9537924E2,5.929306E1,7.616121E1,7.3127235E1,0E0,6.6031166E1,9.537506E0,0E0,6.1476917E1,0E0,8.889111E0,0E0,4.18277E0,7.3857994E0,1.2331989E1,0E0,0E0,1.4299635E1,0E0,1.9581985E-1,0E0,0E0,0E0,1.724865E0,0E0,0E0,0E0,3.9500966E0,0E0,3.2790427E0,0E0,0E0,0E0],"parents":[2147483647,0,0,1,1,2,2,3,3,5,5,6,6,8,8,10,10,12,12,13,13,14,14,17,17,19,19,23,23,27,27,29,29],"right_children":[2,4,6,8,-1,10,12,-1,14,-1,16,-1,18,20,22,-1,-1,24,-1,26,-1,-1,-1,28,-1,-1,-1,30,-1,32,-1,-1,-1],"split_conditions":[-6.315179E-2,-7.636127E-1,1E0,1E0,-9.260639E-2,1E0,-1.8040434E0,-9.558525E-2,1E0,-8.998241E-2,1E0,-2.863468E-2,1E0,-1.1138432E0,1E0,7.7718556E-2,1.4078352E-2,2.038231E0,8.219672E-2,-5.705054E-1,8.2292594E-2,-8.763969E-2,3.8207192E-2,1E0,-6.1655052E-2,2.3930853E-2,4.97394E-2,1E0,7.766696E-2,1E0,6.689774E-2,-3.139336E-2,4.650276E-2],"split_indices":[12,12,13,21,0,21,11,0,13,0,9,0,6,12,8,0,0,12,0,10,0,0,0,7,0,0,0,8,0,9,0,0,0],"split_type":[0,0,0,0,0,0,0,0,0,0,0,0,0,0,0,0,0,0,0,0,0,0,0,0,0,0,0,0,0,0,0,0,0],"sum_hessian":[2.5474477E2,1.20665146E2,1.3407962E2,6.3040478E1,5.762467E1,3.6631565E1,9.744806E1,2.1238874E1,4.1801605E1,1.4468115E1,2.2163448E1,1.74248E0,9.5705574E1,2.861271E1,1.3188893E1,9.476937E0,1.2686512E1,2.063414E1,7.507144E1,1.4642998E1,1.3969712E1,1.1468576E1,1.7203176E0,1.8885904E1,1.748235E0,1.3409666E1,1.2333316E0,7.545388E0,1.1340516E1,3.6879377E0,3.8574505E0,2.4782386E0,1.209699E0],"tree_param":{"num_deleted":"0","num_feature":"25","num_nodes":"33","size_leaf_vector":"1"}},{"base_weights":[-2.4399431E-3,-1.0542905E0,9.365483E-1,-3.5087186E-1,-8.872753E-2,-2.7188566E-1,1.4346154E0,-9.1100216E-2,4.3618986E-1,-8.723729E-2,8.8308614E-1,8.2095456E-1,7.960035E-2,1.1669534E0,-1.3975406E0,7.516156E-2,3.6961758E-1,1.1279776E0,-4.7383755E-2,6.0767543E-1,7.991421E-2,-8.336755E-2,2.773144E-2,3.4547907E-3,6.295289E-2,5.3943604E-1,7.3903106E-2,1.6087621E-2,6.508308E-2,-2.98805E-1,6.599703E-2,-5.6119334E-2,4.9953543E-2],"categories":[],"categories_nodes":[],"categories_segments":[],"categories_sizes":[],"default_left":[0,0,0,0,0,0,0,0,0,0,0,0,0,0,0,0,0,0,0,0,0,0,0,0,0,0,0,0,0,0,0,0,0],"id":4,"left_children":[1,3,5,7,-1,9,11,-1,13,-1,15,17,-1,19,21,-1,23,25,-1,27,-1,-1,-1,-1,-1,29,-1,-1,-1,31,-1,-1,-1],"loss_changes":[2.501781E2,5.990564E1,8.094056E1,7.222106E1,0E0,6.941728E1,7.861847E0,0E0,5.6563904E1,0E0,6.777071E0,1.2712366E1,0E0,6.2314262E0,7.317238E0,0E0,3.634719E0,3.0612297E0,0E0,2.480999E0,0E0,0E0,0E0,0E0,0E0,5.9944715E0,0E0,0E0,0E0,6.404433E0,0E0,0E0,0E0],"parents":[2147483647,0,0,1,1,2,2,3,3,5,5,6,6,8,8,10,10,11,11,13,13,14,14,16,16,17,17,19,19,25,25,29,29],"right_children":[2,4,6,8,-1,10,12,-1,14,-1,16,18,-1,20,22,-1,24,26,-1,28,-1,-1,-1,-1,-1,30,-1,-1,-1,32,-1,-1,-1],"split_conditions":[-6.315179E-2,-7.636127E-1,1E0,1E0,-8.872753E-2,1E0,1E0,-9.1100216E-2,1E0,-8.723729E-2,1E0,1.6880004E0,7.960035E-2,-1.1138432E0,1E0,7.516156E-2,1E0,1E0,-4.7383755E-2,1E0,7.991421E-2,-8.336755E-2,2.773144E-2,3.4547907E-3,6.295289E-2,1E0,7.3903106E-2,1.6087621E-2,6.508308E-2,1E0,6.599703E-2,-5.6119334E-2,4.9953543E-2],"split_indices":[12,12,17,21,0,21,6,0,15,0,9,12,0,12,5,0,23,5,0,23,0,0,0,0,0,3,0,0,0,1,0,0,0],"split_type":[0,0,0,0,0,0,0,0,0,0,0,0,0,0,0,0,0,0,0,0,0,0,0,0,0,0,0,0,0,0,0,0,0],"sum_hessian":[2.5130025E2,1.18468994E2,1.3283125E2,6.0687576E1,5.7781418E1,3.890127E1,9.392998E1,2.0693493E1,3.9994083E1,1.6873264E1,2.202801E1,2.044235E1,7.3487625E1,2.8857601E1,1.1136483E1,9.104449E0,1.292356E1,1.7727243E1,2.7151074E0,1.3614029E1,1.5243572E1,9.912385E0,1.2240983E0,1.0465267E1,2.458293E0,7.5595107E0,1.0167732E1,1.0678221E1,2.9358082E0,3.9425163E0,3.6169941E0,2.4946933E0,1.447823E0],"tree_param":{"num_deleted":"0","num_feature":"25","num_nodes":"33","size_leaf_vector":"1"}},{"base_weights":[2.4904613E-3,-9.968354E-1,9.014902E-1,-3.6144897E-1,-8.420078E-2,-2.4369448E-1,1.3816348E0,-8.7515526E-2,4.2700475E-1,-8.375242E-2,8.802266E-1,-1.3917555E-1,1.4410741E0,1.1822321E0,-1.3597682E0,7.2758816E-2,1.7463222E-2,-4.9029253E-2,4.7753807E-2,1.0560988E0,7.715351E-2,3.2453567E-2,7.750079E-2,-8.0670945E-2,2.7296621E-2,6.524051E-2,-4.7701117E-2],"categories":[],"categories_nodes":[],"categories_segments":[],"categories_sizes":[],"default_left":[0,0,0,0,0,0,0,0,0,0,0,0,0,0,0,0,0,0,0,0,0,0,0,0,0,0,0],"id":5,"left_children":[1,3,5,7,-1,9,11,-1,13,-1,15,17,19,21,23,-1,-1,-1,-1,25,-1,-1,-1,-1,-1,-1,-1],"loss_changes":[2.232339E2,5.0771454E1,7.226049E1,6.909546E1,0E0,6.5005905E1,8.545319E0,0E0,5.641727E1,0E0,6.4450607E0,4.9731245E0,1.8622742E0,4.6971016E0,6.9387817E0,0E0,0E0,0E0,0E0,1.2140972E1,0E0,0E0,0E0,0E0,0E0,0E0,0E0],"parents":[2147483647,0,0,1,1,2,2,3,3,5,5,6,6,8,8,10,10,11,11,12,12,13,13,14,14,19,19],"right_children":[2,4,6,8,-1,10,12,-1,14,-1,16,18,20,22,24,-1,-1,-1,-1,26,-1,-1,-1,-1,-1,-1,-1],"split_conditions":[-6.315179E-2,-7.636127E-1,1E0,1E0,-8.420078E-2,1E0,-1.5698478E0,-8.7515526E-2,1E0,-8.375242E-2,1E0,1E0,1E0,-1.1138432E0,1E0,7.2758816E-2,1.7463222E-2,-4.9029253E-2,4.7753807E-2,1.6880004E0,7.715351E-2,3.2453567E-2,7.750079E-2,-8.0670945E-2,2.7296621E-2,6.524051E-2,-4.7701117E-2],"split_indices":[12,12,13,21,0,21,11,0,13,0,9,9,6,12,2,0,0,0,0,12,0,0,0,0,0,0,0],"split_type":[0,0,0,0,0,0,0,0,0,0,0,0,0,0,0,0,0,0,0,0,0,0,0,0,0,0,0],"sum_hessian":[2.4648088E2,1.16675674E2,1.298052E2,6.1415306E1,5.5260365E1,3.849172E1,9.131349E1,2.179807E1,3.9617233E1,1.671465E1,2.177707E1,3.3841977E0,8.79293E1,2.808479E1,1.1532446E1,9.619742E0,1.2157328E1,1.9718486E0,1.4123492E0,2.0794924E1,6.713437E1,1.259343E1,1.549136E1,1.0313129E1,1.2193159E0,1.881752E1,1.9774038E0],"tree_param":{"num_deleted":"0","num_feature":"25","num_nodes":"27","size_leaf_vector":"1"}},{"base_weights":[-1.2231172E-2,-5.3302187E-1,1.2247328E0,-7.829034E-1,2.2689588E-1,7.0234895E-1,7.3984616E-2,-8.841912E-1,1.0216184E0,7.453286E-2,-4.6605784E-1,1.7737426E-1,6.366718E-2,-9.274123E-1,1.7990606E-1,5.125137E-1,6.096859E-2,-1.0315542E0,8.04834E-1,-4.4067356E-1,9.419084E-1,-8.418257E-1,-1.3314503E0,-2.2206003E-2,6.830622E-1,-5.0885645E-3,4.6052836E-2,-1.3137032E0,3.4574438E-2,1.6717188E-1,5.756564E-2,3.5891855E-1,-1.0897906E0,3.912187E-1,5.860276E-2,-3.443133E-2,-1.1305715E0,-1.5389748E0,-2.5125426E-1,7.08962E-3,4.481944E-2,-7.430521E-2,-2.909061E-1,-2.1880213E-2,4.5061987E-2,-2.645169E-2,5.120988E-2,-6.3396E-2,-1.8717641E-2,-1.5109449E-2,4.356781E-2,-3.7399303E-2,-7.8276105E-2,-8.1163496E-2,-3.3887107E-2,-4.9370248E-2,2.3039617E-2,-3.9447002E-2,2.315921E-2],"categories":[],"categories_nodes":[],"categories_segments":[],"categories_sizes":[],"default_left":[0,0,0,0,0,0,0,0,0,0,0,0,0,0,0,0,0,0,0,0,0,0,0,0,0,0,0,0,0,0,0,0,0,0,0,0,0,0,0,0,0,0,0,0,0,0,0,0,0,0,0,0,0,0,0,0,0,0,0],"id":6,"left_children":[1,3,5,7,9,11,-1,13,15,-1,17,19,-1,21,23,25,-1,27,29,31,33,35,37,-1,39,-1,-1,41,-1,43,-1,45,47,49,-1,-1,51,53,55,-1,-1,-1,57,-1,-1,-1,-1,-1,-1,-1,-1,-1,-1,-1,-1,-1,-1,-1,-1],"loss_changes":[1.6029074E2,3.3424217E1,8.779831E0,2.5026642E1,3.93152E1,7.593092E0,0E0,5.9389725E0,1.2796116E-1,0E0,2.1848038E1,7.38548E0,0E0,3.0553513E0,2.104443E0,1.051722E0,0E0,1.0960854E1,1.9213119E0,4.9786043E0,4.1762733E-1,3.750183E0,3.9601517E0,0E0,2.850808E-1,0E0,0E0,2.7615337E0,0E0,2.4090934E0,0E0,3.3256776E0,1.7861605E-1,1.4414258E0,0E0,0E0,4.4752617E0,6.655502E-2,2.7194722E0,0E0,0E0,0E0,1.8136201E0,0E0,0E0,0E0,0E0,0E0,0E0,0E0,0E0,0E0,0E0,0E0,0E0,0E0,0E0,0E0,0E0],"parents":[2147483647,0,0,1,1,2,2,3,3,4,4,5,5,7,7,8,8,10,10,11,11,13,13,14,14,15,15,17,17,18,18,19,19,20,20,21,21,22,22,24,24,27,27,29,29,31,31,32,32,33,33,36,36,37,37,38,38,42,42],"right_children":[2,4,6,8,10,12,-1,14,16,-1,18,20,-1,22,24,26,-1,28,30,32,34,36,38,-1,40,-1,-1,42,-1,44,-1,46,48,50,-1,-1,52,54,56,-1,-1,-1,58,-1,-1,-1,-1,-1,-1,-1,-1,-1,-1,-1,-1,-1,-1,-1,-1],"split_conditions":[1E0,1E0,1E0,1E0,1E0,1E0,7.3984616E-2,1E0,1E0,7.453286E-2,1E0,1E0,6.366718E-2,1E0,1E0,1E0,6.096859E-2,1E0,1E0,1E0,1E0,1E0,1E0,-2.2206003E-2,1E0,-5.0885645E-3,4.6052836E-2,1E0,3.4574438E-2,1E0,5.756564E-2,1E0,1E0,1E0,5.860276E-2,-3.443133E-2,1E0,1E0,1E0,7.08962E-3,4.481944E-2,-7.430521E-2,1E0,-2.1880213E-2,4.5061987E-2,-2.645169E-2,5.120988E-2,-6.3396E-2,-1.8717641E-2,-1.5109449E-2,4.356781E-2,-3.7399303E-2,-7.8276105E-2,-8.1163496E-2,-3.3887107E-2,-4.9370248E-2,2.3039617E-2,-3.9447002E-2,2.315921E-2],"split_indices":[5,23,8,2,13,1,0,4,8,0,1,4,0,13,0,7,0,8,0,23,9,9,1,0,6,0,0,3,0,3,0,0,2,3,0,0,22,7,9,0,0,0,6,0,0,0,0,0,0,0,0,0,0,0,0,0,0,0,0],"split_type":[0,0,0,0,0,0,0,0,0,0,0,0,0,0,0,0,0,0,0,0,0,0,0,0,0,0,0,0,0,0,0,0,0,0,0,0,0,0,0,0,0,0,0,0,0,0,0,0,0,0,0,0,0,0,0,0,0,0,0],"sum_hessian":[2.4680827E2,1.7408395E2,7.272432E1,1.3098297E2,4.310099E1,2.5084232E1,4.764009E1,1.2450454E2,6.478428E0,1.4856169E1,2.8244822E1,1.3751599E1,1.1332633E1,1.19768295E2,4.736247E0,2.8172529E0,3.661175E0,1.9677456E1,8.567365E0,7.838543E0,5.9130564E0,1.0137728E2,1.8391014E1,2.1665597E0,2.5696871E0,1.4252061E0,1.3920468E0,1.7112799E1,2.5646586E0,3.5381737E0,5.029191E0,3.7124982E0,4.1260448E0,2.5386062E0,3.37445E0,6.844661E1,3.2930664E1,1.5070912E1,3.3201022E0,1.197066E0,1.3726212E0,1.4256727E1,2.8560708E0,2.1613593E0,1.3768142E0,1.6778519E0,2.034646E0,2.6852446E0,1.4408001E0,1.190264E0,1.3483422E0,1.8966932E1,1.3963734E1,1.2921381E1,2.149532E0,1.4422822E0,1.87782E0,1.6922327E0,1.1638381E0],"tree_param":{"num_deleted":"0","num_feature":"25","num_nodes":"59","size_leaf_vector":"1"}},{"base_weights":[6.0265954E-3,-9.213898E-1,8.704749E-1,-3.2528603E-1,-7.956268E-2,-1.5280645E-1,1.3030655E0,-8.2748406E-2,3.8342646E-1,-7.857067E-2,8.5994583E-1,6.9381356E-1,7.375439E-2,1.0951738E0,-1.1921453E0,7.079166E-2,3.441983E-1,1.073263E0,-8.8841945E-1,6.349552E-1,7.457146E-2,-7.6202236E-2,3.590488E-2,2.5111472E-3,5.8574405E-2,5.657046E-1,6.835493E-2,-5.1407833E-3,-6.0421463E-2,2.1515863E-2,5.885711E-2,-5.5597976E-2,6.0436256E-2,-6.6778684E-1,4.5820624E-2,-1.1538861E-2,-3.95309E-2],"categories":[],"categories_nodes":[],"categories_segments":[],"categories_sizes":[],"default_left":[0,0,0,0,0,0,0,0,0,0,0,0,0,0,0,0,0,0,0,0,0,0,0,0,0,0,0,0,0,0,0,0,0,0,0,0,0],"id":7,"left_children":[1,3,5,7,-1,9,11,-1,13,-1,15,17,-1,19,21,-1,23,25,27,29,-1,-1,-1,-1,-1,31,-1,-1,-1,-1,-1,33,-1,35,-1,-1,-1],"loss_changes":[1.928207E2,4.5815735E1,5.5301315E1,5.9677574E1,0E0,5.577656E1,8.157181E0,0E0,4.8048645E1,0E0,6.0347958E0,1.3666695E1,0E0,4.3841057E0,9.621298E0,0E0,3.1324265E0,1.841362E0,1.0430262E0,1.1872916E0,0E0,0E0,0E0,0E0,0E0,3.3168983E0,0E0,0E0,0E0,0E0,0E0,3.6425705E0,0E0,1.633346E-2,0E0,0E0,0E0],"parents":[2147483647,0,0,1,1,2,2,3,3,5,5,6,6,8,8,10,10,11,11,13,13,14,14,16,16,17,17,18,18,19,19,25,25,31,31,33,33],"right_children":[2,4,6,8,-1,10,12,-1,14,-1,16,18,-1,20,22,-1,24,26,28,30,-1,-1,-1,-1,-1,32,-1,-1,-1,-1,-1,34,-1,36,-1,-1,-1],"split_conditions":[-6.315179E-2,-7.636127E-1,1E0,1E0,-7.956268E-2,1E0,1E0,-8.2748406E-2,1E0,-7.857067E-2,1E0,1.33777E0,7.375439E-2,-1.1138432E0,1E0,7.079166E-2,1E0,1E0,2.038231E0,1E0,7.457146E-2,-7.6202236E-2,3.590488E-2,2.5111472E-3,5.8574405E-2,1E0,6.835493E-2,-5.1407833E-3,-6.0421463E-2,2.1515863E-2,5.885711E-2,1E0,6.0436256E-2,1.0564598E0,4.5820624E-2,-1.1538861E-2,-3.95309E-2],"split_indices":[12,12,13,21,0,21,6,0,13,0,9,12,0,12,4,0,23,5,12,23,0,0,0,0,0,9,0,0,0,0,0,3,0,10,0,0,0],"split_type":[0,0,0,0,0,0,0,0,0,0,0,0,0,0,0,0,0,0,0,0,0,0,0,0,0,0,0,0,0,0,0,0,0,0,0,0,0],"sum_hessian":[2.3851328E2,1.1503404E2,1.23479225E2,6.165425E1,5.3379795E1,3.6882183E1,8.659704E1,2.0971838E1,4.068241E1,1.5133039E1,2.1749146E1,2.0175323E1,6.6421715E1,2.8233252E1,1.2449162E1,9.627329E0,1.2121817E1,1.6532253E1,3.6430693E0,1.4266383E1,1.3966868E1,1.0778584E1,1.6705774E0,9.726306E0,2.3955107E0,7.1341987E0,9.398056E0,1.4368883E0,2.206181E0,1.1659428E1,2.606956E0,4.0929875E0,3.0412111E0,2.7033532E0,1.3896343E0,1.2247487E0,1.4786044E0],"tree_param":{"num_deleted":"0","num_feature":"25","num_nodes":"37","size_leaf_vector":"1"}},{"base_weights":[-2.4354E-2,-8.8464725E-1,7.957748E-1,-2.9736853E-1,-7.701631E-2,2.2327483E-3,7.192265E-2,-8.0028966E-2,4.3279433E-1,-1.3042375E0,7.087443E-1,1.149145E0,-1.2462728E0,-1.4735688E0,3.9724644E-2,8.276688E-1,-5.381605E-2,3.3953663E-2,7.331925E-2,-7.369719E-2,2.5183132E-2,-7.673642E-2,-1.530906E-2,1.2133275E0,4.820707E-1,6.764825E-2,9.973365E-3,1.9707075E-1,6.0590893E-2,1.8632274E-2,-5.047194E-2],"categories":[],"categories_nodes":[],"categories_segments":[],"categories_sizes":[],"default_left":[0,0,0,0,0,0,0,0,0,0,0,0,0,0,0,0,0,0,0,0,0,0,0,0,0,0,0,0,0,0,0],"id":8,"left_children":[1,3,5,7,-1,9,-1,-1,11,13,15,17,19,21,-1,23,-1,-1,-1,-1,-1,-1,-1,25,27,-1,-1,29,-1,-1,-1],"loss_changes":[1.6586227E2,4.3716026E1,6.1382484E1,5.945585E1,0E0,5.1564697E1,0E0,0E0,4.9984943E1,8.138935E0,8.587355E0,3.3012886E0,5.742939E0,8.505211E-1,0E0,4.020796E0,0E0,0E0,0E0,0E0,0E0,0E0,0E0,1.9488773E0,3.8965588E0,0E0,0E0,3.6581728E0,0E0,0E0,0E0],"parents":[2147483647,0,0,1,1,2,2,3,3,5,5,8,8,9,9,10,10,11,11,12,12,13,13,15,15,23,23,24,24,27,27],"right_children":[2,4,6,8,-1,10,-1,-1,12,14,16,18,20,22,-1,24,-1,-1,-1,-1,-1,-1,-1,26,28,-1,-1,30,-1,-1,-1],"split_conditions":[-6.315179E-2,-7.636127E-1,1E0,1E0,-7.701631E-2,1E0,7.192265E-2,-8.0028966E-2,1E0,1E0,2.038231E0,-1.1138432E0,1E0,-2.993445E-1,3.9724644E-2,6.3730913E-1,-5.381605E-2,3.3953663E-2,7.331925E-2,-7.369719E-2,2.5183132E-2,-7.673642E-2,-1.530906E-2,1.8699424E0,1E0,6.764825E-2,9.973365E-3,1E0,6.0590893E-2,1.8632274E-2,-5.047194E-2],"split_indices":[12,12,6,21,0,21,0,0,15,0,12,12,4,10,0,12,0,0,0,0,0,0,0,10,5,0,0,14,0,0,0],"split_type":[0,0,0,0,0,0,0,0,0,0,0,0,0,0,0,0,0,0,0,0,0,0,0,0,0,0,0,0,0,0,0],"sum_hessian":[2.3308405E2,1.1371811E2,1.1936594E2,6.0754776E1,5.2963333E1,5.386277E1,6.550317E1,2.138833E1,3.9366447E1,1.860769E1,3.5255077E1,2.7815119E1,1.1551329E1,1.7494095E1,1.1135962E0,3.355586E1,1.6992189E0,1.2473306E1,1.5341813E1,1.0361046E1,1.1902828E0,1.63242E1,1.1698964E0,1.4672152E1,1.8883707E1,1.2602026E1,2.070126E0,1.4493414E1,4.3902936E0,1.3255564E1,1.2378501E0],"tree_param":{"num_deleted":"0","num_feature":"25","num_nodes":"31","size_leaf_vector":"1"}},{"base_weights":[-1.6914332E-2,-9.090215E-1,7.9112E-1,-3.5070735E-1,-7.476623E-2,-1.8300255E-1,1.2287638E0,-7.72542E-2,3.2624513E-1,-7.415378E-2,7.56153E-1,-1.3602607E-1,1.2851543E0,8.917868E-1,-1.0499465E0,6.682422E-2,1.5338557E-2,-4.4327553E-2,4.3151494E-2,9.669385E-1,6.999257E-2,4.1294622E-1,7.108751E-2,-7.073053E-2,3.46916E-2,1.1861731E0,-5.604829E-1,2.716551E-1,4.860477E-2,6.487826E-2,6.412999E-1,-4.770616E-2,2.3751123E-5,2.3845803E-2,9.924587E-3,4.5609027E-2,5.1769435E-2,-3.3883832E-2,3.9248828E-2],"categories":[],"categories_nodes":[],"categories_segments":[],"categories_sizes":[],"default_left":[0,0,0,0,0,0,0,0,0,0,0,0,0,0,0,0,0,0,0,0,0,0,0,0,0,0,0,0,0,0,0,0,0,0,0,0,0,0,0],"id":9,"left_children":[1,3,5,7,-1,9,11,-1,13,-1,15,17,19,21,23,-1,-1,-1,-1,25,-1,27,-1,-1,-1,29,31,33,-1,-1,35,-1,-1,-1,-1,37,-1,-1,-1],"loss_changes":[1.6718661E2,3.555549E1,5.2112152E1,4.7208797E1,0E0,4.8251114E1,6.648033E0,0E0,3.0273252E1,0E0,5.6072683E0,3.945585E0,1.5979767E0,6.329605E0,8.254754E0,0E0,0E0,0E0,0E0,8.922234E0,0E0,9.784808E-1,0E0,0E0,0E0,4.961586E-1,8.338618E-1,1.14729404E-1,0E0,0E0,1.2889655E0,0E0,0E0,0E0,0E0,2.3033094E0,0E0,0E0,0E0],"parents":[2147483647,0,0,1,1,2,2,3,3,5,5,6,6,8,8,10,10,11,11,12,12,13,13,14,14,19,19,21,21,25,25,26,26,27,27,30,30,35,35],"right_children":[2,4,6,8,-1,10,12,-1,14,-1,16,18,20,22,24,-1,-1,-1,-1,26,-1,28,-1,-1,-1,30,32,34,-1,-1,36,-1,-1,-1,-1,38,-1,-1,-1],"split_conditions":[-6.315179E-2,-7.636127E-1,1E0,1E0,-7.476623E-2,1E0,-1.5698478E0,-7.72542E-2,1E0,-7.415378E-2,1E0,1E0,1E0,1E0,1E0,6.682422E-2,1.5338557E-2,-4.4327553E-2,4.3151494E-2,1.33777E0,6.999257E-2,-1.1138432E0,7.108751E-2,-7.073053E-2,3.46916E-2,1.8699424E0,2E0,6.952104E-2,4.860477E-2,6.487826E-2,1E0,-4.770616E-2,2.3751123E-5,2.3845803E-2,9.924587E-3,1E0,5.1769435E-2,-3.3883832E-2,3.9248828E-2],"split_indices":[12,12,13,21,0,21,11,0,13,0,9,9,5,22,8,0,0,0,0,12,0,12,0,0,0,10,24,11,0,0,0,0,0,0,0,3,0,0,0],"split_type":[0,0,0,0,0,0,0,0,0,0,0,0,0,0,0,0,0,0,0,0,0,0,0,0,0,0,0,0,0,0,0,0,0,0,0,0,0,0,0],"sum_hessian":[2.2993115E2,1.0922107E2,1.2071008E2,5.676453E1,5.245654E1,3.7600174E1,8.310991E1,2.0070633E1,3.6693897E1,1.5526995E1,2.2073177E1,3.241658E0,7.986825E1,2.6256048E1,1.0437851E1,8.771553E0,1.3301625E1,1.9153743E0,1.3262836E0,2.3659002E1,5.620925E1,1.472799E1,1.1528058E1,8.7887E0,1.6491507E0,2.0884773E1,2.7742288E0,1.29432125E1,1.7847772E0,1.6192932E1,4.6918406E0,1.2183769E0,1.5558518E0,1.951038E0,1.0992175E1,2.3123324E0,2.3795083E0,1.2110558E0,1.1012768E0],"tree_param":{"num_deleted":"0","num_feature":"25","num_nodes":"39","size_leaf_vector":"1"}},{"base_weights":[2.9140478E-2,-8.1808543E-1,8.0642474E-1,-2.453942E-1,-7.254564E-2,-1.7424473E-1,1.2208625E0,-7.50123E-2,4.4485646E-1,-7.162875E-2,7.1428454E-1,-1.5842688E-1,1.2857609E0,1.077739E0,-1.0474112E0,6.548362E-2,1.060331E-2,-4.6669777E-2,4.3793507E-2,9.965473E-1,6.864151E-2,3.4673385E-2,6.905619E-2,-6.955381E-2,3.503957E-2,1.138671E0,-1.753119E-1,6.3061E-2,4.9292055E-1,-4.6707436E-2,3.647364E-2,-4.0357853E-3,4.7506325E-2],"categories":[],"categories_nodes":[],"categories_segments":[],"categories_sizes":[],"default_left":[0,0,0,0,0,0,0,0,0,0,0,0,0,0,0,0,0,0,0,0,0,0,0,0,0,0,0,0,0,0,0,0,0],"id":10,"left_children":[1,3,5,7,-1,9,11,-1,13,-1,15,17,19,21,23,-1,-1,-1,-1,25,-1,-1,-1,-1,-1,27,29,-1,31,-1,-1,-1,-1],"loss_changes":[1.4961844E2,3.9047684E1,4.8362648E1,5.1145733E1,0E0,4.135051E1,7.6693497E0,0E0,3.736522E1,0E0,6.243229E0,4.5352845E0,6.405182E-1,2.2406635E0,8.144461E0,0E0,0E0,0E0,0E0,3.8812485E0,0E0,0E0,0E0,0E0,0E0,9.489956E-1,2.9180176E0,0E0,1.3375341E0,0E0,0E0,0E0,0E0],"parents":[2147483647,0,0,1,1,2,2,3,3,5,5,6,6,8,8,10,10,11,11,12,12,13,13,14,14,19,19,25,25,26,26,28,28],"right_children":[2,4,6,8,-1,10,12,-1,14,-1,16,18,20,22,24,-1,-1,-1,-1,26,-1,-1,-1,-1,-1,28,30,-1,32,-1,-1,-1,-1],"split_conditions":[-6.315179E-2,-7.636127E-1,1E0,1E0,-7.254564E-2,1E0,-1.5698478E0,-7.50123E-2,1E0,-7.162875E-2,1E0,1E0,1E0,-1.1138432E0,1E0,6.548362E-2,1.060331E-2,-4.6669777E-2,4.3793507E-2,1.33777E0,6.864151E-2,3.4673385E-2,6.905619E-2,-6.955381E-2,3.503957E-2,1.8699424E0,1E0,6.3061E-2,1E0,-4.6707436E-2,3.647364E-2,-4.0357853E-3,4.7506325E-2],"split_indices":[12,12,13,21,0,21,11,0,13,0,9,4,5,12,2,0,0,0,0,12,0,0,0,0,0,10,2,0,4,0,0,0,0],"split_type":[0,0,0,0,0,0,0,0,0,0,0,0,0,0,0,0,0,0,0,0,0,0,0,0,0,0,0,0,0,0,0,0,0],"sum_hessian":[2.2519698E2,1.07725555E2,1.1747142E2,5.7278164E1,5.044739E1,3.5068836E1,8.240259E1,1.9909645E1,3.736852E1,1.4260663E1,2.0808172E1,3.6382148E0,7.876437E1,2.6435009E1,1.0933512E1,8.785294E0,1.2022879E1,2.1356156E0,1.5025992E0,2.1105347E1,5.7659027E1,1.3112416E1,1.3322593E1,9.308008E0,1.6255037E0,1.8847795E1,2.2575502E0,1.5040365E1,3.8074298E0,1.2101507E0,1.0473995E0,2.0539224E0,1.7535076E0],"tree_param":{"num_deleted":"0","num_feature":"25","num_nodes":"33","size_leaf_vector":"1"}},{"base_weights":[-1.8769687E-2,-8.327538E-1,7.6567966E-1,-2.6486367E-1,-7.26097E-2,-1.879683E-1,1.2021497E0,-7.246833E-2,2.83518E-1,-7.051345E-2,8.2167304E-1,6.819962E-1,6.768339E-2,8.350484E-1,-1.0378163E0,6.337136E-2,4.4325325E-1,9.9718565E-1,-4.2288374E-2,2.7638212E-1,6.76319E-2,-6.8164684E-2,3.3443198E-2,4.036136E-3,5.9377063E-2,4.7492063E-1,6.296313E-2,2.5510546E-3,5.3503998E-2,-1.8298677E-1,5.4277778E-2,-4.7192097E-2,4.290233E-2],"categories":[],"categories_nodes":[],"categories_segments":[],"categories_sizes":[],"default_left":[0,0,0,0,0,0,0,0,0,0,0,0,0,0,0,0,0,0,0,0,0,0,0,0,0,0,0,0,0,0,0,0,0],"id":11,"left_children":[1,3,5,7,-1,9,11,-1,13,-1,15,17,-1,19,21,-1,23,25,-1,27,-1,-1,-1,-1,-1,29,-1,-1,-1,31,-1,-1,-1],"loss_changes":[1.3925192E2,3.726056E1,4.6456947E1,3.7470806E1,0E0,4.5262634E1,5.0925827E0,0E0,2.9896776E1,0E0,2.846177E0,1.0105338E1,0E0,7.9130363E0,7.6758623E0,0E0,3.2674942E0,1.6471748E0,0E0,2.6354337E0,0E0,0E0,0E0,0E0,0E0,3.0456E0,0E0,0E0,0E0,4.189633E0,0E0,0E0,0E0],"parents":[2147483647,0,0,1,1,2,2,3,3,5,5,6,6,8,8,10,10,11,11,13,13,14,14,16,16,17,17,19,19,25,25,29,29],"right_children":[2,4,6,8,-1,10,12,-1,14,-1,16,18,-1,20,22,-1,24,26,-1,28,-1,-1,-1,-1,-1,30,-1,-1,-1,32,-1,-1,-1],"split_conditions":[-6.315179E-2,-7.636127E-1,1E0,1E0,-7.26097E-2,1E0,1E0,-7.246833E-2,1E0,-7.051345E-2,6.3730913E-1,1.6880004E0,6.768339E-2,-1.1138432E0,1E0,6.337136E-2,1E0,1E0,-4.2288374E-2,1E0,6.76319E-2,-6.8164684E-2,3.3443198E-2,4.036136E-3,5.9377063E-2,1E0,6.296313E-2,2.5510546E-3,5.3503998E-2,1E0,5.4277778E-2,-4.7192097E-2,4.290233E-2],"split_indices":[12,12,13,21,0,21,6,0,13,0,12,12,0,12,4,0,23,5,0,23,0,0,0,0,0,3,0,0,0,7,0,0,0],"split_type":[0,0,0,0,0,0,0,0,0,0,0,0,0,0,0,0,0,0,0,0,0,0,0,0,0,0,0,0,0,0,0,0,0],"sum_hessian":[2.1608368E2,1.060153E2,1.1006838E2,5.6053856E1,4.9961445E1,3.47381E1,7.5330284E1,1.7218641E1,3.8835213E1,1.5534629E1,1.9203468E1,1.8234226E1,5.709606E1,2.7658476E1,1.1176736E1,7.7386136E0,1.1464854E1,1.5403629E1,2.8305967E0,1.4039145E1,1.361933E1,9.555608E0,1.6211283E0,8.455012E0,3.009842E0,6.086546E0,9.317083E0,1.1763362E1,2.2757838E0,3.2669828E0,2.8195634E0,1.9414239E0,1.3255589E0],"tree_param":{"num_deleted":"0","num_feature":"25","num_nodes":"33","size_leaf_vector":"1"}},{"base_weights":[-2.7137352E-2,-8.192621E-1,7.526222E-1,-2.842681E-1,-6.992594E-2,-1.8901776E-1,1.1550665E0,-7.142733E-2,3.701692E-1,-6.8297796E-2,6.711258E-1,7.3997986E-1,6.6188335E-2,8.5200155E-1,-1.0510589E0,6.2190462E-2,1.0849593E-2,1.0064725E0,-7.99397E-1,3.2867792E-1,6.656785E-2,-6.530293E-2,2.4890127E-2,5.841093E-1,6.44094E-2,-5.2903898E-2,-6.43749E-3,2.0152172E-1,4.5877837E-2,-2.2886097E-1,5.8380157E-2,1.6335994E-2,7.81676E-3,-8.027217E-1,3.9516103E-2,-5.658422E-2,2.8398103E-4],"categories":[],"categories_nodes":[],"categories_segments":[],"categories_sizes":[],"default_left":[0,0,0,0,0,0,0,0,0,0,0,0,0,0,0,0,0,0,0,0,0,0,0,0,0,0,0,0,0,0,0,0,0,0,0,0,0],"id":12,"left_children":[1,3,5,7,-1,9,11,-1,13,-1,15,17,-1,19,21,-1,-1,23,25,27,-1,-1,-1,29,-1,-1,-1,31,-1,33,-1,-1,-1,35,-1,-1,-1],"loss_changes":[1.3513234E2,3.3230316E1,4.200522E1,4.371294E1,0E0,3.5210308E1,4.4398575E0,0E0,2.6561323E1,0E0,4.9946613E0,1.0909433E1,0E0,6.722536E0,4.574911E0,0E0,0E0,1.7985916E0,5.9106684E-1,9.362844E-1,0E0,0E0,0E0,5.204423E0,0E0,0E0,0E0,2.5836766E-2,0E0,3.6669464E0,0E0,0E0,0E0,1.0205166E0,0E0,0E0,0E0],"parents":[2147483647,0,0,1,1,2,2,3,3,5,5,6,6,8,8,10,10,11,11,13,13,14,14,17,17,18,18,19,19,23,23,27,27,29,29,33,33],"right_children":[2,4,6,8,-1,10,12,-1,14,-1,16,18,-1,20,22,-1,-1,24,26,28,-1,-1,-1,30,-1,-1,-1,32,-1,34,-1,-1,-1,36,-1,-1,-1],"split_conditions":[-6.315179E-2,-7.636127E-1,1E0,1E0,-6.992594E-2,1E0,1E0,-7.142733E-2,1E0,-6.8297796E-2,1E0,1.6880004E0,6.6188335E-2,-1.1138432E0,1E0,6.2190462E-2,1.0849593E-2,1E0,2E0,-5.705054E-1,6.656785E-2,-6.530293E-2,2.4890127E-2,1E0,6.44094E-2,-5.2903898E-2,-6.43749E-3,-8.672612E-1,4.5877837E-2,1E0,5.8380157E-2,1.6335994E-2,7.81676E-3,1E0,3.9516103E-2,-5.658422E-2,2.8398103E-4],"split_indices":[12,12,16,21,0,21,5,0,13,0,9,12,0,12,0,0,0,9,24,10,0,0,0,8,0,0,0,11,0,4,0,0,0,24,0,0,0],"split_type":[0,0,0,0,0,0,0,0,0,0,0,0,0,0,0,0,0,0,0,0,0,0,0,0,0,0,0,0,0,0,0,0,0,0,0,0,0],"sum_hessian":[2.1678041E2,1.0751243E2,1.0926799E2,5.666662E1,5.084581E1,3.2875694E1,7.6392296E1,2.0186981E1,3.6479637E1,1.3633229E1,1.9242464E1,2.3632042E1,5.276025E1,2.7542538E1,8.9371E0,7.741378E0,1.1501086E1,2.0439753E1,3.1922898E0,1.3973265E1,1.3569273E1,7.8083243E0,1.1287761E0,9.40807E0,1.1031684E1,1.8868139E0,1.305476E0,1.2595696E1,1.3775679E0,4.184986E0,5.223083E0,1.688078E0,1.09076185E1,2.8133116E0,1.3716747E0,1.7153711E0,1.0979403E0],"tree_param":{"num_deleted":"0","num_feature":"25","num_nodes":"37","size_leaf_vector":"1"}},{"base_weights":[5.1388275E-2,-7.3079616E-1,7.888738E-1,-2.0608188E-1,-6.7101896E-2,-7.5815864E-2,1.165607E0,-6.948086E-2,4.2265794E-1,-6.6725574E-2,7.7774394E-1,-1.2618074E-1,1.2218184E0,9.8156023E-1,-1.0083708E0,6.206596E-2,3.6743754E-1,-4.080911E-2,3.9857753E-2,8.5983855E-1,6.524775E-2,5.877613E-1,6.510108E-2,-6.504916E-2,4.104758E-2,4.990985E-3,5.4172058E-2,5.5850532E-2,-2.1174861E-2,3.7464887E-1,5.477318E-2,3.506491E-2,1.2334933E-2],"categories":[],"categories_nodes":[],"categories_segments":[],"categories_sizes":[],"default_left":[0,0,0,0,0,0,0,0,0,0,0,0,0,0,0,0,0,0,0,0,0,0,0,0,0,0,0,0,0,0,0,0,0],"id":13,"left_children":[1,3,5,7,-1,9,11,-1,13,-1,15,17,19,21,23,-1,25,-1,-1,27,-1,29,-1,-1,-1,-1,-1,-1,-1,31,-1,-1,-1],"loss_changes":[1.2193426E2,3.263492E1,3.5519356E1,4.25545E1,0E0,3.7508232E1,5.6596756E0,0E0,3.1060745E1,0E0,3.5116463E0,3.2423966E0,1.0672989E0,2.7107868E0,6.984624E0,0E0,2.2844164E0,0E0,0E0,5.925214E0,0E0,1.1239519E0,0E0,0E0,0E0,0E0,0E0,0E0,0E0,3.079729E-1,0E0,0E0,0E0],"parents":[2147483647,0,0,1,1,2,2,3,3,5,5,6,6,8,8,10,10,11,11,12,12,13,13,14,14,16,16,19,19,21,21,29,29],"right_children":[2,4,6,8,-1,10,12,-1,14,-1,16,18,20,22,24,-1,26,-1,-1,28,-1,30,-1,-1,-1,-1,-1,-1,-1,32,-1,-1,-1],"split_conditions":[-6.315179E-2,-7.636127E-1,1E0,1E0,-6.7101896E-2,1E0,-1.5698478E0,-6.948086E-2,1E0,-6.6725574E-2,1E0,1E0,1E0,-1.1138432E0,1E0,6.206596E-2,1E0,-4.080911E-2,3.9857753E-2,1.33777E0,6.524775E-2,1E0,6.510108E-2,-6.504916E-2,4.104758E-2,4.990985E-3,5.4172058E-2,5.5850532E-2,-2.1174861E-2,6.952104E-2,5.477318E-2,3.506491E-2,1.2334933E-2],"split_indices":[12,12,16,21,0,21,11,0,15,0,9,7,6,12,8,0,23,0,0,12,0,23,0,0,0,0,0,0,0,11,0,0,0],"split_type":[0,0,0,0,0,0,0,0,0,0,0,0,0,0,0,0,0,0,0,0,0,0,0,0,0,0,0,0,0,0,0,0,0],"sum_hessian":[2.0938019E2,1.0161519E2,1.07765E2,5.5397182E1,4.6218002E1,3.2945713E1,7.481929E1,1.8799318E1,3.6597866E1,1.3085627E1,1.9860088E1,3.0680592E0,7.175123E1,2.654467E1,1.0053194E1,8.373797E0,1.1486291E1,1.822311E0,1.245748E0,1.5519801E1,5.6231426E1,1.3181137E1,1.3363534E1,8.915859E0,1.1373346E0,9.1905775E0,2.2957134E0,1.3036896E1,2.4829051E0,1.0508172E1,2.6729646E0,1.6963834E0,8.811789E0],"tree_param":{"num_deleted":"0","num_feature":"25","num_nodes":"33","size_leaf_vector":"1"}},{"base_weights":[4.997447E-2,-3.2203257E-1,5.957971E-2,-1.1967207E0,7.932787E-2,-1.3363374E0,5.2548563E-1,2.9991052E-1,-2.443446E-1,-1.3595089E0,-1.7922632E-2,1.4203418E-3,3.664392E-2,4.177999E-2,6.418893E-2,-7.2293353E-1,6.8411887E-1,-6.9128476E-2,-1.3765211E-2,2.5900987E-1,4.426063E-3,-1.031987E0,1.9398408E-1,1.1680414E-1,5.208127E-2,1.5545975E-1,3.3373392E-1,-1.6215174E-1,8.055143E-2,-1.2424854E0,-2.3139521E-1,-2.420836E-1,7.326143E-1,-4.1682053E-1,5.317916E-1,-7.140544E-4,1.1313161E-2,2.5811424E-2,-5.7265966E-4,-1.8565027E-3,-2.6231581E-2,2.8242879E-2,2.9505316E-2,-6.733099E-2,-7.08056E-1,-7.1373296E-1,3.0576205E-2,-3.110818E-2,1.1379905E-2,9.899356E-3,4.3673676E-2,-4.0430628E-2,5.842027E-3,6.4409026E-3,4.004646E-2,5.8147064E-3,-3.0085076E-2,-5.0562557E-2,3.1295333E-3,-4.563349E-2,-8.884532E-3],"categories":[],"categories_nodes":[],"categories_segments":[],"categories_sizes":[],"default_left":[0,0,0,0,0,0,0,0,0,0,0,0,0,0,0,0,0,0,0,0,0,0,0,0,0,0,0,0,0,0,0,0,0,0,0,0,0,0,0,0,0,0,0,0,0,0,0,0,0,0,0,0,0,0,0,0,0,0,0,0,0],"id":14,"left_children":[1,3,-1,5,7,9,11,13,15,17,-1,-1,-1,19,-1,21,23,-1,-1,25,27,29,31,33,-1,35,37,39,41,43,45,47,49,51,53,-1,-1,-1,-1,-1,-1,55,-1,-1,57,59,-1,-1,-1,-1,-1,-1,-1,-1,-1,-1,-1,-1,-1,-1,-1],"loss_changes":[8.86241E1,5.5386814E1,0E0,1.2628601E1,7.8481507E0,5.5869293E-1,4.366206E-1,1.6507715E1,2.0351E1,7.378845E-1,0E0,0E0,0E0,4.2641187E-1,0E0,8.693847E0,3.06526E0,0E0,0E0,7.804632E-3,5.960941E-1,3.5169773E0,2.1497838E0,1.8161978E0,0E0,6.458771E-2,2.3322943E-1,6.490971E-1,8.4224916E-1,2.859497E-2,2.8469572E0,1.1042132E0,1.2869644E-1,8.7030506E-1,3.8378167E-1,0E0,0E0,0E0,0E0,0E0,0E0,1.7492357E0,0E0,0E0,1.2284362E0,2.8916597E-1,0E0,0E0,0E0,0E0,0E0,0E0,0E0,0E0,0E0,0E0,0E0,0E0,0E0,0E0,0E0],"parents":[2147483647,0,0,1,1,3,3,4,4,5,5,6,6,7,7,8,8,9,9,13,13,15,15,16,16,19,19,20,20,21,21,22,22,23,23,25,25,26,26,27,27,28,28,29,29,30,30,31,31,32,32,33,33,34,34,41,41,44,44,45,45],"right_children":[2,4,-1,6,8,10,12,14,16,18,-1,-1,-1,20,-1,22,24,-1,-1,26,28,30,32,34,-1,36,38,40,42,44,46,48,50,52,54,-1,-1,-1,-1,-1,-1,56,-1,-1,58,60,-1,-1,-1,-1,-1,-1,-1,-1,-1,-1,-1,-1,-1,-1,-1],"split_conditions":[1E0,1E0,5.957971E-2,1E0,1E0,1E0,1E0,1E0,1E0,1E0,-1.7922632E-2,1.4203418E-3,3.664392E-2,-8.672612E-1,6.418893E-2,1E0,1E0,-6.9128476E-2,-1.3765211E-2,-1.1014568E0,-3.9887008E-1,1E0,1E0,1E0,5.208127E-2,1E0,1E0,1E0,-5.705054E-1,1E0,1E0,1E0,2E0,1E0,1E0,-7.140544E-4,1.1313161E-2,2.5811424E-2,-5.7265966E-4,-1.8565027E-3,-2.6231581E-2,1.2404988E0,2.9505316E-2,-6.733099E-2,1E0,1E0,3.0576205E-2,-3.110818E-2,1.1379905E-2,9.899356E-3,4.3673676E-2,-4.0430628E-2,5.842027E-3,6.4409026E-3,4.004646E-2,5.8147064E-3,-3.0085076E-2,-5.0562557E-2,3.1295333E-3,-4.563349E-2,-8.884532E-3],"split_indices":[8,21,0,5,18,0,7,23,4,6,0,0,0,11,0,7,5,0,0,11,11,3,6,6,0,22,22,22,10,6,5,0,24,9,3,0,0,0,0,0,0,11,0,0,0,6,0,0,0,0,0,0,0,0,0,0,0,0,0,0,0],"split_type":[0,0,0,0,0,0,0,0,0,0,0,0,0,0,0,0,0,0,0,0,0,0,0,0,0,0,0,0,0,0,0,0,0,0,0,0,0,0,0,0,0,0,0,0,0,0,0,0,0,0,0,0,0,0,0,0,0,0,0,0,0],"sum_hessian":[2.0677567E2,1.5649748E2,5.0278187E1,4.860045E1,1.07897026E2,4.516319E1,3.4372587E0,6.421081E1,4.3686222E1,4.3736576E1,1.4266137E0,1.3466293E0,2.0906293E0,5.1691372E1,1.2519435E1,2.8973043E1,1.4713178E1,4.2556232E1,1.1803427E0,6.7137804E0,4.4977592E1,2.1575407E1,7.3976355E0,6.200514E0,8.512664E0,4.1052756E0,2.6085048E0,1.3753052E1,3.1224539E1,1.6646585E1,4.928823E0,4.39227E0,3.0053651E0,2.7105942E0,3.4899197E0,1.4433519E0,2.6619236E0,1.3822362E0,1.2262685E0,1.1045738E1,2.707314E0,2.9274754E1,1.9497848E0,1.2660025E1,3.98656E0,3.2324193E0,1.6964037E0,2.2482622E0,2.1440082E0,1.1283424E0,1.8770227E0,1.2659606E0,1.4446335E0,1.9895879E0,1.5003318E0,2.6400045E1,2.874709E0,2.6369107E0,1.3496494E0,1.8450675E0,1.3873518E0],"tree_param":{"num_deleted":"0","num_feature":"25","num_nodes":"61","size_leaf_vector":"1"}},{"base_weights":[2.325971E-2,-7.1101516E-1,7.086446E-1,-1.4911126E-1,-6.6137664E-2,-1.8233427E-1,1.1100992E0,-6.593432E-2,3.8950962E-1,-6.419251E-2,6.586715E-1,5.6737363E-1,6.3619204E-2,8.94165E-1,-9.576922E-1,5.9681285E-2,2.556657E-1,8.9413214E-1,-5.427094E-2,4.301287E-1,6.344102E-2,-6.214642E-2,3.829985E-2,-2.3678897E-3,5.2922238E-2,3.7543628E-1,6.0540117E-2,8.4272595E-3,5.3082287E-2,-6.127921E-1,5.3233683E-2,-4.262686E-2,-5.119196E-4],"categories":[],"categories_nodes":[],"categories_segments":[],"categories_sizes":[],"default_left":[0,0,0,0,0,0,0,0,0,0,0,0,0,0,0,0,0,0,0,0,0,0,0,0,0,0,0,0,0,0,0,0,0],"id":15,"left_children":[1,3,5,7,-1,9,11,-1,13,-1,15,17,-1,19,21,-1,23,25,-1,27,-1,-1,-1,-1,-1,29,-1,-1,-1,31,-1,-1,-1],"loss_changes":[1.0119521E2,3.3177315E1,3.73965E1,3.3104416E1,0E0,3.156315E1,5.6042557E0,0E0,2.5463667E1,0E0,3.890995E0,1.0874366E1,0E0,4.1218414E0,6.0388756E0,0E0,3.0600996E0,2.150444E0,0E0,2.052208E0,0E0,0E0,0E0,0E0,0E0,5.734607E0,0E0,0E0,0E0,5.258373E-1,0E0,0E0,0E0],"parents":[2147483647,0,0,1,1,2,2,3,3,5,5,6,6,8,8,10,10,11,11,13,13,14,14,16,16,17,17,19,19,25,25,29,29],"right_children":[2,4,6,8,-1,10,12,-1,14,-1,16,18,-1,20,22,-1,24,26,-1,28,-1,-1,-1,-1,-1,30,-1,-1,-1,32,-1,-1,-1],"split_conditions":[-6.315179E-2,-7.636127E-1,1E0,1E0,-6.6137664E-2,1E0,1E0,-6.593432E-2,1E0,-6.419251E-2,1E0,2.038231E0,6.3619204E-2,-1.1138432E0,1E0,5.9681285E-2,1E0,1E0,-5.427094E-2,1E0,6.344102E-2,-6.214642E-2,3.829985E-2,-2.3678897E-3,5.2922238E-2,1E0,6.0540117E-2,8.4272595E-3,5.3082287E-2,1E0,5.3233683E-2,-4.262686E-2,-5.119196E-4],"split_indices":[12,12,16,21,0,21,6,0,15,0,9,12,0,12,8,0,23,3,0,23,0,0,0,0,0,4,0,0,0,24,0,0,0],"split_type":[0,0,0,0,0,0,0,0,0,0,0,0,0,0,0,0,0,0,0,0,0,0,0,0,0,0,0,0,0,0,0,0,0],"sum_hessian":[1.9907782E2,9.609296E1,1.0298486E2,5.073487E1,4.5358086E1,3.2158607E1,7.0826256E1,1.5540836E1,3.5194035E1,1.3694946E1,1.8463661E1,1.7338306E1,5.3487953E1,2.5847837E1,9.346197E0,7.090221E0,1.1373441E1,1.4859573E1,2.4787328E0,1.25061655E1,1.3341672E1,8.258494E0,1.0877024E0,8.939916E0,2.4335253E0,6.461467E0,8.398107E0,9.739015E0,2.7671514E0,2.7004604E0,3.7610064E0,1.635036E0,1.0654244E0],"tree_param":{"num_deleted":"0","num_feature":"25","num_nodes":"33","size_leaf_vector":"1"}},{"base_weights":[5.040487E-3,-7.156732E-1,6.958162E-1,-2.2241466E-1,-1.2736115E0,-2.0568043E-1,1.105841E0,2.0539658E-2,-9.7018665E-1,-4.1889172E-2,-6.6703945E-2,5.800059E-2,-6.210167E-1,6.302789E-1,6.26263E-2,-2.0362546E-1,5.7014592E-2,-6.2084258E-2,3.1196097E-2,-8.177497E-1,5.0255544E-2,8.788356E-1,-3.4819126E-2,-3.8225392E-1,3.8441423E-2,-5.843373E-2,-2.966027E-2,4.1244003E-1,5.8959574E-2,-2.1186296E-2,-6.3236835E-3,-1.9647263E-3,1.9450597E-2,-4.3859982E-1,5.2588165E-2,-5.552874E-2,3.5002116E-2],"categories":[],"categories_nodes":[],"categories_segments":[],"categories_sizes":[],"default_left":[0,0,0,0,0,0,0,0,0,0,0,0,0,0,0,0,0,0,0,0,0,0,0,0,0,0,0,0,0,0,0,0,0,0,0,0,0],"id":16,"left_children":[1,3,5,7,9,11,13,15,17,-1,-1,-1,19,21,-1,23,-1,-1,-1,25,-1,27,-1,29,31,-1,-1,33,-1,-1,-1,-1,-1,35,-1,-1,-1],"loss_changes":[9.7342E1,2.605191E1,3.712893E1,9.467272E0,6.0081482E-2,1.8902061E1,4.008377E0,1.032993E1,6.3028383E0,0E0,0E0,0E0,8.893415E0,6.622121E0,0E0,1.5007205E0,0E0,0E0,0E0,1.1237164E0,0E0,1.7259235E0,0E0,1.571424E-1,4.3771577E-1,0E0,0E0,4.663947E0,0E0,0E0,0E0,0E0,0E0,3.8526669E0,0E0,0E0,0E0],"parents":[2147483647,0,0,1,1,2,2,3,3,4,4,5,5,6,6,7,7,8,8,12,12,13,13,15,15,19,19,21,21,23,23,24,24,27,27,33,33],"right_children":[2,4,6,8,10,12,14,16,18,-1,-1,-1,20,22,-1,24,-1,-1,-1,26,-1,28,-1,30,32,-1,-1,34,-1,-1,-1,-1,-1,36,-1,-1,-1],"split_conditions":[-6.315179E-2,-7.636127E-1,1E0,1E0,1E0,1E0,1E0,1E0,1E0,-4.1889172E-2,-6.6703945E-2,5.800059E-2,1E0,1.6880004E0,6.26263E-2,1E0,5.7014592E-2,-6.2084258E-2,3.1196097E-2,-5.705054E-1,5.0255544E-2,1E0,-3.4819126E-2,-1.1138432E0,-5.705054E-1,-5.843373E-2,-2.966027E-2,1E0,5.8959574E-2,-2.1186296E-2,-6.3236835E-3,-1.9647263E-3,1.9450597E-2,1E0,5.2588165E-2,-5.552874E-2,3.5002116E-2],"split_indices":[12,12,13,13,22,9,6,23,2,0,0,0,23,12,0,22,0,0,0,10,0,3,0,12,10,0,0,9,0,0,0,0,0,8,0,0,0],"split_type":[0,0,0,0,0,0,0,0,0,0,0,0,0,0,0,0,0,0,0,0,0,0,0,0,0,0,0,0,0,0,0,0,0,0,0,0,0],"sum_hessian":[1.935239E2,9.469197E1,9.883193E1,5.100151E1,4.369046E1,3.1053925E1,6.777801E1,3.9228527E1,1.17729845E1,7.133052E0,3.6557407E1,6.823667E0,2.4230259E1,1.7226242E1,5.055176E1,3.33669E1,5.861626E0,1.0248588E1,1.5243965E0,2.2058664E1,2.1715946E0,1.4792374E1,2.433868E0,1.8865992E1,1.4500911E1,6.9665194E0,1.5092144E1,6.7241764E0,8.068197E0,1.5668856E1,3.1971354E0,1.2595812E1,1.9050984E0,3.019161E0,3.7050157E0,1.91416E0,1.105001E0],"tree_param":{"num_deleted":"0","num_feature":"25","num_nodes":"37","size_leaf_vector":"1"}},{"base_weights":[1.4958384E-2,-7.0215E-1,7.1230894E-1,-2.4842632E-1,-1.2481238E0,-1.4336611E-1,1.0861018E0,-6.4961694E-2,2.8188705E-1,-8.0057824E-1,-6.554234E-2,-6.1793726E-2,6.0292745E-1,-2.966081E-2,1.127166E0,7.539876E-1,-8.995667E-1,1.3191274E-3,-5.564704E-2,5.6559045E-2,1.2780338E-2,8.454479E-1,6.2032487E-2,2.943301E-1,6.171614E-2,-6.0382552E-2,3.0465296E-2,1.0158838E0,-4.4979706E-2,1.5509844E-1,4.583199E-2,6.815511E-1,5.8575846E-2,1.9527307E-2,4.1248393E-3,9.272929E-1,-1.0652489E-2,5.3875655E-2,1.3849837E-2],"categories":[],"categories_nodes":[],"categories_segments":[],"categories_sizes":[],"default_left":[0,0,0,0,0,0,0,0,0,0,0,0,0,0,0,0,0,0,0,0,0,0,0,0,0,0,0,0,0,0,0,0,0,0,0,0,0,0,0],"id":17,"left_children":[1,3,5,7,9,11,13,-1,15,17,-1,-1,19,-1,21,23,25,-1,-1,-1,-1,27,-1,29,-1,-1,-1,31,-1,33,-1,35,-1,-1,-1,37,-1,-1,-1],"loss_changes":[9.7494865E1,2.3503105E1,3.1766342E1,3.0317852E1,1.6832733E-1,2.596402E1,5.4200134E0,0E0,2.1060461E1,2.0703735E0,0E0,0E0,3.2059178E0,0E0,1.1123123E0,5.521517E0,5.7977533E0,0E0,0E0,0E0,0E0,7.6209564E0,0E0,1.151705E0,0E0,0E0,0E0,2.949829E-1,0E0,1.9695047E-1,0E0,2.1906257E0,0E0,0E0,0E0,4.1456223E-1,0E0,0E0,0E0],"parents":[2147483647,0,0,1,1,2,2,3,3,4,4,5,5,6,6,8,8,9,9,12,12,14,14,15,15,16,16,21,21,23,23,27,27,29,29,31,31,35,35],"right_children":[2,4,6,8,10,12,14,-1,16,18,-1,-1,20,-1,22,24,26,-1,-1,-1,-1,28,-1,30,-1,-1,-1,32,-1,34,-1,36,-1,-1,-1,38,-1,-1,-1],"split_conditions":[-6.315179E-2,-7.636127E-1,1E0,1E0,-1.1014568E0,1E0,-1.8040434E0,-6.4961694E-2,1E0,1E0,-6.554234E-2,-6.1793726E-2,6.3730913E-1,-2.966081E-2,1E0,-1.1138432E0,1E0,1.3191274E-3,-5.564704E-2,5.6559045E-2,1.2780338E-2,1.6880004E0,6.2032487E-2,-5.705054E-1,6.171614E-2,-6.0382552E-2,3.0465296E-2,1E0,-4.4979706E-2,6.952104E-2,4.583199E-2,1.8699424E0,5.8575846E-2,1.9527307E-2,4.1248393E-3,7.721077E-1,-1.0652489E-2,5.3875655E-2,1.3849837E-2],"split_indices":[12,12,13,21,11,21,11,0,13,22,0,0,12,0,0,12,4,0,0,0,0,12,0,10,0,0,0,4,0,11,0,10,0,0,0,11,0,0,0],"split_type":[0,0,0,0,0,0,0,0,0,0,0,0,0,0,0,0,0,0,0,0,0,0,0,0,0,0,0,0,0,0,0,0,0,0,0,0,0,0,0],"sum_hessian":[1.9295998E2,9.512892E1,9.7831055E1,5.274826E1,4.238066E1,2.9930809E1,6.7900246E1,1.7205631E1,3.5542625E1,6.9013557E0,3.5479305E1,1.1881426E1,1.8049383E1,1.2997829E0,6.6600464E1,2.5653488E1,9.889139E0,2.1431186E0,4.7582374E0,6.2645345E0,1.1784849E1,2.1551006E1,4.5049454E1,1.393302E1,1.1720468E1,8.378114E0,1.5110245E0,2.0014101E1,1.5369053E0,1.2406498E1,1.5265216E0,8.06595E0,1.1948151E1,1.8918654E0,1.0514633E1,6.299084E0,1.7668664E0,4.5833583E0,1.7157263E0],"tree_param":{"num_deleted":"0","num_feature":"25","num_nodes":"39","size_leaf_vector":"1"}},{"base_weights":[2.5041534E-2,-6.8047667E-1,7.0408165E-1,-2.2083713E-1,-1.2241226E0,-7.784704E-2,1.0805876E0,-6.358496E-2,3.192766E-1,-7.2881997E-1,-6.4441286E-2,-6.0519286E-2,5.877637E-1,5.6272733E-1,6.1029967E-2,7.790826E-1,-8.9304423E-1,-4.6428043E-2,-2.1474319E-2,5.695173E-2,1.9667529E-1,9.249004E-1,-4.4198234E-2,3.6192277E-1,6.0438134E-2,-5.8824997E-2,3.7194066E-2,-6.557872E-3,5.2812304E-2,8.921643E-3,5.2216556E-2,9.595821E-3,4.6483785E-2],"categories":[],"categories_nodes":[],"categories_segments":[],"categories_sizes":[],"default_left":[0,0,0,0,0,0,0,0,0,0,0,0,0,0,0,0,0,0,0,0,0,0,0,0,0,0,0,0,0,0,0,0,0],"id":18,"left_children":[1,3,5,7,9,11,13,-1,15,17,-1,-1,19,21,-1,23,25,-1,-1,-1,27,29,-1,31,-1,-1,-1,-1,-1,-1,-1,-1,-1],"loss_changes":[8.843094E1,2.2355518E1,2.7769657E1,2.8946537E1,3.830452E-1,2.4454865E1,3.920433E0,0E0,1.9655533E1,2.3838997E-2,0E0,0E0,4.1980877E0,8.875433E0,0E0,4.0784035E0,5.4310713E0,0E0,0E0,0E0,3.860349E0,9.5376205E-1,0E0,1.1932056E0,0E0,0E0,0E0,0E0,0E0,0E0,0E0,0E0,0E0],"parents":[2147483647,0,0,1,1,2,2,3,3,4,4,5,5,6,6,8,8,9,9,12,12,13,13,15,15,16,16,20,20,21,21,23,23],"right_children":[2,4,6,8,10,12,14,-1,16,18,-1,-1,20,22,-1,24,26,-1,-1,-1,28,30,-1,32,-1,-1,-1,-1,-1,-1,-1,-1,-1],"split_conditions":[-6.315179E-2,-7.636127E-1,1E0,1E0,1E0,1E0,1E0,-6.358496E-2,1E0,1E0,-6.4441286E-2,-6.0519286E-2,1E0,1.6880004E0,6.1029967E-2,-1.1138432E0,1E0,-4.6428043E-2,-2.1474319E-2,5.695173E-2,1E0,2.8330612E-1,-4.4198234E-2,1E0,6.0438134E-2,-5.8824997E-2,3.7194066E-2,-6.557872E-3,5.2812304E-2,8.921643E-3,5.2216556E-2,9.595821E-3,4.6483785E-2],"split_indices":[12,12,13,21,22,21,6,0,13,21,0,0,9,12,0,12,8,0,0,0,23,19,0,23,0,0,0,0,0,0,0,0,0],"split_type":[0,0,0,0,0,0,0,0,0,0,0,0,0,0,0,0,0,0,0,0,0,0,0,0,0,0,0,0,0,0,0,0,0],"sum_hessian":[1.8258672E2,8.954644E1,9.3040276E1,4.9284122E1,4.0262318E1,3.0497084E1,6.254319E1,1.6271425E1,3.3012695E1,6.0688906E0,3.4193424E1,1.0985969E1,1.9511116E1,1.4378966E1,4.8164223E1,2.4193869E1,8.818827E0,2.379195E0,3.6896956E0,7.303611E0,1.2207504E1,1.1788457E1,2.59051E0,1.3210555E1,1.0983314E1,7.7568917E0,1.0619354E0,9.45056E0,2.756945E0,1.9699383E0,9.818519E0,1.1196064E1,2.0144904E0],"tree_param":{"num_deleted":"0","num_feature":"25","num_nodes":"33","size_leaf_vector":"1"}},{"base_weights":[4.6124068E-4,-6.787949E-1,6.800065E-1,-2.0599544E-1,-1.2090491E0,1.4226173E-1,6.020249E-2,-6.226746E-2,2.8515846E-1,-8.0863416E-1,-6.350847E-2,-9.553858E-1,6.1919427E-1,7.296186E-1,-8.533625E-1,2.2454907E-3,-5.4998536E-2,-1.148811E0,3.4025032E-2,7.2971237E-1,-4.5033198E-2,2.7032465E-1,5.9771936E-2,-5.8207393E-2,2.9295772E-2,-6.0258545E-2,-1.1806629E-2,5.2683454E-2,4.099512E-1,6.729883E-2,4.729176E-2,1.1841084E-1,4.9865175E-2,1.4442637E-2,1.4970957E-4,-8.996048E-4,3.6774214E-2],"categories":[],"categories_nodes":[],"categories_segments":[],"categories_sizes":[],"default_left":[0,0,0,0,0,0,0,0,0,0,0,0,0,0,0,0,0,0,0,0,0,0,0,0,0,0,0,0,0,0,0,0,0,0,0,0,0],"id":19,"left_children":[1,3,5,7,9,11,-1,-1,13,15,-1,17,19,21,23,-1,-1,25,-1,27,-1,29,-1,-1,-1,-1,-1,-1,31,33,-1,35,-1,-1,-1,-1,-1],"loss_changes":[8.4926506E1,2.2819283E1,2.5747257E1,2.5801552E1,2.9331207E-2,2.4949041E1,0E0,0E0,1.8163992E1,2.155251E0,0E0,5.3655434E0,6.2072687E0,5.126314E0,5.241896E0,0E0,0E0,4.0091324E-1,0E0,2.8159847E0,0E0,1.8725095E0,0E0,0E0,0E0,0E0,0E0,0E0,2.8641882E0,1.6912436E-1,0E0,1.0884014E0,0E0,0E0,0E0,0E0,0E0],"parents":[2147483647,0,0,1,1,2,2,3,3,4,4,5,5,8,8,9,9,11,11,12,12,13,13,14,14,17,17,19,19,21,21,28,28,29,29,31,31],"right_children":[2,4,6,8,10,12,-1,-1,14,16,-1,18,20,22,24,-1,-1,26,-1,28,-1,30,-1,-1,-1,-1,-1,-1,32,34,-1,36,-1,-1,-1,-1,-1],"split_conditions":[-6.315179E-2,-7.636127E-1,1E0,1E0,-1.1014568E0,1E0,6.020249E-2,-6.226746E-2,1E0,1E0,-6.350847E-2,1E0,2.038231E0,-1.1138432E0,1E0,2.2454907E-3,-5.4998536E-2,2.8330612E-1,3.4025032E-2,6.3730913E-1,-4.5033198E-2,1E0,5.9771936E-2,-5.8207393E-2,2.9295772E-2,-6.0258545E-2,-1.1806629E-2,5.2683454E-2,1E0,6.952104E-2,4.729176E-2,1E0,4.9865175E-2,1.4442637E-2,1.4970957E-4,-8.996048E-4,3.6774214E-2],"split_indices":[12,12,6,21,11,21,0,0,15,22,0,5,12,12,4,0,0,19,0,12,0,23,0,0,0,0,0,0,23,11,0,4,0,0,0,0,0],"split_type":[0,0,0,0,0,0,0,0,0,0,0,0,0,0,0,0,0,0,0,0,0,0,0,0,0,0,0,0,0,0,0,0,0,0,0,0,0],"sum_hessian":[1.8198874E2,9.101428E1,9.097446E1,4.8847786E1,4.2166492E1,4.5527786E1,4.544667E1,1.5182927E1,3.366486E1,7.4685063E0,3.4697987E1,1.3486281E1,3.2041508E1,2.447095E1,9.193911E0,2.1157453E0,5.3527613E0,1.2326549E1,1.1597322E0,3.0354153E1,1.6873529E0,1.3117523E1,1.1353425E1,7.7184196E0,1.4754909E0,1.1307792E1,1.0187576E0,1.3938047E1,1.6416105E1,1.093163E1,2.185893E0,1.1773679E1,4.6424265E0,1.6735775E0,9.258053E0,1.0437363E1,1.3363167E0],"tree_param":{"num_deleted":"0","num_feature":"25","num_nodes":"37","size_leaf_vector":"1"}},{"base_weights":[1.783776E-2,-6.198878E-1,6.2927765E-1,-1.4302982E-1,-6.0325783E-2,4.9335673E-2,5.9480812E-2,-6.0870588E-2,3.0535185E-1,9.6539915E-1,-4.321654E-1,7.508294E-1,-8.955081E-1,5.3534504E-2,2.7479443E-1,-1.0876949E0,2.5541257E-2,3.7360644E-1,5.8714148E-2,-5.7436854E-2,2.4123078E-2,-1.3064109E-2,3.495282E-2,-5.8483154E-2,-7.315833E-3,-1.7095181E-1,4.5546677E-2,1.38551695E-2,4.048155E-2,2.2452485E-2,-4.9366582E-2,-1.3333912E-3,1.6398689E-2],"categories":[],"categories_nodes":[],"categories_segments":[],"categories_sizes":[],"default_left":[0,0,0,0,0,0,0,0,0,0,0,0,0,0,0,0,0,0,0,0,0,0,0,0,0,0,0,0,0,0,0,0,0],"id":20,"left_children":[1,3,5,7,-1,9,-1,-1,11,13,15,17,19,-1,21,23,25,27,-1,-1,-1,-1,-1,-1,-1,29,-1,-1,-1,31,-1,-1,-1],"loss_changes":[6.825751E1,2.3800282E1,2.8977608E1,2.3690483E1,0E0,2.024463E1,0E0,0E0,1.9370249E1,8.543968E-1,9.075533E0,3.7205744E0,4.013512E0,0E0,9.6389484E-1,7.873182E-1,3.4149296E0,4.16811E-1,0E0,0E0,0E0,0E0,0E0,0E0,0E0,2.575813E0,0E0,0E0,0E0,2.1965131E-1,0E0,0E0,0E0],"parents":[2147483647,0,0,1,1,2,2,3,3,5,5,8,8,9,9,10,10,11,11,12,12,14,14,15,15,16,16,17,17,25,25,29,29],"right_children":[2,4,6,8,-1,10,-1,-1,12,14,16,18,20,-1,22,24,26,28,-1,-1,-1,-1,-1,-1,-1,30,-1,-1,-1,32,-1,-1,-1],"split_conditions":[-6.315179E-2,-7.636127E-1,1E0,1E0,-6.0325783E-2,6.3730913E-1,5.9480812E-2,-6.0870588E-2,1E0,1.8699424E0,1E0,-1.1138432E0,1E0,5.3534504E-2,1E0,1E0,1E0,-5.705054E-1,5.8714148E-2,-5.7436854E-2,2.4123078E-2,-1.3064109E-2,3.495282E-2,-5.8483154E-2,-7.315833E-3,1.33777E0,4.5546677E-2,1.38551695E-2,4.048155E-2,1E0,-4.9366582E-2,-1.3333912E-3,1.6398689E-2],"split_indices":[12,12,6,21,0,12,0,0,13,10,21,12,4,0,4,13,4,10,0,0,0,0,0,0,0,12,0,0,0,22,0,0,0],"split_type":[0,0,0,0,0,0,0,0,0,0,0,0,0,0,0,0,0,0,0,0,0,0,0,0,0,0,0,0,0,0,0,0,0],"sum_hessian":[1.7304988E2,8.469747E1,8.835242E1,4.7405945E1,3.7291527E1,4.395141E1,4.440101E1,1.345378E1,3.3952164E1,1.4796278E1,2.9155132E1,2.5038502E1,8.913662E0,1.2361287E1,2.4349914E0,1.1421216E1,1.7733915E1,1.4237587E1,1.0800914E1,7.670426E0,1.2432361E0,1.2454503E0,1.189541E0,1.028332E1,1.1378961E0,1.517343E1,2.560485E0,1.2996633E1,1.2409548E0,1.3053493E1,2.1199377E0,1.2031791E1,1.0217022E0],"tree_param":{"num_deleted":"0","num_feature":"25","num_nodes":"33","size_leaf_vector":"1"}},{"base_weights":[-7.1967645E-3,-6.86643E-1,6.40738E-1,-2.4350299E-1,-1.1685683E0,-1.701994E-1,1.0485798E0,-6.017201E-2,2.0477486E-1,-6.9329494E-1,-6.1773606E-2,-5.8068424E-2,4.3908575E-1,-1.3483223E-1,1.1097479E0,6.6459364E-1,-8.762787E-1,-2.3775361E-1,-4.8338983E-2,5.4535896E-2,3.791074E-2,-3.6001444E-2,3.3128675E-2,8.3645374E-1,5.8777433E-2,2.064008E-1,5.7475217E-2,-5.70768E-2,3.5561454E-2,-3.464916E-2,9.761653E-3,-1.3177901E-2,4.8898213E-2,2.8385964E-1,5.6204308E-2,3.2327488E-2,4.2404246E-2,-3.9067885E-1,4.519186E-2,2.7334023E-2,-4.944302E-3,1.6903587E-2,-4.1988265E-2],"categories":[],"categories_nodes":[],"categories_segments":[],"categories_sizes":[],"default_left":[0,0,0,0,0,0,0,0,0,0,0,0,0,0,0,0,0,0,0,0,0,0,0,0,0,0,0,0,0,0,0,0,0,0,0,0,0,0,0,0,0,0,0],"id":21,"left_children":[1,3,5,7,9,11,13,-1,15,17,-1,-1,19,21,23,25,27,29,-1,-1,31,-1,-1,33,-1,35,-1,-1,-1,-1,-1,-1,-1,37,-1,39,-1,41,-1,-1,-1,-1,-1],"loss_changes":[7.56485E1,1.7627441E1,2.9270954E1,1.9592735E1,4.1265488E-1,1.8805624E1,4.3964157E0,0E0,1.6241234E1,6.676681E-1,0E0,0E0,5.0531473E0,2.2386541E0,2.1820068E-2,4.7994957E0,4.9520082E0,9.2938E-1,0E0,0E0,3.9696777E0,0E0,0E0,1.9558191E0,0E0,1.4106861E0,0E0,0E0,0E0,0E0,0E0,0E0,0E0,2.9615953E0,0E0,8.0772054E-1,0E0,1.4900529E0,0E0,0E0,0E0,0E0,0E0],"parents":[2147483647,0,0,1,1,2,2,3,3,4,4,5,5,6,6,8,8,9,9,12,12,13,13,14,14,15,15,16,16,17,17,20,20,23,23,25,25,33,33,35,35,37,37],"right_children":[2,4,6,8,10,12,14,-1,16,18,-1,-1,20,22,24,26,28,30,-1,-1,32,-1,-1,34,-1,36,-1,-1,-1,-1,-1,-1,-1,38,-1,40,-1,42,-1,-1,-1,-1,-1],"split_conditions":[-6.315179E-2,-7.636127E-1,1E0,1E0,-1.1014568E0,1E0,-1.5698478E0,-6.017201E-2,1E0,-5.705054E-1,-6.1773606E-2,-5.8068424E-2,6.3730913E-1,1E0,1E0,-1.1138432E0,1E0,1E0,-4.8338983E-2,5.4535896E-2,1E0,-3.6001444E-2,3.3128675E-2,1E0,5.8777433E-2,1E0,5.7475217E-2,-5.70768E-2,3.5561454E-2,-3.464916E-2,9.761653E-3,-1.3177901E-2,4.8898213E-2,1E0,5.6204308E-2,6.952104E-2,4.2404246E-2,2.8707865E-1,4.519186E-2,2.7334023E-2,-4.944302E-3,1.6903587E-2,-4.1988265E-2],"split_indices":[12,12,16,21,11,21,11,0,15,10,0,0,12,4,6,12,1,21,0,0,23,0,0,3,0,23,0,0,0,0,0,0,0,4,0,11,0,12,0,0,0,0,0],"split_type":[0,0,0,0,0,0,0,0,0,0,0,0,0,0,0,0,0,0,0,0,0,0,0,0,0,0,0,0,0,0,0,0,0,0,0,0,0,0,0,0,0,0,0],"sum_hessian":[1.6983653E2,8.2873184E1,8.6963356E1,4.3958096E1,3.891509E1,2.9295652E1,5.76677E1,1.3456949E1,3.0501144E1,6.2041864E0,3.2710903E1,1.0807758E1,1.8487894E1,2.775041E0,5.4892662E1,2.1669434E1,8.831711E0,3.0286825E0,3.1755037E0,6.389905E0,1.2097989E1,1.6564491E0,1.1185919E0,1.3312599E1,4.1580063E1,1.187468E1,9.794755E0,7.8079953E0,1.0237155E0,1.1837013E0,1.8449813E0,9.705225E0,2.3927643E0,5.2374296E0,8.07517E0,1.0166998E1,1.7076807E0,2.685473E0,2.551957E0,1.4229068E0,8.744092E0,1.1181719E0,1.567301E0],"tree_param":{"num_deleted":"0","num_feature":"25","num_nodes":"43","size_leaf_vector":"1"}},{"base_weights":[2.0094182E-2,-3.0984184E-1,9.658995E-1,-1.1423411E0,6.15051E-2,5.579169E-1,5.7109814E-2,-1.2105912E0,3.2284386E-2,2.621681E-1,-2.9684043E-1,-3.2049576E-3,4.4836443E-2,-6.1502513E-2,-2.0995416E-2,3.1802077E-2,5.6269623E-2,-6.631808E-1,7.5843614E-1,-3.799332E-1,3.2255758E-2,9.152627E-2,-7.979355E-3,-9.8739374E-1,3.023208E-1,1.378769E-1,4.794454E-2,2.1184996E-2,-3.5851683E-2,1.0981969E-1,-7.271384E-3,-5.8453836E-2,-2.84902E-1,-1.8774445E-1,3.26026E-2,-1.0312584E-2,2.2303976E-2,6.8013608E-3,8.465773E-2,-3.093339E-2,7.496569E-3,-2.2799982E-2,6.179591E-3,6.7343614E-3,1.1001664E-3],"categories":[],"categories_nodes":[],"categories_segments":[],"categories_sizes":[],"default_left":[0,0,0,0,0,0,0,0,0,0,0,0,0,0,0,0,0,0,0,0,0,0,0,0,0,0,0,0,0,0,0,0,0,0,0,0,0,0,0,0,0,0,0,0,0],"id":22,"left_children":[1,3,5,7,9,11,-1,13,-1,15,17,19,-1,-1,-1,21,-1,23,25,27,-1,29,-1,31,33,35,-1,-1,-1,37,-1,-1,39,41,-1,-1,-1,-1,43,-1,-1,-1,-1,-1,-1],"loss_changes":[5.293756E1,3.896533E1,2.5180054E0,5.52396E0,6.402289E0,2.8909745E0,0E0,6.476593E-2,0E0,1.1281733E1,1.288976E1,1.8853614E0,0E0,0E0,0E0,5.3987586E-1,0E0,7.910676E0,9.529109E-1,1.6249894E0,0E0,1.7054272E-1,0E0,2.0203285E0,1.3013659E0,4.4176954E-1,0E0,0E0,0E0,1.0689527E-2,0E0,0E0,8.3455247E-1,3.6044985E-1,0E0,0E0,0E0,0E0,5.9186637E-2,0E0,0E0,0E0,0E0,0E0,0E0],"parents":[2147483647,0,0,1,1,2,2,3,3,4,4,5,5,7,7,9,9,10,10,11,11,15,15,17,17,18,18,19,19,21,21,23,23,24,24,25,25,29,29,32,32,33,33,38,38],"right_children":[2,4,6,8,10,12,-1,14,-1,16,18,20,-1,-1,-1,22,-1,24,26,28,-1,30,-1,32,34,36,-1,-1,-1,38,-1,-1,40,42,-1,-1,-1,-1,44,-1,-1,-1,-1,-1,-1],"split_conditions":[1E0,1E0,1E0,1E0,1E0,1E0,5.7109814E-2,1E0,3.2284386E-2,1E0,1E0,1E0,4.4836443E-2,-6.1502513E-2,-2.0995416E-2,1E0,5.6269623E-2,1E0,1E0,2E0,3.2255758E-2,1E0,-7.979355E-3,1E0,1E0,1E0,4.794454E-2,2.1184996E-2,-3.5851683E-2,1E0,-7.271384E-3,-5.8453836E-2,1E0,1E0,3.26026E-2,-1.0312584E-2,2.2303976E-2,6.8013608E-3,1E0,-3.093339E-2,7.496569E-3,-2.2799982E-2,6.179591E-3,6.7343614E-3,1.1001664E-3],"split_indices":[5,21,3,3,15,6,0,6,0,23,8,1,0,0,0,9,0,1,6,24,0,14,0,3,6,23,0,0,0,22,0,0,2,0,0,0,0,0,24,0,0,0,0,0,0],"split_type":[0,0,0,0,0,0,0,0,0,0,0,0,0,0,0,0,0,0,0,0,0,0,0,0,0,0,0,0,0,0,0,0,0,0,0,0,0,0,0,0,0,0,0,0,0],"sum_hessian":[1.6768259E2,1.2481453E2,4.2868065E1,3.786073E1,8.69538E1,1.4191349E1,2.8676714E1,3.677977E1,1.080959E0,5.5912712E1,3.1041088E1,5.715761E0,8.475588E0,3.5354015E1,1.4257561E0,4.4953064E1,1.0959646E1,2.3317835E1,7.723254E0,3.8769193E0,1.8388418E0,3.4659218E1,1.0293847E1,1.7439142E1,5.878692E0,2.2977605E0,5.4254937E0,1.0697606E0,2.8071587E0,3.2673298E1,1.9859215E0,1.3327987E1,4.111156E0,2.641055E0,3.2376373E0,1.241895E0,1.0558656E0,1.3845941E1,1.8827354E1,2.0866969E0,2.024459E0,1.1690872E0,1.4719679E0,9.829122E0,8.998234E0],"tree_param":{"num_deleted":"0","num_feature":"25","num_nodes":"45","size_leaf_vector":"1"}},{"base_weights":[7.252957E-3,-6.3713676E-1,6.442584E-1,-1.7408632E-1,-5.8526337E-2,-2.9486316E-1,9.0652734E-1,-5.867475E-2,3.0378622E-1,-5.6387927E-2,7.64332E-1,6.27294E-1,5.7443418E-2,7.0833415E-1,-8.654814E-1,2.0677852E-2,5.078082E-2,5.1440533E-2,2.4818558E-1,2.9882747E-1,5.8031138E-2,-5.3965695E-2,1.8362476E-2,-1.8789371E-2,2.0661613E-2,-3.0387245E-2,7.611061E-1,1.6505785E-1,4.022881E-2,4.358839E-3,-1.9794395E-2,5.1196676E-2,2.989823E-3,1.8786361E-2,4.3936167E-3],"categories":[],"categories_nodes":[],"categories_segments":[],"categories_sizes":[],"default_left":[0,0,0,0,0,0,0,0,0,0,0,0,0,0,0,0,0,0,0,0,0,0,0,0,0,0,0,0,0,0,0,0,0,0,0],"id":23,"left_children":[1,3,5,7,-1,9,11,-1,13,-1,15,17,-1,19,21,23,-1,-1,25,27,-1,-1,-1,-1,-1,29,31,33,-1,-1,-1,-1,-1,-1,-1],"loss_changes":[6.854232E1,2.0299812E1,2.0948318E1,2.214045E1,0E0,1.7698488E1,3.737484E0,0E0,1.5585193E1,0E0,1.6602759E0,4.7394543E0,0E0,4.1105165E0,2.6596742E0,6.678087E-1,0E0,0E0,2.623013E0,8.127935E-1,0E0,0E0,0E0,0E0,0E0,5.825088E-1,1.1262717E0,1.6717613E-1,0E0,0E0,0E0,0E0,0E0,0E0,0E0],"parents":[2147483647,0,0,1,1,2,2,3,3,5,5,6,6,8,8,10,10,11,11,13,13,14,14,15,15,18,18,19,19,25,25,26,26,27,27],"right_children":[2,4,6,8,-1,10,12,-1,14,-1,16,18,-1,20,22,24,-1,-1,26,28,-1,-1,-1,-1,-1,30,32,34,-1,-1,-1,-1,-1,-1,-1],"split_conditions":[-6.315179E-2,-7.636127E-1,1E0,1E0,-5.8526337E-2,1E0,1E0,-5.867475E-2,1E0,-5.6387927E-2,1E0,6.3730913E-1,5.7443418E-2,1E0,1E0,1E0,5.078082E-2,5.1440533E-2,1E0,1E0,5.8031138E-2,-5.3965695E-2,1.8362476E-2,-1.8789371E-2,2.0661613E-2,1E0,9.875396E-1,6.952104E-2,4.022881E-2,4.358839E-3,-1.9794395E-2,5.1196676E-2,2.989823E-3,1.8786361E-2,4.3936167E-3],"split_indices":[12,12,21,21,0,13,6,0,13,0,6,12,0,22,8,24,0,0,23,23,0,0,0,0,0,13,12,11,0,0,0,0,0,0,0],"split_type":[0,0,0,0,0,0,0,0,0,0,0,0,0,0,0,0,0,0,0,0,0,0,0,0,0,0,0,0,0,0,0,0,0,0,0],"sum_hessian":[1.6498097E2,8.2015015E1,8.296596E1,4.4612263E1,3.7402752E1,1.8084713E1,6.488125E1,1.3960344E1,3.0651918E1,1.0087613E1,7.9971E0,3.1813334E1,3.3067913E1,2.3065746E1,7.5861735E0,2.2931156E0,5.7039843E0,1.4617775E1,1.7195559E1,1.2976967E1,1.00887785E1,6.5708337E0,1.0153399E0,1.1621251E0,1.1309905E0,1.1753084E1,5.4424744E0,1.1311468E1,1.6654996E0,9.468885E0,2.2841992E0,3.6242104E0,1.8182639E0,1.9959358E0,9.315532E0],"tree_param":{"num_deleted":"0","num_feature":"25","num_nodes":"35","size_leaf_vector":"1"}},{"base_weights":[-9.169738E-3,-6.42309E-1,6.4678144E-1,-2.212208E-1,-1.1246424E0,-3.768752E-2,9.945403E-1,-5.796221E-2,2.4913697E-1,-6.381112E-1,-5.9802502E-2,-5.521358E-2,5.9022135E-1,5.4980695E-1,5.719539E-2,6.5518415E-1,-7.655991E-1,-2.1703257E-1,-4.5791447E-2,5.1469784E-2,3.0864343E-1,7.413184E-1,-3.1490263E-2,2.024737E-1,5.600434E-2,-5.4022282E-2,2.8435824E-2,-3.5659477E-2,1.5412561E-2,4.668712E-3,4.5242354E-2,3.2588923E-1,5.206724E-2,3.6184605E-2,4.022382E-2,-1.22388594E-1,4.4159126E-2,5.805723E-3,5.691238E-4,-6.144354E-1,3.452749E-2,-6.3220463E-3,-3.894669E-2],"categories":[],"categories_nodes":[],"categories_segments":[],"categories_sizes":[],"default_left":[0,0,0,0,0,0,0,0,0,0,0,0,0,0,0,0,0,0,0,0,0,0,0,0,0,0,0,0,0,0,0,0,0,0,0,0,0,0,0,0,0,0,0],"id":24,"left_children":[1,3,5,7,9,11,13,-1,15,17,-1,-1,19,21,-1,23,25,27,-1,-1,29,31,-1,33,-1,-1,-1,-1,-1,-1,-1,35,-1,37,-1,39,-1,-1,-1,41,-1,-1,-1],"loss_changes":[6.4485085E1,1.5796852E1,1.819163E1,1.944759E1,5.075836E-1,1.8505344E1,2.7330246E0,0E0,1.2757257E1,5.993743E-1,0E0,0E0,1.8379025E0,3.776383E0,0E0,4.357724E0,4.379387E0,1.2683412E0,0E0,0E0,1.4620284E0,1.2887826E0,0E0,1.1978644E0,0E0,0E0,0E0,0E0,0E0,0E0,0E0,1.8402067E0,0E0,1.9793091E-2,0E0,2.3126416E0,0E0,0E0,0E0,1.800617E-1,0E0,0E0,0E0],"parents":[2147483647,0,0,1,1,2,2,3,3,4,4,5,5,6,6,8,8,9,9,12,12,13,13,15,15,16,16,17,17,20,20,21,21,23,23,31,31,33,33,35,35,39,39],"right_children":[2,4,6,8,10,12,14,-1,16,18,-1,-1,20,22,-1,24,26,28,-1,-1,30,32,-1,34,-1,-1,-1,-1,-1,-1,-1,36,-1,38,-1,40,-1,-1,-1,42,-1,-1,-1],"split_conditions":[-6.315179E-2,-7.636127E-1,1E0,1E0,-1.1014568E0,1E0,1E0,-5.796221E-2,1E0,1E0,-5.9802502E-2,-5.521358E-2,1E0,1.6880004E0,5.719539E-2,-1.1138432E0,1E0,1E0,-4.5791447E-2,5.1469784E-2,1E0,1E0,-3.1490263E-2,1E0,5.600434E-2,-5.4022282E-2,2.8435824E-2,-3.5659477E-2,1.5412561E-2,4.668712E-3,4.5242354E-2,1E0,5.206724E-2,6.952104E-2,4.022382E-2,1E0,4.4159126E-2,5.805723E-3,5.691238E-4,-2.993445E-1,3.452749E-2,-6.3220463E-3,-3.894669E-2],"split_indices":[12,12,14,21,11,21,6,0,13,14,0,0,9,12,0,12,2,21,0,0,23,5,0,23,0,0,0,0,0,0,0,1,0,11,0,3,0,0,0,10,0,0,0],"split_type":[0,0,0,0,0,0,0,0,0,0,0,0,0,0,0,0,0,0,0,0,0,0,0,0,0,0,0,0,0,0,0,0,0,0,0,0,0,0,0,0,0,0,0],"sum_hessian":[1.5327003E2,7.800175E1,7.526829E1,4.2423607E1,3.557814E1,2.5658371E1,4.960992E1,1.36791E1,2.8744505E1,5.82514E0,2.9753E1,9.226805E0,1.6431566E1,1.36496725E1,3.5960247E1,2.0782648E1,7.9618573E0,3.0230484E0,2.8020914E0,5.3818054E0,1.1049761E1,1.2062818E1,1.5868555E0,1.1256688E1,9.52596E0,6.595773E0,1.366084E0,1.3706645E0,1.6523839E0,8.968244E0,2.0815177E0,5.9333925E0,6.129425E0,9.650949E0,1.6057403E0,3.7208152E0,2.2125773E0,1.413625E0,8.237323E0,2.4699872E0,1.250828E0,1.0685915E0,1.4013957E0],"tree_param":{"num_deleted":"0","num_feature":"25","num_nodes":"43","size_leaf_vector":"1"}},{"base_weights":[2.8174285E-2,-2.398004E-1,1.0286486E0,-3.34848E-1,5.908244E-1,7.1845776E-1,5.5430193E-2,-2.0557968E-1,-6.6796905E-1,1.7977136E-1,4.240127E-2,2.5298998E-1,4.6946894E-2,-3.7374166E-1,5.4972243E-2,-9.831786E-1,6.184249E-3,-1.616227E-1,2.9175816E-2,-1.0207563E-2,3.0362565E-2,-2.6246235E-1,-5.7776976E-1,-1.1531686E0,-1.2493705E-1,-4.329363E-1,5.1792896E-1,-1.9545518E-2,7.503625E-3,-8.2695656E-2,-3.6208642E-1,-5.339992E-2,-1.3015416E-2,-5.9391268E-2,-1.7197916E-2,3.182613E-1,-3.4587946E-2,-7.0695853E-1,8.1254775E-3,7.455495E-2,4.006216E-2,1.4513256E-1,-2.0592558E-1,-4.080903E-1,7.067189E-2,-1.5706988E-3,2.4865549E-2,-4.1557025E-2,-1.19033195E-2,-8.868168E-3,1.483954E-2,1.7477341E-2,1.1742039E-3,-4.5722206E-3,-1.8082349E-2,-1.6649095E-2,-3.755241E-2,9.134607E-3,-3.7123885E-3],"categories":[],"categories_nodes":[],"categories_segments":[],"categories_sizes":[],"default_left":[0,0,0,0,0,0,0,0,0,0,0,0,0,0,0,0,0,0,0,0,0,0,0,0,0,0,0,0,0,0,0,0,0,0,0,0,0,0,0,0,0,0,0,0,0,0,0,0,0,0,0,0,0,0,0,0,0,0,0],"id":25,"left_children":[1,3,5,7,9,11,-1,13,15,17,-1,19,-1,21,-1,23,25,27,-1,-1,-1,29,31,33,35,37,39,-1,-1,41,43,-1,-1,-1,-1,45,-1,47,-1,49,-1,51,53,55,57,-1,-1,-1,-1,-1,-1,-1,-1,-1,-1,-1,-1,-1,-1],"loss_changes":[4.1706238E1,9.891368E0,1.8455505E-2,4.6345263E0,1.2186704E0,7.4515486E-1,0E0,1.8247887E1,6.4947596E0,9.572431E-1,0E0,8.4408784E-1,0E0,1.5000095E0,0E0,2.8923702E0,2.6336904E0,3.5706598E-1,0E0,0E0,0E0,8.4590435E-1,3.5880632E0,7.5222015E-2,1.3662877E0,1.1453162E0,6.194501E-1,0E0,0E0,5.558598E-1,6.494055E-1,0E0,0E0,0E0,0E0,2.1880695E-1,0E0,6.484771E-2,0E0,2.3238598E-1,0E0,1.6990672E-1,1.9104528E-1,4.7949362E-1,7.6025575E-2,0E0,0E0,0E0,0E0,0E0,0E0,0E0,0E0,0E0,0E0,0E0,0E0,0E0,0E0],"parents":[2147483647,0,0,1,1,2,2,3,3,4,4,5,5,7,7,8,8,9,9,11,11,13,13,15,15,16,16,17,17,21,21,22,22,23,23,24,24,25,25,26,26,29,29,30,30,35,35,37,37,39,39,41,41,42,42,43,43,44,44],"right_children":[2,4,6,8,10,12,-1,14,16,18,-1,20,-1,22,-1,24,26,28,-1,-1,-1,30,32,34,36,38,40,-1,-1,42,44,-1,-1,-1,-1,46,-1,48,-1,50,-1,52,54,56,58,-1,-1,-1,-1,-1,-1,-1,-1,-1,-1,-1,-1,-1,-1],"split_conditions":[1E0,1E0,1E0,1E0,1E0,1E0,5.5430193E-2,1E0,1E0,1E0,4.240127E-2,1E0,4.6946894E-2,1E0,5.4972243E-2,1E0,1E0,1E0,2.9175816E-2,-1.0207563E-2,3.0362565E-2,6.952104E-2,-5.705054E-1,1E0,7.8529894E-1,1E0,1E0,-1.9545518E-2,7.503625E-3,1E0,-5.705054E-1,-5.339992E-2,-1.3015416E-2,-5.9391268E-2,-1.7197916E-2,1E0,-3.4587946E-2,1E0,8.1254775E-3,1E0,4.006216E-2,-1.1014568E0,1E0,1.2404988E0,1E0,-1.5706988E-3,2.4865549E-2,-4.1557025E-2,-1.19033195E-2,-8.868168E-3,1.483954E-2,1.7477341E-2,1.1742039E-3,-4.5722206E-3,-1.8082349E-2,-1.6649095E-2,-3.755241E-2,9.134607E-3,-3.7123885E-3],"split_indices":[8,4,5,18,5,24,0,23,0,3,0,4,0,9,0,7,6,0,0,0,0,11,10,2,10,7,5,0,0,22,10,0,0,0,0,3,0,5,0,23,0,11,24,11,24,0,0,0,0,0,0,0,0,0,0,0,0,0,0],"split_type":[0,0,0,0,0,0,0,0,0,0,0,0,0,0,0,0,0,0,0,0,0,0,0,0,0,0,0,0,0,0,0,0,0,0,0,0,0,0,0,0,0,0,0,0,0,0,0,0,0,0,0,0,0,0,0,0,0,0,0],"sum_hessian":[1.5364114E2,1.2178234E2,3.1858799E1,1.0981338E2,1.1968967E1,8.5754795E0,2.328332E1,8.0278336E1,2.953504E1,5.260577E0,6.7083898E0,3.446607E0,5.128873E0,7.174684E1,8.531492E0,1.9812874E1,9.722168E0,3.1753185E0,2.0852587E0,1.689802E0,1.7568051E0,4.7905197E1,2.3841644E1,1.6250526E1,3.5623462E0,5.3152394E0,4.4069285E0,1.6830779E0,1.4922404E0,1.773441E1,3.0170788E1,8.441686E0,1.5399959E1,1.5134468E1,1.1160586E0,2.2452781E0,1.3170681E0,3.5118303E0,1.8034089E0,2.2105968E0,2.1963317E0,6.162818E0,1.1571592E1,2.7323227E1,2.8475623E0,1.0395803E0,1.2056979E0,2.1657016E0,1.3461287E0,1.1307427E0,1.079854E0,1.6003028E0,4.562515E0,7.583608E0,3.9879842E0,2.403125E1,3.2919767E0,1.4590776E0,1.3884846E0],"tree_param":{"num_deleted":"0","num_feature":"25","num_nodes":"59","size_leaf_vector":"1"}},{"base_weights":[-2.0645527E-2,-6.37793E-1,6.1460125E-1,-2.2406155E-1,-5.659008E-2,-1.143842E-1,1.0033234E0,-3.718136E-2,-9.2158955E-1,5.012081E-2,-4.0554646E-1,6.1874187E-1,5.6328773E-2,-2.4306463E-1,5.0351974E-2,-5.334381E-2,2.576695E-3,-5.0888586E-1,3.641832E-2,8.4865224E-1,-3.2813158E-2,4.4669133E-2,-3.694579E-1,-1.752813E-2,-4.7304753E-2,4.9560066E-2,4.667917E-1,-2.368902E-1,2.4246562E-1,-4.8908344E-1,-1.0596643E-1,-9.304274E-3,4.2730417E-2,-1.6368475E-2,-4.6308576E-3,2.1582035E-2,1.1205019E-1,-2.5887037E-2,-5.4596392E-3,-1.7650788E-1,8.985036E-3,1.4063323E-2,-5.908291E-3,-1.4449569E-2,-1.1973387E-3],"categories":[],"categories_nodes":[],"categories_segments":[],"categories_sizes":[],"default_left":[0,0,0,0,0,0,0,0,0,0,0,0,0,0,0,0,0,0,0,0,0,0,0,0,0,0,0,0,0,0,0,0,0,0,0,0,0,0,0,0,0,0,0,0,0],"id":26,"left_children":[1,3,5,7,-1,9,11,13,15,-1,17,19,-1,21,-1,-1,-1,23,-1,25,-1,27,29,-1,-1,-1,31,33,35,37,39,-1,-1,-1,-1,-1,41,-1,-1,43,-1,-1,-1,-1,-1],"loss_changes":[5.965765E1,1.5518766E1,2.1368572E1,5.602729E0,0E0,9.180456E0,1.6265259E0,7.801181E0,1.340929E0,0E0,2.962002E0,4.6947784E0,0E0,1.1135333E0,0E0,0E0,0E0,1.1120119E0,0E0,2.1203995E-1,0E0,6.198448E-1,6.1219263E-1,0E0,0E0,0E0,1.4907215E0,3.0677557E-2,1.1016813E-1,9.818721E-2,1.8999594E-1,0E0,0E0,0E0,0E0,0E0,2.3402604E-1,0E0,0E0,1.09831125E-1,0E0,0E0,0E0,0E0,0E0],"parents":[2147483647,0,0,1,1,2,2,3,3,5,5,6,6,7,7,8,8,10,10,11,11,13,13,17,17,19,19,21,21,22,22,26,26,27,27,28,28,29,29,30,30,36,36,39,39],"right_children":[2,4,6,8,-1,10,12,14,16,-1,18,20,-1,22,-1,-1,-1,24,-1,26,-1,28,30,-1,-1,-1,32,34,36,38,40,-1,-1,-1,-1,-1,42,-1,-1,44,-1,-1,-1,-1,-1],"split_conditions":[-6.315179E-2,-7.636127E-1,1E0,1E0,-5.659008E-2,1E0,1E0,1E0,1E0,5.012081E-2,1E0,1.6880004E0,5.6328773E-2,6.952104E-2,5.0351974E-2,-5.334381E-2,2.576695E-3,1E0,3.641832E-2,1.0063033E0,-3.2813158E-2,-8.672612E-1,1E0,-1.752813E-2,-4.7304753E-2,4.9560066E-2,1E0,-1.1138432E0,1E0,-1.1138432E0,1.4746944E0,-9.304274E-3,4.2730417E-2,-1.6368475E-2,-4.6308576E-3,2.1582035E-2,1E0,-2.5887037E-2,-5.4596392E-3,1E0,8.985036E-3,1.4063323E-2,-5.908291E-3,-1.4449569E-2,-1.1973387E-3],"split_indices":[12,12,14,15,0,9,6,23,3,0,23,12,0,11,0,0,0,22,0,11,0,11,22,0,0,0,5,12,22,12,11,0,0,0,0,0,24,0,0,24,0,0,0,0,0],"split_type":[0,0,0,0,0,0,0,0,0,0,0,0,0,0,0,0,0,0,0,0,0,0,0,0,0,0,0,0,0,0,0,0,0,0,0,0,0,0,0,0,0,0,0,0,0],"sum_hessian":[1.5017212E2,7.616914E1,7.400297E1,4.2243683E1,3.3925465E1,2.5982586E1,4.8020382E1,3.41481E1,8.095581E0,4.867952E0,2.1114634E1,1.3115723E1,3.490466E1,2.9165024E1,4.9830785E0,6.9601016E0,1.1354799E0,1.9856241E1,1.2583911E0,1.1395302E1,1.7204212E0,9.098626E0,2.0066397E1,1.590023E1,3.956012E0,7.1357865E0,4.259515E0,3.6728094E0,5.4258165E0,1.3211976E1,6.854422E0,1.7811595E0,2.4783552E0,1.4772631E0,2.1955462E0,1.27158E0,4.154237E0,1.1947817E1,1.2641587E0,5.8034606E0,1.0509616E0,2.26652E0,1.8877165E0,2.825758E0,2.9777026E0],"tree_param":{"num_deleted":"0","num_feature":"25","num_nodes":"45","size_leaf_vector":"1"}},{"base_weights":[-4.942998E-3,-5.5948794E-1,5.567929E-1,-1.5615852E-1,-1.0757082E0,5.7408966E-2,5.5773564E-2,-5.640011E-2,2.7249882E-1,-4.4612828E-1,-5.8030438E-2,4.5767378E-2,-3.636862E-1,6.817415E-1,-7.983274E-1,4.1694906E-2,-4.68982E-2,-9.9755675E-1,4.6492115E-2,3.271156E-1,5.4894645E-2,-5.2474227E-2,2.2835469E-2,-5.3579252E-2,-1.2415281E-2,1.7246054E-1,-3.8938135E-2,1.1448119E-2,3.694442E-2,3.5519704E-2,3.8935553E-2,8.551796E-3,-3.9964687E-2],"categories":[],"categories_nodes":[],"categories_segments":[],"categories_sizes":[],"default_left":[0,0,0,0,0,0,0,0,0,0,0,0,0,0,0,0,0,0,0,0,0,0,0,0,0,0,0,0,0,0,0,0,0],"id":27,"left_children":[1,3,5,7,9,11,-1,-1,13,15,-1,-1,17,19,21,-1,-1,23,25,27,-1,-1,-1,-1,-1,29,-1,-1,-1,31,-1,-1,-1],"loss_changes":[4.473328E1,1.487689E1,1.9840322E1,1.7693682E1,1.1672478E0,1.4323174E1,0E0,0E0,1.3588727E1,4.163164E0,0E0,0E0,6.9860787E0,2.898696E0,3.2188454E0,0E0,0E0,3.1801605E-1,1.9182334E0,3.7010884E-1,0E0,0E0,0E0,0E0,0E0,1.276308E0,0E0,0E0,0E0,1.7047311E0,0E0,0E0,0E0],"parents":[2147483647,0,0,1,1,2,2,3,3,4,4,5,5,8,8,9,9,12,12,13,13,14,14,17,17,18,18,19,19,25,25,29,29],"right_children":[2,4,6,8,10,12,-1,-1,14,16,-1,-1,18,20,22,-1,-1,24,26,28,-1,-1,-1,-1,-1,30,-1,-1,-1,32,-1,-1,-1],"split_conditions":[-6.315179E-2,-7.636127E-1,1E0,1E0,1E0,6.3730913E-1,5.5773564E-2,-5.640011E-2,1E0,-8.672612E-1,-5.8030438E-2,4.5767378E-2,1E0,-1.1138432E0,1E0,4.1694906E-2,-4.68982E-2,1E0,2.038231E0,1E0,5.4894645E-2,-5.2474227E-2,2.2835469E-2,-5.3579252E-2,-1.2415281E-2,1E0,-3.8938135E-2,1.1448119E-2,3.694442E-2,1E0,3.8935553E-2,8.551796E-3,-3.9964687E-2],"split_indices":[12,12,6,21,22,12,0,0,13,11,0,0,21,12,4,0,0,14,12,22,0,0,0,0,0,5,0,0,0,13,0,0,0],"split_type":[0,0,0,0,0,0,0,0,0,0,0,0,0,0,0,0,0,0,0,0,0,0,0,0,0,0,0,0,0,0,0,0,0],"sum_hessian":[1.4160239E2,7.12593E1,7.034309E1,4.073502E1,3.0524286E1,3.7724854E1,3.2618233E1,1.1968589E1,2.876643E1,4.3703914E0,2.6153894E1,1.2033694E1,2.569116E1,2.1075325E1,7.691105E0,1.0200863E0,3.3503048E0,9.530759E0,1.6160402E1,1.2343117E1,8.732208E0,6.545088E0,1.1460171E0,8.282241E0,1.2485182E0,1.4706583E1,1.4538186E0,1.1223775E1,1.1193419E0,1.2860273E1,1.8463099E0,1.1748282E1,1.1119909E0],"tree_param":{"num_deleted":"0","num_feature":"25","num_nodes":"33","size_leaf_vector":"1"}},{"base_weights":[-7.288664E-3,-5.6109226E-1,5.599555E-1,-1.4479779E-1,-1.0727912E0,-1.3953882E-1,9.483582E-1,-5.5948254E-2,3.0191717E-1,-5.815629E-1,-5.7484042E-2,-5.3245645E-2,3.5320982E-1,4.678792E-1,5.53991E-2,6.286907E-1,-7.269099E-1,-4.031418E-2,-1.4672128E-2,5.0061084E-2,1.252461E-2,7.1827024E-1,-4.0685788E-2,3.1576565E-1,5.4867554E-2,-5.030426E-2,2.3341728E-2,-1.1608246E-2,4.3304358E-2,2.765204E-1,5.118022E-2,1.7629008E-1,4.1208096E-2,-2.4218185E-1,4.134227E-2,3.763941E-3,3.3088285E-2,1.6634228E-3,-1.8352611E-2],"categories":[],"categories_nodes":[],"categories_segments":[],"categories_sizes":[],"default_left":[0,0,0,0,0,0,0,0,0,0,0,0,0,0,0,0,0,0,0,0,0,0,0,0,0,0,0,0,0,0,0,0,0,0,0,0,0,0,0],"id":28,"left_children":[1,3,5,7,9,11,13,-1,15,17,-1,-1,19,21,-1,23,25,-1,-1,-1,27,29,-1,31,-1,-1,-1,-1,-1,33,-1,35,-1,37,-1,-1,-1,-1,-1],"loss_changes":[4.5419586E1,1.5427244E1,1.9539154E1,1.8394175E1,5.6495285E-1,1.2402173E1,3.0139847E0,0E0,1.0285559E1,1.80619E-1,0E0,0E0,3.9526808E0,4.825572E0,0E0,2.9860764E0,2.9728067E0,0E0,0E0,0E0,2.871256E0,1.2798672E0,0E0,9.2045915E-1,0E0,0E0,0E0,0E0,0E0,1.9432033E0,0E0,5.909351E-1,0E0,1.4692879E-1,0E0,0E0,0E0,0E0,0E0],"parents":[2147483647,0,0,1,1,2,2,3,3,4,4,5,5,6,6,8,8,9,9,12,12,13,13,15,15,16,16,20,20,21,21,23,23,29,29,31,31,33,33],"right_children":[2,4,6,8,10,12,14,-1,16,18,-1,-1,20,22,-1,24,26,-1,-1,-1,28,30,-1,32,-1,-1,-1,-1,-1,34,-1,36,-1,38,-1,-1,-1,-1,-1],"split_conditions":[-6.315179E-2,-7.636127E-1,1E0,1E0,1E0,1E0,1E0,-5.5948254E-2,1E0,1E0,-5.7484042E-2,-5.3245645E-2,6.3730913E-1,2.038231E0,5.53991E-2,1E0,1E0,-4.031418E-2,-1.4672128E-2,5.0061084E-2,1E0,1E0,-4.0685788E-2,1E0,5.4867554E-2,-5.030426E-2,2.3341728E-2,-1.1608246E-2,4.3304358E-2,1E0,5.118022E-2,-1.1138432E0,4.1208096E-2,2.8707865E-1,4.134227E-2,3.763941E-3,3.3088285E-2,1.6634228E-3,-1.8352611E-2],"split_indices":[12,12,13,21,22,21,6,0,13,21,0,0,12,12,0,22,2,0,0,0,23,7,0,23,0,0,0,0,0,3,0,12,0,12,0,0,0,0,0],"split_type":[0,0,0,0,0,0,0,0,0,0,0,0,0,0,0,0,0,0,0,0,0,0,0,0,0,0,0,0,0,0,0,0,0,0,0,0,0,0,0],"sum_hessian":[1.425829E2,7.215167E1,7.043123E1,4.049213E1,3.165954E1,2.5374224E1,4.5057007E1,1.2257308E1,2.8234823E1,5.4438415E0,2.6215698E1,8.413199E0,1.6961023E1,1.2216285E1,3.284072E1,2.1723866E1,6.5109572E0,2.048038E0,3.3958032E0,5.1763415E0,1.1784682E1,1.05873375E1,1.6289467E0,1.4029868E1,7.6939974E0,5.404285E0,1.106672E0,9.724873E0,2.0598102E0,5.1058917E0,5.481446E0,1.2066305E1,1.9635638E0,2.9167104E0,2.1891813E0,1.0944237E1,1.1220682E0,1.1386188E0,1.7780917E0],"tree_param":{"num_deleted":"0","num_feature":"25","num_nodes":"39","size_leaf_vector":"1"}},{"base_weights":[2.2353286E-2,-5.007745E-1,5.688615E-1,-4.786914E-2,-1.060736E0,1.5427925E-1,5.498857E-2,-5.446847E-2,3.3224717E-1,-5.5286163E-1,-5.7028532E-2,-8.601228E-1,5.015712E-1,6.422644E-1,-6.7538005E-1,1.2276149E-2,-4.6258166E-2,-5.2165534E-2,-2.6848482E-3,8.9581203E-1,1.5659206E-1,2.9282042E-1,5.507089E-2,-5.01871E-2,2.64307E-2,5.0699275E-2,2.530254E-1,-4.7595662E-1,3.5804793E-1,1.3238335E-1,4.2350434E-2,-9.572825E-3,3.165902E-2,7.0796185E-3,-3.6524814E-2,5.021765E-2,4.7971673E-2,3.5550766E-2,-2.5266341E-3,-4.005004E-3,2.9790953E-2],"categories":[],"categories_nodes":[],"categories_segments":[],"categories_sizes":[],"default_left":[0,0,0,0,0,0,0,0,0,0,0,0,0,0,0,0,0,0,0,0,0,0,0,0,0,0,0,0,0,0,0,0,0,0,0,0,0,0,0,0,0],"id":29,"left_children":[1,3,5,7,9,11,-1,-1,13,15,-1,17,19,21,23,-1,-1,-1,-1,25,27,29,-1,-1,-1,-1,31,33,35,37,-1,-1,-1,-1,-1,39,-1,-1,-1,-1,-1],"loss_changes":[3.968747E1,1.794267E1,1.4769609E1,1.6305075E1,6.538315E-1,1.4267787E1,0E0,0E0,9.889529E0,2.0830703E0,0E0,1.4781599E0,3.9248934E0,3.4737701E0,3.5389247E0,0E0,0E0,0E0,0E0,7.8691673E-1,2.356197E0,1.2035502E0,0E0,0E0,0E0,0E0,7.0685416E-1,8.2220185E-1,2.465835E0,1.375944E0,0E0,0E0,0E0,0E0,0E0,7.614122E-1,0E0,0E0,0E0,0E0,0E0],"parents":[2147483647,0,0,1,1,2,2,3,3,4,4,5,5,8,8,9,9,11,11,12,12,13,13,14,14,19,19,20,20,21,21,26,26,27,27,28,28,29,29,35,35],"right_children":[2,4,6,8,10,12,-1,-1,14,16,-1,18,20,22,24,-1,-1,-1,-1,26,28,30,-1,-1,-1,-1,32,34,36,38,-1,-1,-1,-1,-1,40,-1,-1,-1,-1,-1],"split_conditions":[-6.315179E-2,-7.636127E-1,1E0,1E0,-1.1014568E0,1E0,5.498857E-2,-5.446847E-2,1E0,1E0,-5.7028532E-2,1E0,6.3730913E-1,1E0,1E0,1.2276149E-2,-4.6258166E-2,-5.2165534E-2,-2.6848482E-3,1.8699424E0,1E0,1E0,5.507089E-2,-5.01871E-2,2.64307E-2,5.0699275E-2,1E0,2.8330612E-1,1E0,6.952104E-2,4.2350434E-2,-9.572825E-3,3.165902E-2,7.0796185E-3,-3.6524814E-2,1E0,4.7971673E-2,3.5550766E-2,-2.5266341E-3,-4.005004E-3,2.9790953E-2],"split_indices":[12,12,5,21,11,21,0,0,13,22,0,13,12,22,2,0,0,0,0,10,9,23,0,0,0,0,3,19,23,11,0,0,0,0,0,13,0,0,0,0,0],"split_type":[0,0,0,0,0,0,0,0,0,0,0,0,0,0,0,0,0,0,0,0,0,0,0,0,0,0,0,0,0,0,0,0,0,0,0,0,0,0,0,0,0],"sum_hessian":[1.3682259E2,6.99494E1,6.6873184E1,3.92715E1,3.0677902E1,3.827512E1,2.8598064E1,1.0001631E1,2.9269869E1,5.2438493E0,2.5434053E1,9.385228E0,2.8889893E1,2.2660498E1,6.6093707E0,1.7759435E0,3.467906E0,7.4085536E0,1.9766746E0,1.2737177E1,1.6152716E1,1.3797495E1,8.863003E0,5.32376E0,1.2856109E0,1.0271351E1,2.4658265E0,3.572593E0,1.2580122E1,1.1660629E1,2.1368654E0,1.3655642E0,1.1002624E0,1.1722592E0,2.4003336E0,9.037575E0,3.542547E0,2.1073089E0,9.553321E0,7.9838176E0,1.0537575E0],"tree_param":{"num_deleted":"0","num_feature":"25","num_nodes":"41","size_leaf_vector":"1"}},{"base_weights":[-1.8147226E-2,-6.1678743E-1,5.774157E-1,-2.1463509E-1,-5.397256E-2,1.23805046E-1,5.464474E-2,-5.4271687E-2,1.731978E-1,-8.311501E-1,4.897364E-1,4.9455526E-1,-4.3758947E-2,-5.096964E-2,1.3507964E-2,4.574309E-2,1.5518698E-1,8.272174E-2,5.3761523E-2,2.8496832E-1,-3.7026532E-2,-3.6804833E-2,3.4111623E-2,1.6484302E-1,3.7768323E-2,1.3811472E-2,-5.893932E-3,1.0482219E-2,-8.571732E-3],"categories":[],"categories_nodes":[],"categories_segments":[],"categories_sizes":[],"default_left":[0,0,0,0,0,0,0,0,0,0,0,0,0,0,0,0,0,0,0,0,0,0,0,0,0,0,0,0,0],"id":30,"left_children":[1,3,5,7,-1,9,-1,-1,11,13,15,17,-1,-1,-1,-1,19,21,-1,23,-1,25,-1,27,-1,-1,-1,-1,-1],"loss_changes":[4.795109E1,1.2245468E1,1.5633116E1,1.2725659E1,0E0,1.3336117E1,0E0,0E0,9.376615E0,2.477201E0,3.7518616E0,4.9229093E0,0E0,0E0,0E0,0E0,2.1320593E0,9.813647E-1,0E0,7.3190606E-1,0E0,3.390191E-1,0E0,2.371003E-1,0E0,0E0,0E0,0E0,0E0],"parents":[2147483647,0,0,1,1,2,2,3,3,5,5,8,8,9,9,10,10,11,11,16,16,17,17,19,19,21,21,23,23],"right_children":[2,4,6,8,-1,10,-1,-1,12,14,16,18,-1,-1,-1,-1,20,22,-1,24,-1,26,-1,28,-1,-1,-1,-1,-1],"split_conditions":[-6.315179E-2,-7.636127E-1,1E0,1E0,-5.397256E-2,1E0,5.464474E-2,-5.4271687E-2,1E0,2.8330612E-1,6.3730913E-1,1E0,-4.3758947E-2,-5.096964E-2,1.3507964E-2,4.574309E-2,2.038231E0,-1.1138432E0,5.3761523E-2,1E0,-3.7026532E-2,6.952104E-2,3.4111623E-2,1E0,3.7768323E-2,1.3811472E-2,-5.893932E-3,1.0482219E-2,-8.571732E-3],"split_indices":[12,12,6,21,0,21,0,0,13,19,12,22,0,0,0,0,12,12,0,3,0,11,0,22,0,0,0,0,0],"split_type":[0,0,0,0,0,0,0,0,0,0,0,0,0,0,0,0,0,0,0,0,0,0,0,0,0,0,0,0,0],"sum_hessian":[1.3249571E2,6.605937E1,6.643634E1,3.6123955E1,2.993542E1,3.5998554E1,3.043779E1,1.057693E1,2.5547026E1,9.6206455E0,2.6377909E1,1.995769E1,5.589337E0,8.279793E0,1.3408525E0,1.085254E1,1.5525368E1,1.2344811E1,7.6128783E0,1.4156128E1,1.3692396E0,1.1075298E1,1.269513E0,1.235219E1,1.8039385E0,1.7831678E0,9.29213E0,1.1232313E1,1.1198769E0],"tree_param":{"num_deleted":"0","num_feature":"25","num_nodes":"29","size_leaf_vector":"1"}},{"base_weights":[2.1565203E-2,-5.312776E-1,5.8123916E-1,-1.0582608E-1,-5.3236973E-2,1.382735E-1,5.41944E-2,-5.4215707E-2,3.7807515E-1,-7.937165E-1,4.6595314E-1,6.897036E-1,-6.9532746E-1,-4.9782168E-2,1.975405E-2,8.411908E-1,1.4442231E-1,3.6447406E-1,5.2533865E-2,-4.716852E-2,1.3272512E-2,5.4765016E-1,4.998189E-2,-2.0101678E-3,3.8884725E-2,1.0548463E-2,4.0016767E-2,4.1314717E-2,1.8491463E-1,1.8106636E-1,-4.168555E-2,-1.2632586E-2,3.2752495E-2,2.6099894E-3,3.5332203E-2],"categories":[],"categories_nodes":[],"categories_segments":[],"categories_sizes":[],"default_left":[0,0,0,0,0,0,0,0,0,0,0,0,0,0,0,0,0,0,0,0,0,0,0,0,0,0,0,0,0,0,0,0,0,0,0],"id":31,"left_children":[1,3,5,7,-1,9,-1,-1,11,13,15,17,19,-1,-1,21,23,25,-1,-1,-1,27,-1,29,-1,-1,-1,-1,31,33,-1,-1,-1,-1,-1],"loss_changes":[3.9937252E1,1.46294365E1,1.4127445E1,1.8045404E1,0E0,1.1129227E1,0E0,0E0,9.063763E0,2.6821504E0,3.0994625E0,2.0108938E0,1.7451179E0,0E0,0E0,1.5890121E-2,1.4467318E0,6.5126383E-1,0E0,0E0,0E0,4.9990475E-1,0E0,2.2301362E0,0E0,0E0,0E0,0E0,1.0076549E0,7.767514E-1,0E0,0E0,0E0,0E0,0E0],"parents":[2147483647,0,0,1,1,2,2,3,3,5,5,8,8,9,9,10,10,11,11,12,12,15,15,16,16,17,17,21,21,23,23,28,28,29,29],"right_children":[2,4,6,8,-1,10,-1,-1,12,14,16,18,20,-1,-1,22,24,26,-1,-1,-1,28,-1,30,-1,-1,-1,-1,32,34,-1,-1,-1,-1,-1],"split_conditions":[-6.315179E-2,-7.636127E-1,1E0,1E0,-5.3236973E-2,1E0,5.41944E-2,-5.4215707E-2,1E0,2.8330612E-1,6.3730913E-1,-1.1138432E0,1E0,-4.9782168E-2,1.975405E-2,1E0,1E0,1E0,5.2533865E-2,-4.716852E-2,1.3272512E-2,1E0,4.998189E-2,1E0,3.8884725E-2,1.0548463E-2,4.0016767E-2,4.1314717E-2,1E0,1E0,-4.168555E-2,-1.2632586E-2,3.2752495E-2,2.6099894E-3,3.5332203E-2],"split_indices":[12,12,6,21,0,21,0,0,13,19,12,12,6,0,0,24,5,23,0,0,0,13,0,13,0,0,0,0,8,23,0,0,0,0,0],"split_type":[0,0,0,0,0,0,0,0,0,0,0,0,0,0,0,0,0,0,0,0,0,0,0,0,0,0,0,0,0,0,0,0,0,0,0],"sum_hessian":[1.2707678E2,6.395406E1,6.3122723E1,3.624555E1,2.7708511E1,3.4231163E1,2.8891558E1,1.1582998E1,2.4662548E1,8.534634E0,2.5696531E1,1.9390572E1,5.271977E0,7.434331E0,1.1003029E0,1.1112109E1,1.4584422E1,1.1257502E1,8.13307E0,4.204599E0,1.0673784E0,5.4576216E0,5.6544876E0,1.265501E1,1.9294114E0,9.422903E0,1.8345984E0,2.3638325E0,3.0937889E0,1.1013073E1,1.6419375E0,1.8419962E0,1.2517928E0,9.727342E0,1.2857314E0],"tree_param":{"num_deleted":"0","num_feature":"25","num_nodes":"35","size_leaf_vector":"1"}},{"base_weights":[1.7551709E-2,-5.533164E-1,5.933737E-1,-1.5957688E-1,-1.0520416E0,-2.813543E-1,8.30425E-1,-5.3019285E-2,2.0506962E-1,-5.958275E-1,-5.544111E-2,-8.757058E-1,4.54584E-2,5.5864185E-1,5.3482305E-2,5.3136235E-1,-7.599143E-1,1.4971412E-3,-4.2759918E-2,-5.144033E-2,2.208892E-3,6.118242E-1,-9.003188E-3,1.6317746E-1,5.245164E-2,-4.9146704E-2,1.223104E-2,4.3206427E-1,4.6401925E-2,4.8768967E-2,3.463433E-2,5.13693E-1,-2.2075748E-2,1.929673E-2,-3.2534197E-3,4.991408E-2,9.702982E-3],"categories":[],"categories_nodes":[],"categories_segments":[],"categories_sizes":[],"default_left":[0,0,0,0,0,0,0,0,0,0,0,0,0,0,0,0,0,0,0,0,0,0,0,0,0,0,0,0,0,0,0,0,0,0,0,0,0],"id":32,"left_children":[1,3,5,7,9,11,13,-1,15,17,-1,19,-1,21,-1,23,25,-1,-1,-1,-1,27,-1,29,-1,-1,-1,31,-1,33,-1,35,-1,-1,-1,-1,-1],"loss_changes":[4.1857563E1,1.2391565E1,1.3375423E1,1.23448515E1,6.564903E-2,1.0886569E1,2.660923E0,0E0,8.94279E0,8.801371E-1,0E0,1.4567666E0,0E0,1.1141376E0,0E0,3.8037648E0,1.8678751E0,0E0,0E0,0E0,0E0,9.670267E-1,0E0,7.762597E-1,0E0,0E0,0E0,1.4543886E0,0E0,4.8843443E-1,0E0,2.3164425E0,0E0,0E0,0E0,0E0,0E0],"parents":[2147483647,0,0,1,1,2,2,3,3,4,4,5,5,6,6,8,8,9,9,11,11,13,13,15,15,16,16,21,21,23,23,27,27,29,29,31,31],"right_children":[2,4,6,8,10,12,14,-1,16,18,-1,20,-1,22,-1,24,26,-1,-1,-1,-1,28,-1,30,-1,-1,-1,32,-1,34,-1,36,-1,-1,-1,-1,-1],"split_conditions":[-6.315179E-2,-7.636127E-1,1E0,1E0,-1.1014568E0,1E0,1E0,-5.3019285E-2,1E0,1E0,-5.544111E-2,-2.818365E-2,4.54584E-2,1.33777E0,5.3482305E-2,1E0,1E0,1.4971412E-3,-4.2759918E-2,-5.144033E-2,2.208892E-3,1E0,-9.003188E-3,1E0,5.245164E-2,-4.9146704E-2,1.223104E-2,1.8699424E0,4.6401925E-2,6.952104E-2,3.463433E-2,6.3730913E-1,-2.2075748E-2,1.929673E-2,-3.2534197E-3,4.991408E-2,9.702982E-3],"split_indices":[12,12,21,21,11,6,6,0,13,22,0,10,0,12,0,22,5,0,0,0,0,23,0,23,0,0,0,10,0,11,0,12,0,0,0,0,0],"split_type":[0,0,0,0,0,0,0,0,0,0,0,0,0,0,0,0,0,0,0,0,0,0,0,0,0,0,0,0,0,0,0,0,0,0,0,0,0],"sum_hessian":[1.2533682E2,6.2958775E1,6.2378048E1,3.5920113E1,2.7038664E1,1.3260271E1,4.9117775E1,9.800745E0,2.6119368E1,4.2649136E0,2.277375E1,9.021067E0,4.2392044E0,2.4555313E1,2.4562462E1,1.9855072E1,6.2642956E0,1.5089368E0,2.7559767E0,7.6323643E0,1.3887022E0,2.306643E1,1.4888834E0,1.2371355E1,7.4837165E0,5.1438074E0,1.1204884E0,1.6214981E1,6.8514485E0,1.1071329E1,1.3000267E0,1.5206068E1,1.008913E0,2.191191E0,8.880138E0,5.199706E0,1.0006362E1],"tree_param":{"num_deleted":"0","num_feature":"25","num_nodes":"37","size_leaf_vector":"1"}},{"base_weights":[-1.8256057E-2,-5.2497864E-1,5.2227503E-1,-1.05279386E-1,-1.0467027E0,6.951385E-2,5.343015E-2,-5.2633386E-2,2.7364528E-1,-5.936237E-1,-5.512463E-2,8.8750035E-1,-3.1241596E-1,5.864867E-1,-6.8161064E-1,9.941285E-3,-4.3758124E-2,4.891268E-2,1.4199175E-2,-5.5604726E-1,6.537835E-1,2.8154337E-1,5.113336E-2,-4.829289E-2,2.0853084E-2,-4.758845E-2,-2.0765324E-1,1.7696262E-3,4.4778038E-2,1.4186835E-1,3.918546E-2,-3.219785E-2,-3.916361E-3,2.7575169E-2,1.3489852E-3],"categories":[],"categories_nodes":[],"categories_segments":[],"categories_sizes":[],"default_left":[0,0,0,0,0,0,0,0,0,0,0,0,0,0,0,0,0,0,0,0,0,0,0,0,0,0,0,0,0,0,0,0,0,0,0],"id":33,"left_children":[1,3,5,7,9,11,-1,-1,13,15,-1,17,19,21,23,-1,-1,-1,-1,25,27,29,-1,-1,-1,-1,31,-1,-1,33,-1,-1,-1,-1,-1],"loss_changes":[3.4433697E1,1.4094118E1,1.4976343E1,1.3592787E1,7.3719025E-2,1.1006094E1,0E0,0E0,8.548303E0,1.3620207E0,0E0,3.3514786E-1,6.048477E0,2.5156183E0,2.647995E0,0E0,0E0,0E0,0E0,2.5359297E0,7.64153E-1,8.5569024E-1,0E0,0E0,0E0,0E0,6.167E-1,0E0,0E0,5.5015767E-1,0E0,0E0,0E0,0E0,0E0],"parents":[2147483647,0,0,1,1,2,2,3,3,4,4,5,5,8,8,9,9,11,11,12,12,13,13,14,14,19,19,20,20,21,21,26,26,29,29],"right_children":[2,4,6,8,10,12,-1,-1,14,16,-1,18,20,22,24,-1,-1,-1,-1,26,28,30,-1,-1,-1,-1,32,-1,-1,34,-1,-1,-1,-1,-1],"split_conditions":[-6.315179E-2,-7.636127E-1,1E0,1E0,-1.1014568E0,6.3730913E-1,5.343015E-2,-5.2633386E-2,1E0,1E0,-5.512463E-2,1.8699424E0,1E0,-1.1138432E0,1E0,9.941285E-3,-4.3758124E-2,4.891268E-2,1.4199175E-2,1E0,1E0,1E0,5.113336E-2,-4.829289E-2,2.0853084E-2,-4.758845E-2,1E0,1.7696262E-3,4.4778038E-2,6.952104E-2,3.918546E-2,-3.219785E-2,-3.916361E-3,2.7575169E-2,1.3489852E-3],"split_indices":[12,12,6,21,11,12,0,0,13,22,0,10,23,12,5,0,0,0,0,21,9,23,0,0,0,0,9,0,0,11,0,0,0,0,0],"split_type":[0,0,0,0,0,0,0,0,0,0,0,0,0,0,0,0,0,0,0,0,0,0,0,0,0,0,0,0,0,0,0,0,0,0,0],"sum_hessian":[1.2371558E2,6.38696E1,5.9845985E1,3.6061684E1,2.7807915E1,3.3341747E1,2.6504238E1,9.794762E0,2.6266924E1,4.324912E0,2.3483002E1,1.0191241E1,2.3150507E1,2.007764E1,6.189283E0,1.2107617E0,3.1141505E0,8.319312E0,1.8719295E0,1.8827559E1,4.322948E0,1.2784906E1,7.292735E0,5.013169E0,1.1761143E0,8.004177E0,1.0823381E1,1.5373276E0,2.7856205E0,1.100612E1,1.7787864E0,1.564829E0,9.258553E0,1.5783149E0,9.427805E0],"tree_param":{"num_deleted":"0","num_feature":"25","num_nodes":"35","size_leaf_vector":"1"}},{"base_weights":[1.6208196E-3,-5.1557493E-1,5.0871974E-1,-1.398927E-1,-1.0245056E0,6.4245366E-2,5.3126015E-2,-5.187143E-2,2.100193E-1,-5.611322E-1,-5.4316025E-2,-7.9845566E-1,3.7103406E-1,4.8299256E-1,-7.0626616E-1,-1.2527289E-2,-3.6486905E-2,-4.8633702E-2,1.1122619E-2,7.932195E-1,5.673148E-2,1.3653556E-1,5.061951E-2,-4.7370184E-2,1.3539034E-2,4.698239E-2,2.585545E-3,-1.0138049E-1,3.8680937E-2,-2.803233E-3,8.0641685E-3,6.3561797E-3,-4.6043422E-2],"categories":[],"categories_nodes":[],"categories_segments":[],"categories_sizes":[],"default_left":[0,0,0,0,0,0,0,0,0,0,0,0,0,0,0,0,0,0,0,0,0,0,0,0,0,0,0,0,0,0,0,0,0],"id":34,"left_children":[1,3,5,7,9,11,-1,-1,13,15,-1,17,19,21,23,-1,-1,-1,-1,25,27,29,-1,-1,-1,-1,-1,31,-1,-1,-1,-1,-1],"loss_changes":[3.1245777E1,1.1133903E1,1.4738572E1,1.1238702E1,1.0338783E-1,9.410074E0,0E0,0E0,6.8642826E0,7.890129E-2,0E0,1.8794627E0,3.4162621E0,3.656168E0,1.7625868E0,0E0,0E0,0E0,0E0,1.1517138E0,1.8953805E0,7.415292E-2,0E0,0E0,0E0,0E0,0E0,2.7418995E0,0E0,0E0,0E0,0E0,0E0],"parents":[2147483647,0,0,1,1,2,2,3,3,4,4,5,5,8,8,9,9,11,11,12,12,13,13,14,14,19,19,20,20,21,21,27,27],"right_children":[2,4,6,8,10,12,-1,-1,14,16,-1,18,20,22,24,-1,-1,-1,-1,26,28,30,-1,-1,-1,-1,-1,32,-1,-1,-1,-1,-1],"split_conditions":[-6.315179E-2,-7.636127E-1,1E0,1E0,-1.1014568E0,1E0,5.3126015E-2,-5.187143E-2,1E0,-5.705054E-1,-5.4316025E-2,2.8330612E-1,6.3730913E-1,-1.1138432E0,1E0,-1.2527289E-2,-3.6486905E-2,-4.8633702E-2,1.1122619E-2,1.8699424E0,1E0,-8.672612E-1,5.061951E-2,-4.7370184E-2,1.3539034E-2,4.698239E-2,2.585545E-3,1E0,3.8680937E-2,-2.803233E-3,8.0641685E-3,6.3561797E-3,-4.6043422E-2],"split_indices":[12,12,6,21,11,21,0,0,13,10,0,19,12,12,3,0,0,0,0,10,5,11,0,0,0,0,0,13,0,0,0,0,0],"split_type":[0,0,0,0,0,0,0,0,0,0,0,0,0,0,0,0,0,0,0,0,0,0,0,0,0,0,0,0,0,0,0,0,0],"sum_hessian":[1.1713613E2,5.7982464E1,5.9153667E1,3.409161E1,2.3890856E1,3.343506E1,2.571861E1,9.011636E0,2.5079975E1,3.9981036E0,1.9892752E1,8.350506E0,2.5084553E1,1.9687649E1,5.392325E0,2.281454E0,1.7166497E0,7.173578E0,1.1769276E0,1.0054776E1,1.5029776E1,1.2660237E1,7.027412E0,4.3492575E0,1.0430673E0,8.173513E0,1.881263E0,1.301734E1,2.0124366E0,1.2974416E0,1.1362796E1,1.0839698E1,2.1776416E0],"tree_param":{"num_deleted":"0","num_feature":"25","num_nodes":"33","size_leaf_vector":"1"}},{"base_weights":[8.7404745E-3,-2.3946288E-1,9.7275394E-1,-9.334636E-1,2.19093E-2,3.1012276E-3,5.283419E-2,-5.261637E-2,3.328992E-2,-2.4788499E-1,4.229872E-1,2.2682792E-1,-9.144492E-1,2.3255548E-1,4.754787E-2,5.0078243E-1,-4.6037897E-2,-1.5019968E-1,-5.3014364E-2,4.094716E-1,-2.81584E-1,1.9256558E-1,5.0096896E-2,2.009258E-2,-3.3640463E-2,4.6025123E-2,8.808194E-3,-4.540311E-2,3.7683066E-2,4.630958E-3,3.546202E-2],"categories":[],"categories_nodes":[],"categories_segments":[],"categories_sizes":[],"default_left":[0,0,0,0,0,0,0,0,0,0,0,0,0,0,0,0,0,0,0,0,0,0,0,0,0,0,0,0,0,0,0],"id":35,"left_children":[1,3,5,7,9,-1,-1,-1,-1,11,13,15,17,19,-1,21,-1,23,-1,25,27,29,-1,-1,-1,-1,-1,-1,-1,-1,-1],"loss_changes":[2.8165882E1,1.700624E1,1.7766457E0,5.5749207E0,7.5712085E0,0E0,0E0,0E0,0E0,1.3459898E1,2.6059017E0,8.403216E0,1.8045416E0,2.1153474E0,0E0,3.0572343E0,0E0,1.4210738E0,0E0,1.8368781E0,4.7195253E0,6.71037E-1,0E0,0E0,0E0,0E0,0E0,0E0,0E0,0E0,0E0],"parents":[2147483647,0,0,1,1,2,2,3,3,4,4,9,9,10,10,11,11,12,12,13,13,15,15,17,17,19,19,20,20,21,21],"right_children":[2,4,6,8,10,-1,-1,-1,-1,12,14,16,18,20,-1,22,-1,24,-1,26,28,30,-1,-1,-1,-1,-1,-1,-1,-1,-1],"split_conditions":[1E0,1E0,-6.315179E-2,1E0,-6.315179E-2,3.1012276E-3,5.283419E-2,-5.261637E-2,3.328992E-2,-7.636127E-1,1E0,1E0,-1.1014568E0,1E0,4.754787E-2,-1.1138432E0,-4.6037897E-2,1E0,-5.3014364E-2,1E0,1E0,-5.705054E-1,5.0096896E-2,2.009258E-2,-3.3640463E-2,4.6025123E-2,8.808194E-3,-4.540311E-2,3.7683066E-2,4.630958E-3,3.546202E-2],"split_indices":[8,21,12,1,12,0,0,0,0,12,6,13,11,17,0,12,0,14,0,9,9,10,0,0,0,0,0,0,0,0,0],"split_type":[0,0,0,0,0,0,0,0,0,0,0,0,0,0,0,0,0,0,0,0,0,0,0,0,0,0,0,0,0,0,0],"sum_hessian":[1.15741684E2,9.26411E1,2.3100592E1,2.464139E1,6.799971E1,2.095977E0,2.1004614E1,2.3254974E1,1.3864142E0,4.0881668E1,2.7118042E1,2.4262287E1,1.6619379E1,2.098831E1,6.12973E0,2.0041542E1,4.220745E0,2.9884758E0,1.3630904E1,1.5766585E1,5.2217255E0,1.3266637E1,6.7749043E0,1.5656698E0,1.422806E0,4.0186973E0,1.1747889E1,3.3296452E0,1.89208E0,1.2104403E1,1.1622349E0],"tree_param":{"num_deleted":"0","num_feature":"25","num_nodes":"31","size_leaf_vector":"1"}},{"base_weights":[2.6236834E-2,-4.3823692E-1,5.0489074E-1,-3.443154E-2,-1.0078832E0,1.090422E-1,5.2361082E-2,-5.0662138E-2,3.0472234E-1,-5.515795E-1,-5.357225E-2,-7.528381E-1,4.02389E-1,6.158081E-1,-6.6415185E-1,2.7516785E-3,-4.1047066E-2,-4.8434287E-2,3.3810425E-3,4.158936E-2,1.20166205E-1,3.6391872E-1,5.0489563E-2,-4.7411174E-2,2.3256788E-2,-8.960198E-2,6.318422E-1,2.2829756E-1,3.9896082E-2,-5.5932286E-3,3.9863065E-3,4.3721378E-2,-1.38273E-3,1.6306859E-3,1.2533307E-2],"categories":[],"categories_nodes":[],"categories_segments":[],"categories_sizes":[],"default_left":[0,0,0,0,0,0,0,0,0,0,0,0,0,0,0,0,0,0,0,0,0,0,0,0,0,0,0,0,0,0,0,0,0,0,0],"id":36,"left_children":[1,3,5,7,9,11,-1,-1,13,15,-1,17,19,21,23,-1,-1,-1,-1,-1,25,27,-1,-1,-1,29,31,33,-1,-1,-1,-1,-1,-1,-1],"loss_changes":[2.5295319E1,1.3254937E1,1.190967E1,1.1875814E1,1.0308266E-1,8.770877E0,0E0,0E0,8.440261E0,8.6002946E-1,0E0,1.6333375E0,3.0072007E0,1.6856956E0,2.67295E0,0E0,0E0,0E0,0E0,0E0,1.8426393E0,6.526916E-1,0E0,0E0,0E0,5.6708775E-2,8.180983E-1,4.5259416E-2,0E0,0E0,0E0,0E0,0E0,0E0,0E0],"parents":[2147483647,0,0,1,1,2,2,3,3,4,4,5,5,8,8,9,9,11,11,12,12,13,13,14,14,20,20,21,21,25,25,26,26,27,27],"right_children":[2,4,6,8,10,12,-1,-1,14,16,-1,18,20,22,24,-1,-1,-1,-1,-1,26,28,-1,-1,-1,30,32,34,-1,-1,-1,-1,-1,-1,-1],"split_conditions":[-6.315179E-2,-7.636127E-1,1E0,1E0,-1.1014568E0,1E0,5.2361082E-2,-5.0662138E-2,1E0,1E0,-5.357225E-2,1E0,6.3730913E-1,1E0,1E0,2.7516785E-3,-4.1047066E-2,-4.8434287E-2,3.3810425E-3,4.158936E-2,1E0,1E0,5.0489563E-2,-4.7411174E-2,2.3256788E-2,9.875396E-1,9.875396E-1,-8.672612E-1,3.9896082E-2,-5.5932286E-3,3.9863065E-3,4.3721378E-2,-1.38273E-3,1.6306859E-3,1.2533307E-2],"split_indices":[12,12,6,21,11,21,0,0,13,22,0,13,12,22,4,0,0,0,0,0,23,23,0,0,0,12,12,11,0,0,0,0,0,0,0],"split_type":[0,0,0,0,0,0,0,0,0,0,0,0,0,0,0,0,0,0,0,0,0,0,0,0,0,0,0,0,0,0,0,0,0,0,0],"sum_hessian":[1.1178252E2,5.6774456E1,5.5008064E1,3.3843933E1,2.293052E1,3.249266E1,2.2515406E1,8.197647E0,2.5646286E1,3.9868917E0,1.8943628E1,7.853111E0,2.4639547E1,1.9688969E1,5.957319E0,1.4706413E0,2.5162506E0,6.074388E0,1.7787231E0,8.999563E0,1.5639984E1,1.3183751E1,6.505217E0,4.8880644E0,1.0692545E0,1.167752E1,3.9624646E0,1.1207544E1,1.9762073E0,1.0620536E1,1.0569843E0,2.6586292E0,1.3038353E0,1.4018612E0,9.805683E0],"tree_param":{"num_deleted":"0","num_feature":"25","num_nodes":"35","size_leaf_vector":"1"}},{"base_weights":[-1.0508556E-2,-5.651747E-1,5.677386E-1,-1.9812284E-1,-5.2104753E-2,-2.7021524E-1,7.9706174E-1,-5.0385065E-2,1.2110564E-1,-8.222545E-1,4.235438E-2,5.729409E-1,5.156309E-2,4.110027E-1,-7.617348E-1,-4.834525E-2,-3.4429764E-3,6.441931E-1,-2.2590397E-2,5.6738883E-2,4.9887635E-2,-4.640765E-2,3.0154528E-3,2.9636523E-1,7.428844E-1,-1.01080246E-1,3.6404055E-2,-5.635951E-3,3.64716E-2,2.8143484E-2,4.8230518E-2,-1.1731716E-2,3.0460894E-2,3.4135733E-2,-2.5817215E-2],"categories":[],"categories_nodes":[],"categories_segments":[],"categories_sizes":[],"default_left":[0,0,0,0,0,0,0,0,0,0,0,0,0,0,0,0,0,0,0,0,0,0,0,0,0,0,0,0,0,0,0,0,0,0,0],"id":37,"left_children":[1,3,5,7,-1,9,11,-1,13,15,-1,17,-1,19,21,-1,-1,23,-1,25,-1,-1,-1,27,29,31,-1,33,-1,-1,-1,-1,-1,-1,-1],"loss_changes":[3.4632957E1,9.439817E0,1.0376038E1,8.488716E0,0E0,8.164692E0,1.6014805E0,0E0,6.4838943E0,8.7188435E-1,0E0,2.0137148E0,0E0,3.8513281E0,9.192922E-1,0E0,0E0,5.512266E-1,0E0,1.4279535E0,0E0,0E0,0E0,8.712853E-1,1.2924194E-1,1.2080647E0,0E0,2.0746272E0,0E0,0E0,0E0,0E0,0E0,0E0,0E0],"parents":[2147483647,0,0,1,1,2,2,3,3,5,5,6,6,8,8,9,9,11,11,13,13,14,14,17,17,19,19,23,23,24,24,25,25,27,27],"right_children":[2,4,6,8,-1,10,12,-1,14,16,-1,18,-1,20,22,-1,-1,24,-1,26,-1,-1,-1,28,30,32,-1,34,-1,-1,-1,-1,-1,-1,-1],"split_conditions":[-6.315179E-2,-7.636127E-1,1E0,1E0,-5.2104753E-2,1E0,1E0,-5.0385065E-2,1E0,-2.993445E-1,4.235438E-2,1.6880004E0,5.156309E-2,1E0,1E0,-4.834525E-2,-3.4429764E-3,2E0,-2.2590397E-2,1E0,4.9887635E-2,-4.640765E-2,3.0154528E-3,1E0,1E0,-1.1138432E0,3.6404055E-2,1E0,3.64716E-2,2.8143484E-2,4.8230518E-2,