{"learner":{"attributes":{"scikit_learn":"{\"_estimator_type\": \"classifier\"}"},"feature_names":[],"feature_types":[],"gradient_booster":{"model":{"cats":{"enc":[],"feature_segments":[],"sorted_idx":[]},"gbtree_model_param":{"num_parallel_tree":"1","num_trees":"500"},"iteration_indptr":[0,1,2,3,4,5,6,7,8,9,10,11,12,13,14,15,16,17,18,19,20,21,22,23,24,25,26,27,28,29,30,31,32,33,34,35,36,37,38,39,40,41,42,43,44,45,46,47,48,49,50,51,52,53,54,55,56,57,58,59,60,61,62,63,64,65,66,67,68,69,70,71,72,73,74,75,76,77,78,79,80,81,82,83,84,85,86,87,88,89,90,91,92,93,94,95,96,97,98,99,100,101,102,103,104,105,106,107,108,109,110,111,112,113,114,115,116,117,118,119,120,121,122,123,124,125,126,127,128,129,130,131,132,133,134,135,136,137,138,139,140,141,142,143,144,145,146,147,148,149,150,151,152,153,154,155,156,157,158,159,160,161,162,163,164,165,166,167,168,169,170,171,172,173,174,175,176,177,178,179,180,181,182,183,184,185,186,187,188,189,190,191,192,193,194,195,196,197,198,199,200,201,202,203,204,205,206,207,208,209,210,211,212,213,214,215,216,217,218,219,220,221,222,223,224,225,226,227,228,229,230,231,232,233,234,235,236,237,238,239,240,241,242,243,244,245,246,247,248,249,250,251,252,253,254,255,256,257,258,259,260,261,262,263,264,265,266,267,268,269,270,271,272,273,274,275,276,277,278,279,280,281,282,283,284,285,286,287,288,289,290,291,292,293,294,295,296,297,298,299,300,301,302,303,304,305,306,307,308,309,310,311,312,313,314,315,316,317,318,319,320,321,322,323,324,325,326,327,328,329,330,331,332,333,334,335,336,337,338,339,340,341,342,343,344,345,346,347,348,349,350,351,352,353,354,355,356,357,358,359,360,361,362,363,364,365,366,367,368,369,370,371,372,373,374,375,376,377,378,379,380,381,382,383,384,385,386,387,388,389,390,391,392,393,394,395,396,397,398,399,400,401,402,403,404,405,406,407,408,409,410,411,412,413,414,415,416,417,418,419,420,421,422,423,424,425,426,427,428,429,430,431,432,433,434,435,436,437,438,439,440,441,442,443,444,445,446,447,448,449,450,451,452,453,454,455,456,457,458,459,460,461,462,463,464,465,466,467,468,469,470,471,472,473,474,475,476,477,478,479,480,481,482,483,484,485,486,487,488,489,490,491,492,493,494,495,496,497,498,499,500],"tree_info":[0,0,0,0,0,0,0,0,0,0,0,0,0,0,0,0,0,0,0,0,0,0,0,0,0,0,0,0,0,0,0,0,0,0,0,0,0,0,0,0,0,0,0,0,0,0,0,0,0,0,0,0,0,0,0,0,0,0,0,0,0,0,0,0,0,0,0,0,0,0,0,0,0,0,0,0,0,0,0,0,0,0,0,0,0,0,0,0,0,0,0,0,0,0,0,0,0,0,0,0,0,0,0,0,0,0,0,0,0,0,0,0,0,0,0,0,0,0,0,0,0,0,0,0,0,0,0,0,0,0,0,0,0,0,0,0,0,0,0,0,0,0,0,0,0,0,0,0,0,0,0,0,0,0,0,0,0,0,0,0,0,0,0,0,0,0,0,0,0,0,0,0,0,0,0,0,0,0,0,0,0,0,0,0,0,0,0,0,0,0,0,0,0,0,0,0,0,0,0,0,0,0,0,0,0,0,0,0,0,0,0,0,0,0,0,0,0,0,0,0,0,0,0,0,0,0,0,0,0,0,0,0,0,0,0,0,0,0,0,0,0,0,0,0,0,0,0,0,0,0,0,0,0,0,0,0,0,0,0,0,0,0,0,0,0,0,0,0,0,0,0,0,0,0,0,0,0,0,0,0,0,0,0,0,0,0,0,0,0,0,0,0,0,0,0,0,0,0,0,0,0,0,0,0,0,0,0,0,0,0,0,0,0,0,0,0,0,0,0,0,0,0,0,0,0,0,0,0,0,0,0,0,0,0,0,0,0,0,0,0,0,0,0,0,0,0,0,0,0,0,0,0,0,0,0,0,0,0,0,0,0,0,0,0,0,0,0,0,0,0,0,0,0,0,0,0,0,0,0,0,0,0,0,0,0,0,0,0,0,0,0,0,0,0,0,0,0,0,0,0,0,0,0,0,0,0,0,0,0,0,0,0,0,0,0,0,0,0,0,0,0,0,0,0,0,0,0,0,0,0,0,0,0,0,0,0,0,0,0,0,0,0,0,0,0,0,0,0,0,0,0,0,0,0,0,0,0,0,0,0,0,0,0,0,0,0,0,0,0,0,0,0,0,0,0,0,0,0,0,0,0,0,0,0,0,0,0,0,0,0,0,0,0,0,0,0,0,0,0,0],"trees":[{"base_weights":[-4.9290705E-2,-1.2692394E0,1.0701382E0,-4.7686833E-1,-1.0535488E-1,-3.294471E-1,1.6282719E0,-1.0387935E-1,3.3934012E-1,-1.0227636E-1,9.028221E-1,9.0556085E-1,9.117348E-2,1.278583E0,-1.6108173E0,8.335831E-2,2.7822295E-1,1.3337272E0,-6.89887E-2,6.793433E-1,8.670679E-2,-1.0032356E-1,4.041585E-2,-5.271049E-3,6.766082E-2,7.163357E-1,8.434388E-2,2.323485E-2,6.385794E-2,-2.3581119E-1,7.3844984E-2,-5.9793036E-2,5.5309154E-2],"categories":[],"categories_nodes":[],"categories_segments":[],"categories_sizes":[],"default_left":[0,0,0,0,0,0,0,0,0,0,0,0,0,0,0,0,0,0,0,0,0,0,0,0,0,0,0,0,0,0,0,0,0],"id":0,"left_children":[1,3,5,7,-1,9,11,-1,13,-1,15,17,-1,19,21,-1,23,25,-1,27,-1,-1,-1,-1,-1,29,-1,-1,-1,31,-1,-1,-1],"loss_changes":[3.459153E2,7.94516E1,1.0373869E2,8.3770325E1,0E0,8.325499E1,1.1696655E1,0E0,8.07604E1,0E0,1.0564674E1,2.3472511E1,0E0,6.8906097E0,1.5413742E1,0E0,5.88051E0,2.9620628E0,0E0,1.2555151E0,0E0,0E0,0E0,0E0,0E0,6.6471095E0,0E0,0E0,0E0,7.4102516E0,0E0,0E0,0E0],"parents":[2147483647,0,0,1,1,2,2,3,3,5,5,6,6,8,8,10,10,11,11,13,13,14,14,16,16,17,17,19,19,25,25,29,29],"right_children":[2,4,6,8,-1,10,12,-1,14,-1,16,18,-1,20,22,-1,24,26,-1,28,-1,-1,-1,-1,-1,30,-1,-1,-1,32,-1,-1,-1],"split_conditions":[-6.315179E-2,-7.636127E-1,1E0,1E0,-1.0535488E-1,1E0,1E0,-1.0387935E-1,1E0,-1.0227636E-1,-5.705054E-1,1.6880004E0,9.117348E-2,-1.1138432E0,1E0,8.335831E-2,1E0,1E0,-6.89887E-2,1E0,8.670679E-2,-1.0032356E-1,4.041585E-2,-5.271049E-3,6.766082E-2,1E0,8.434388E-2,2.323485E-2,6.385794E-2,1E0,7.3844984E-2,-5.9793036E-2,5.5309154E-2],"split_indices":[10,10,11,18,0,18,6,0,11,0,9,10,0,10,2,0,19,7,0,19,0,0,0,0,0,8,0,0,0,0,0,0,0],"split_type":[0,0,0,0,0,0,0,0,0,0,0,0,0,0,0,0,0,0,0,0,0,0,0,0,0,0,0,0,0,0,0,0,0],"sum_hessian":[2.5130339E2,1.2018858E2,1.3111482E2,6.2577526E1,5.7611057E1,3.749685E1,9.3617966E1,2.0610851E1,4.1966675E1,1.5396058E1,2.2100792E1,2.1107498E1,7.251047E1,2.8557203E1,1.340947E1,9.18797E0,1.2912823E1,1.8127617E1,2.9798822E0,1.340947E1,1.5147735E1,1.16712055E1,1.7382646E0,1.0181264E1,2.7315586E0,7.698029E0,1.0429587E1,1.1174559E1,2.2349117E0,3.7248528E0,3.9731762E0,2.2349117E0,1.4899411E0],"tree_param":{"num_deleted":"0","num_feature":"20","num_nodes":"33","size_leaf_vector":"1"}},{"base_weights":[-4.5123756E-2,-1.242726E0,1.0670422E0,-4.8301274E-1,-9.9655114E-2,-3.4839588E-1,1.5949166E0,-9.836143E-2,3.2803363E-1,-9.6633546E-2,8.393786E-1,9.8427105E-1,8.7535165E-2,1.1475533E0,-1.595692E0,7.989116E-2,1.9685976E-1,1.2997351E0,-6.994162E-2,4.415344E-1,8.343854E-2,-9.42803E-2,2.8584033E-2,-4.892024E-3,5.950231E-2,7.143239E-1,8.1863835E-2,7.100618E-3,6.390881E-2,5.75759E-2,-4.359096E-2],"categories":[],"categories_nodes":[],"categories_segments":[],"categories_sizes":[],"default_left":[0,0,0,0,0,0,0,0,0,0,0,0,0,0,0,0,0,0,0,0,0,0,0,0,0,0,0,0,0,0,0],"id":1,"left_children":[1,3,5,7,-1,9,11,-1,13,-1,15,17,-1,19,21,-1,23,25,-1,27,-1,-1,-1,-1,-1,29,-1,-1,-1,-1,-1],"loss_changes":[3.3280234E2,6.761319E1,9.737073E1,7.418925E1,0E0,6.939958E1,7.2720947E0,0E0,6.546563E1,0E0,1.0056553E1,1.7984531E1,0E0,9.893299E0,8.917646E0,0E0,3.8225343E0,2.6853714E0,0E0,3.2336442E0,0E0,0E0,0E0,0E0,0E0,7.1816273E0,0E0,0E0,0E0,0E0,0E0],"parents":[2147483647,0,0,1,1,2,2,3,3,5,5,6,6,8,8,10,10,11,11,13,13,14,14,16,16,17,17,19,19,25,25],"right_children":[2,4,6,8,-1,10,12,-1,14,-1,16,18,-1,20,22,-1,24,26,-1,28,-1,-1,-1,-1,-1,30,-1,-1,-1,-1,-1],"split_conditions":[-6.315179E-2,-7.636127E-1,1E0,1E0,-9.9655114E-2,1E0,1E0,-9.836143E-2,1E0,-9.6633546E-2,6.3730913E-1,2.038231E0,8.7535165E-2,-1.1138432E0,1E0,7.989116E-2,1E0,1E0,-6.994162E-2,1E0,8.343854E-2,-9.42803E-2,2.8584033E-2,-4.892024E-3,5.950231E-2,6.3730913E-1,8.1863835E-2,7.100618E-3,6.390881E-2,5.75759E-2,-4.359096E-2],"split_indices":[10,10,12,18,0,18,6,0,11,0,10,10,0,10,4,0,19,5,0,19,0,0,0,0,0,10,0,0,0,0,0],"split_type":[0,0,0,0,0,0,0,0,0,0,0,0,0,0,0,0,0,0,0,0,0,0,0,0,0,0,0,0,0,0,0],"sum_hessian":[2.478687E2,1.1929361E2,1.2857509E2,6.009478E1,5.919883E1,3.501803E1,9.355706E1,2.073117E1,3.936361E1,1.4735893E1,2.0282135E1,2.0504097E1,7.305296E1,2.7887028E1,1.1476583E1,8.620032E0,1.1662103E1,1.8508617E1,1.9954792E0,1.2628337E1,1.525869E1,1.0237226E1,1.2393566E0,9.688731E0,1.9733714E0,7.9086313E0,1.0599985E1,1.0160549E1,2.467788E0,6.414574E0,1.4940573E0],"tree_param":{"num_deleted":"0","num_feature":"20","num_nodes":"31","size_leaf_vector":"1"}},{"base_weights":[-2.3145908E-3,-1.0802839E0,9.757258E-1,-3.0615965E-1,-9.372046E-2,-3.5108685E-1,1.5211629E0,-9.34566E-2,5.04011E-1,-9.2863806E-2,8.849543E-1,1.0615705E0,8.433733E-2,1.1806805E0,-1.3875352E0,7.760246E-2,2.9833162E-1,1.3033153E0,-5.6057688E-2,6.458963E-1,8.053472E-2,-8.8987865E-2,4.947862E-2,7.549784E-6,6.0038645E-2,8.246671E-1,7.9806894E-2,1.924829E-2,6.515674E-2,5.006009E-2,7.233761E-2,-8.664678E-1,5.8875818E-2,-1.598096E-2,-5.7219535E-2],"categories":[],"categories_nodes":[],"categories_segments":[],"categories_sizes":[],"default_left":[0,0,0,0,0,0,0,0,0,0,0,0,0,0,0,0,0,0,0,0,0,0,0,0,0,0,0,0,0,0,0,0,0,0,0],"id":2,"left_children":[1,3,5,7,-1,9,11,-1,13,-1,15,17,-1,19,21,-1,23,25,-1,27,-1,-1,-1,-1,-1,29,-1,-1,-1,31,-1,33,-1,-1,-1],"loss_changes":[2.611858E2,7.187204E1,9.453366E1,7.801971E1,0E0,7.3603615E1,5.228653E0,0E0,5.3958656E1,0E0,8.110102E0,1.5775455E1,0E0,6.007374E0,1.2231443E1,0E0,3.4696856E0,2.1716003E0,0E0,2.1271505E0,0E0,0E0,0E0,0E0,0E0,5.476072E0,0E0,0E0,0E0,7.390208E0,0E0,2.385621E-1,0E0,0E0,0E0],"parents":[2147483647,0,0,1,1,2,2,3,3,5,5,6,6,8,8,10,10,11,11,13,13,14,14,16,16,17,17,19,19,25,25,29,29,31,31],"right_children":[2,4,6,8,-1,10,12,-1,14,-1,16,18,-1,20,22,-1,24,26,-1,28,-1,-1,-1,-1,-1,30,-1,-1,-1,32,-1,34,-1,-1,-1],"split_conditions":[-6.315179E-2,-7.636127E-1,1E0,1E0,-9.372046E-2,1E0,1E0,-9.34566E-2,1E0,-9.2863806E-2,6.3730913E-1,2.038231E0,8.433733E-2,-1.1138432E0,1E0,7.760246E-2,1E0,1E0,-5.6057688E-2,1E0,8.053472E-2,-8.8987865E-2,4.947862E-2,7.549784E-6,6.0038645E-2,1E0,7.9806894E-2,1.924829E-2,6.515674E-2,1E0,7.233761E-2,6.3730913E-1,5.8875818E-2,-1.598096E-2,-5.7219535E-2],"split_indices":[10,10,11,18,0,18,5,0,11,0,10,10,0,10,8,0,19,3,0,19,0,0,0,0,0,0,0,0,0,7,0,10,0,0,0],"split_type":[0,0,0,0,0,0,0,0,0,0,0,0,0,0,0,0,0,0,0,0,0,0,0,0,0,0,0,0,0,0,0,0,0,0,0],"sum_hessian":[2.4573465E2,1.1684583E2,1.2888881E2,5.986962E1,5.697621E1,3.7652607E1,9.1236206E1,1.9992748E1,3.9876877E1,1.6745106E1,2.0907501E1,2.6127657E1,6.510855E1,2.964697E1,1.0229903E1,9.012706E0,1.1894794E1,2.388518E1,2.2424767E0,1.4328925E1,1.5318046E1,8.9967375E0,1.233166E0,9.692431E0,2.2023625E0,1.0514475E1,1.3370706E1,1.1391939E1,2.9369864E0,5.1643763E0,5.3500986E0,2.9763424E0,2.1880336E0,1.7274309E0,1.2489114E0],"tree_param":{"num_deleted":"0","num_feature":"20","num_nodes":"35","size_leaf_vector":"1"}},{"base_weights":[-1.4093112E-2,-1.053786E0,9.492138E-1,-3.7144065E-1,-9.032022E-2,-2.8553313E-1,1.443934E0,-8.955382E-2,3.475666E-1,-8.831341E-2,7.699098E-1,9.3522555E-1,8.1508934E-2,1.1494672E0,-1.4982886E0,7.5156964E-2,2.0049489E-1,1.2512872E0,-5.436478E-2,6.039555E-1,7.8153245E-2,-8.719899E-2,2.7314479E-2,-1.1593507E-2,6.4597964E-2,7.514403E-1,7.742045E-2,1.8397471E-2,6.1792344E-2,-1.8825838E-1,7.077748E-2,-5.124407E-2,5.2321512E-2],"categories":[],"categories_nodes":[],"categories_segments":[],"categories_sizes":[],"default_left":[0,0,0,0,0,0,0,0,0,0,0,0,0,0,0,0,0,0,0,0,0,0,0,0,0,0,0,0,0,0,0,0,0],"id":3,"left_children":[1,3,5,7,-1,9,11,-1,13,-1,15,17,-1,19,21,-1,23,25,-1,27,-1,-1,-1,-1,-1,29,-1,-1,-1,31,-1,-1,-1],"loss_changes":[2.518501E2,6.143196E1,8.014927E1,6.664811E1,0E0,6.102015E1,7.320633E0,0E0,6.651822E1,0E0,9.294891E0,1.8853746E1,0E0,6.069092E0,7.830662E0,0E0,6.949419E0,2.4204407E0,0E0,1.7872701E0,0E0,0E0,0E0,0E0,0E0,7.093521E0,0E0,0E0,0E0,6.6634545E0,0E0,0E0,0E0],"parents":[2147483647,0,0,1,1,2,2,3,3,5,5,6,6,8,8,10,10,11,11,13,13,14,14,16,16,17,17,19,19,25,25,29,29],"right_children":[2,4,6,8,-1,10,12,-1,14,-1,16,18,-1,20,22,-1,24,26,-1,28,-1,-1,-1,-1,-1,30,-1,-1,-1,32,-1,-1,-1],"split_conditions":[-6.315179E-2,-7.636127E-1,1E0,1E0,-9.032022E-2,1E0,1E0,-8.955382E-2,1E0,-8.831341E-2,6.3730913E-1,1.6880004E0,8.1508934E-2,-1.1138432E0,1E0,7.5156964E-2,1E0,1E0,-5.436478E-2,1E0,7.8153245E-2,-8.719899E-2,2.7314479E-2,-1.1593507E-2,6.4597964E-2,1E0,7.742045E-2,1.8397471E-2,6.1792344E-2,1E0,7.077748E-2,-5.124407E-2,5.2321512E-2],"split_indices":[10,10,11,18,0,18,5,0,11,0,10,10,0,10,4,0,19,3,0,19,0,0,0,0,0,1,0,0,0,7,0,0,0],"split_type":[0,0,0,0,0,0,0,0,0,0,0,0,0,0,0,0,0,0,0,0,0,0,0,0,0,0,0,0,0,0,0,0,0],"sum_hessian":[2.4946327E2,1.1992972E2,1.2953355E2,6.3684788E1,5.624493E1,3.7174488E1,9.235906E1,2.0909407E1,4.277538E1,1.5190072E1,2.1984415E1,2.6365597E1,6.599347E1,3.0083418E1,1.2691961E1,8.893087E0,1.3091328E1,2.3132048E1,3.2335486E0,1.4033834E1,1.6049583E1,1.1461669E1,1.2302928E0,9.94095E0,3.1503775E0,9.939657E0,1.3192391E1,1.1369661E1,2.6641738E0,4.4125423E0,5.5271144E0,2.7315652E0,1.680977E0],"tree_param":{"num_deleted":"0","num_feature":"20","num_nodes":"33","size_leaf_vector":"1"}},{"base_weights":[-4.5946382E-2,-1.0967706E0,9.70136E-1,-5.007608E-1,-8.582967E-2,-3.1809035E-1,1.378353E0,-8.6284146E-2,2.3860426E-1,-8.498522E-2,1.260214E0,1.0397458E0,7.889755E-2,1.005588E0,-1.3645375E0,2.0213373E-1,7.3645286E-2,1.1821711E0,-6.0997277E-2,3.271876E-1,7.537572E-2,-8.352776E-2,3.3048097E-2,-2.4490388E-2,4.452351E-2,7.270779E-2,8.001408E-1,3.1706877E-3,5.6609955E-2,4.1162166E-1,6.44459E-2,9.972101E-3,5.063038E-2],"categories":[],"categories_nodes":[],"categories_segments":[],"categories_sizes":[],"default_left":[0,0,0,0,0,0,0,0,0,0,0,0,0,0,0,0,0,0,0,0,0,0,0,0,0,0,0,0,0,0,0,0,0],"id":4,"left_children":[1,3,5,7,-1,9,11,-1,13,-1,15,17,-1,19,21,23,-1,25,-1,27,-1,-1,-1,-1,-1,-1,29,-1,-1,31,-1,-1,-1],"loss_changes":[2.6115146E2,4.3551147E1,6.584326E1,5.719496E1,0E0,6.9175026E1,4.7550964E0,0E0,5.052682E1,0E0,3.0606499E0,1.3680737E1,0E0,8.910116E0,9.385784E0,2.177841E0,0E0,2.6062279E0,0E0,2.6930137E0,0E0,0E0,0E0,0E0,0E0,0E0,2.7568588E0,0E0,0E0,1.2152694E0,0E0,0E0,0E0],"parents":[2147483647,0,0,1,1,2,2,3,3,5,5,6,6,8,8,10,10,11,11,13,13,14,14,15,15,17,17,19,19,26,26,29,29],"right_children":[2,4,6,8,-1,10,12,-1,14,-1,16,18,-1,20,22,24,-1,26,-1,28,-1,-1,-1,-1,-1,-1,30,-1,-1,32,-1,-1,-1],"split_conditions":[-6.315179E-2,-7.636127E-1,1E0,1E0,-8.582967E-2,1E0,1E0,-8.6284146E-2,1E0,-8.498522E-2,1E0,2.038231E0,7.889755E-2,-1.1138432E0,1E0,1E0,7.3645286E-2,6.3730913E-1,-6.0997277E-2,1E0,7.537572E-2,-8.352776E-2,3.3048097E-2,-2.4490388E-2,4.452351E-2,7.270779E-2,1E0,3.1706877E-3,5.6609955E-2,1E0,6.44459E-2,9.972101E-3,5.063038E-2],"split_indices":[10,10,18,18,0,11,6,0,11,0,6,10,0,10,8,3,0,10,0,19,0,0,0,0,0,0,19,0,0,2,0,0,0],"split_type":[0,0,0,0,0,0,0,0,0,0,0,0,0,0,0,0,0,0,0,0,0,0,0,0,0,0,0,0,0,0,0,0,0],"sum_hessian":[2.4259052E2,1.1921741E2,1.2337311E2,6.1697838E1,5.751957E1,2.9740534E1,9.363257E1,2.2721174E1,3.8976665E1,1.5817401E1,1.3923133E1,3.7027164E1,5.6605404E1,2.6615751E1,1.2360913E1,2.6567786E0,1.1266355E1,3.528034E1,1.7468276E0,1.2020618E1,1.4595132E1,1.0890749E1,1.4701643E0,1.4687523E0,1.1880264E0,1.8969036E1,1.6311302E1,9.866491E0,2.1541274E0,1.01140175E1,6.197284E0,8.459298E0,1.6547194E0],"tree_param":{"num_deleted":"0","num_feature":"20","num_nodes":"33","size_leaf_vector":"1"}},{"base_weights":[1.6828226E-2,-4.8403126E-1,7.149234E-2,-1.4183064E0,-2.0868456E-2,-1.6481283E0,6.277949E-1,3.2328692E-1,-4.3654257E-1,-8.454449E-2,-9.632445E-3,-1.0477035E-2,5.2766543E-2,2.1025962E-3,7.407674E-2,-1.0166442E0,7.572502E-1,-1.0040542E-3,3.1298834E-3,-1.3563974E0,1.8951741E-1,1.4419624E-1,6.5993E-2,-8.185621E-2,-4.7607562E-1,-3.2103303E-1,6.502133E-1,-3.4926718E-1,8.522493E-1,-4.9170118E-2,2.669074E-1,-3.0577868E-2,2.6044648E-3,2.4300765E-1,4.814273E-2,-3.714105E-2,4.1648198E-2,1.2479595E-2,5.2417066E-2,-1.7255118E-2,4.5254223E-2,-3.6769889E-3,2.4218025E-2],"categories":[],"categories_nodes":[],"categories_segments":[],"categories_sizes":[],"default_left":[0,0,0,0,0,0,0,0,0,0,0,0,0,0,0,0,0,0,0,0,0,0,0,0,0,0,0,0,0,0,0,0,0,0,0,0,0,0,0,0,0,0,0],"id":5,"left_children":[1,3,-1,5,7,9,11,13,15,-1,-1,-1,-1,17,-1,19,21,-1,-1,23,25,27,-1,-1,29,31,33,35,37,-1,39,-1,-1,41,-1,-1,-1,-1,-1,-1,-1,-1,-1],"loss_changes":[1.7516763E2,7.905498E1,0E0,2.9511787E1,1.7765987E1,3.0799103E0,2.669566E0,2.528388E1,3.9709175E1,0E0,0E0,0E0,0E0,7.4017905E-2,0E0,1.5938915E1,6.3495226E0,0E0,0E0,6.6295013E0,2.3932645E0,3.8602571E0,0E0,0E0,3.526268E0,5.8198035E-1,4.2964554E-1,3.74445E0,2.6757646E-1,0E0,1.9917657E0,0E0,0E0,3.1077665E-1,0E0,0E0,0E0,0E0,0E0,0E0,0E0,0E0,0E0],"parents":[2147483647,0,0,1,1,3,3,4,4,5,5,6,6,7,7,8,8,13,13,15,15,16,16,19,19,20,20,21,21,24,24,25,25,26,26,27,27,28,28,30,30,33,33],"right_children":[2,4,-1,6,8,10,12,14,16,-1,-1,-1,-1,18,-1,20,22,-1,-1,24,26,28,-1,-1,30,32,34,36,38,-1,40,-1,-1,42,-1,-1,-1,-1,-1,-1,-1,-1,-1],"split_conditions":[1E0,1E0,7.149234E-2,1E0,1E0,1E0,1E0,1E0,1E0,-8.454449E-2,-9.632445E-3,-1.0477035E-2,5.2766543E-2,-5.705054E-1,7.407674E-2,1E0,1E0,-1.0040542E-3,3.1298834E-3,1E0,1E0,1E0,6.5993E-2,-8.185621E-2,1E0,1E0,1E0,1.8699424E0,1E0,-4.9170118E-2,1E0,-3.0577868E-2,2.6044648E-3,2.4297722E-1,4.814273E-2,-3.714105E-2,4.1648198E-2,1.2479595E-2,5.2417066E-2,-1.7255118E-2,4.5254223E-2,-3.6769889E-3,2.4218025E-2],"split_indices":[8,18,0,6,14,0,5,19,5,0,0,0,0,9,0,1,3,0,0,3,6,1,0,0,2,0,3,9,6,0,6,0,0,9,0,0,0,0,0,0,0,0,0],"split_type":[0,0,0,0,0,0,0,0,0,0,0,0,0,0,0,0,0,0,0,0,0,0,0,0,0,0,0,0,0,0,0,0,0,0,0,0,0,0,0,0,0,0,0],"sum_hessian":[2.455306E2,1.8176094E2,6.376966E1,5.9558826E1,1.2220211E2,5.371946E1,5.8393655E0,6.697377E1,5.5228348E1,5.2029125E1,1.690336E0,2.1460943E0,3.6932714E0,5.32181E1,1.3755665E1,3.7267353E1,1.7960995E1,3.9427868E1,1.3790234E1,2.8979744E1,8.287609E0,9.19637E0,8.764625E0,2.1320984E1,7.6587586E0,4.0748987E0,4.212711E0,5.718027E0,3.4783428E0,4.3588467E0,3.299912E0,1.9317518E0,2.143147E0,2.601548E0,1.6111628E0,4.5687957E0,1.1492311E0,1.4119059E0,2.066437E0,1.9189153E0,1.3809967E0,1.4262478E0,1.1753001E0],"tree_param":{"num_deleted":"0","num_feature":"20","num_nodes":"43","size_leaf_vector":"1"}},{"base_weights":[9.052573E-3,-9.7162336E-1,8.853834E-1,-3.5026366E-1,-8.196101E-2,-2.2331797E-1,1.3377442E0,-7.969865E-2,2.922863E-1,-7.889997E-2,7.7217233E-1,7.166561E-1,7.52294E-2,9.7927314E-1,-1.4261354E0,7.049274E-2,2.330537E-1,1.1224263E0,-5.209536E-2,4.4332203E-1,7.242738E-2,-7.6815136E-2,-2.821731E-2,-2.5223226E-3,5.4912448E-2,5.718004E-1,7.037707E-2,9.376812E-3,5.802233E-2,9.160401E-1,-2.621129E-2,5.662774E-3,5.4431476E-2],"categories":[],"categories_nodes":[],"categories_segments":[],"categories_sizes":[],"default_left":[0,0,0,0,0,0,0,0,0,0,0,0,0,0,0,0,0,0,0,0,0,0,0,0,0,0,0,0,0,0,0,0,0],"id":6,"left_children":[1,3,5,7,-1,9,11,-1,13,-1,15,17,-1,19,21,-1,23,25,-1,27,-1,-1,-1,-1,-1,29,-1,-1,-1,31,-1,-1,-1],"loss_changes":[2.0543452E2,4.6221832E1,6.3608795E1,4.8175346E1,0E0,5.1704258E1,8.226868E0,0E0,4.886436E1,0E0,7.3208475E0,1.6100168E1,0E0,6.7315407E0,2.619152E-1,0E0,3.3066506E0,1.9397678E0,0E0,2.5572486E0,0E0,0E0,0E0,0E0,0E0,3.3659086E0,0E0,0E0,0E0,7.3355436E-1,0E0,0E0,0E0],"parents":[2147483647,0,0,1,1,2,2,3,3,5,5,6,6,8,8,10,10,11,11,13,13,14,14,16,16,17,17,19,19,25,25,29,29],"right_children":[2,4,6,8,-1,10,12,-1,14,-1,16,18,-1,20,22,-1,24,26,-1,28,-1,-1,-1,-1,-1,30,-1,-1,-1,32,-1,-1,-1],"split_conditions":[-6.315179E-2,-7.636127E-1,1E0,1E0,-8.196101E-2,1E0,1E0,-7.969865E-2,1E0,-7.889997E-2,6.3730913E-1,1.6880004E0,7.52294E-2,-1.1138432E0,1E0,7.049274E-2,1E0,1E0,-5.209536E-2,1E0,7.242738E-2,-7.6815136E-2,-2.821731E-2,-2.5223226E-3,5.4912448E-2,1.8699424E0,7.037707E-2,9.376812E-3,5.802233E-2,-2.993445E-1,-2.621129E-2,5.662774E-3,5.4431476E-2],"split_indices":[10,10,11,18,0,18,6,0,11,0,10,10,0,10,6,0,19,5,0,19,0,0,0,0,0,9,0,0,0,9,0,0,0],"split_type":[0,0,0,0,0,0,0,0,0,0,0,0,0,0,0,0,0,0,0,0,0,0,0,0,0,0,0,0,0,0,0,0,0],"sum_hessian":[2.3704405E2,1.1181097E2,1.25233086E2,5.8700592E1,5.311038E1,3.6436462E1,8.879663E1,1.9491827E1,3.9208767E1,1.5185969E1,2.1250492E1,1.9923882E1,6.887275E1,2.8317993E1,1.0890773E1,8.995403E0,1.2255089E1,1.6482462E1,3.4414196E0,1.412768E1,1.4190313E1,8.962374E0,1.9283985E0,9.939793E0,2.3152966E0,6.648369E0,9.834092E0,1.1343252E1,2.7844281E0,5.1843014E0,1.4640673E0,1.2104075E0,3.9738941E0],"tree_param":{"num_deleted":"0","num_feature":"20","num_nodes":"33","size_leaf_vector":"1"}},{"base_weights":[-8.198131E-4,-9.180968E-1,8.410475E-1,-2.8319344E-1,-7.846458E-2,-3.476387E-1,1.345242E0,-7.7337556E-2,4.018919E-1,-7.684536E-2,6.6045725E-1,8.527075E-1,7.331055E-2,1.0070775E0,-1.2172122E0,6.796007E-2,1.1791562E-1,1.143526E0,-5.8258392E-2,4.7444215E-1,7.091587E-2,-7.453447E-2,2.79099E-2,-9.298598E-3,5.3626686E-2,5.578611E-1,6.940668E-2,1.0801739E-2,5.6579173E-2,-2.2607203E-1,5.8776636E-2,-5.976678E-2,4.45629E-2],"categories":[],"categories_nodes":[],"categories_segments":[],"categories_sizes":[],"default_left":[0,0,0,0,0,0,0,0,0,0,0,0,0,0,0,0,0,0,0,0,0,0,0,0,0,0,0,0,0,0,0,0,0],"id":7,"left_children":[1,3,5,7,-1,9,11,-1,13,-1,15,17,-1,19,21,-1,23,25,-1,27,-1,-1,-1,-1,-1,29,-1,-1,-1,31,-1,-1,-1],"loss_changes":[1.8349469E2,4.657081E1,7.472604E1,5.152E1,0E0,4.6209656E1,3.945572E0,0E0,3.9362175E1,0E0,7.839409E0,1.2825487E1,0E0,5.652565E0,6.1934643E0,0E0,3.9630766E0,1.7501812E0,0E0,2.1472504E0,0E0,0E0,0E0,0E0,0E0,3.5892458E0,0E0,0E0,0E0,5.2494273E0,0E0,0E0,0E0],"parents":[2147483647,0,0,1,1,2,2,3,3,5,5,6,6,8,8,10,10,11,11,13,13,14,14,16,16,17,17,19,19,25,25,29,29],"right_children":[2,4,6,8,-1,10,12,-1,14,-1,16,18,-1,20,22,-1,24,26,-1,28,-1,-1,-1,-1,-1,30,-1,-1,-1,32,-1,-1,-1],"split_conditions":[-6.315179E-2,-7.636127E-1,1E0,1E0,-7.846458E-2,1E0,1E0,-7.7337556E-2,1E0,-7.684536E-2,6.3730913E-1,2.038231E0,7.331055E-2,-1.1138432E0,1E0,6.796007E-2,1E0,1E0,-5.8258392E-2,1E0,7.091587E-2,-7.453447E-2,2.79099E-2,-9.298598E-3,5.3626686E-2,1E0,6.940668E-2,1.0801739E-2,5.6579173E-2,1E0,5.8776636E-2,-5.976678E-2,4.45629E-2],"split_indices":[10,10,14,18,0,18,6,0,13,0,10,10,0,10,0,0,19,5,0,19,0,0,0,0,0,1,0,0,0,2,0,0,0],"split_type":[0,0,0,0,0,0,0,0,0,0,0,0,0,0,0,0,0,0,0,0,0,0,0,0,0,0,0,0,0,0,0,0,0],"sum_hessian":[2.3561807E2,1.1271555E2,1.2290252E2,5.7798214E1,5.4917343E1,3.6696815E1,8.6205696E1,1.9877956E1,3.7920258E1,1.6594927E1,2.010189E1,1.8584856E1,6.762084E1,2.7878056E1,1.0042202E1,8.128228E0,1.1973662E1,1.6622503E1,1.9623518E0,1.30846195E1,1.4793435E1,8.840774E0,1.2014283E0,9.693179E0,2.2804832E0,5.863691E0,1.0758813E1,1.0345294E1,2.7393258E0,2.863457E0,3.000234E0,1.4959409E0,1.367516E0],"tree_param":{"num_deleted":"0","num_feature":"20","num_nodes":"33","size_leaf_vector":"1"}},{"base_weights":[1.2178265E-3,-9.714249E-1,8.6559033E-1,-4.0060872E-1,-7.6733775E-2,-1.3327655E-1,1.2856932E0,-1.0860377E-1,-1.2236156E0,6.662602E-2,-6.205012E-1,7.0724213E-1,7.158474E-2,-3.986278E-1,6.372052E-2,-7.4126475E-2,3.239002E-2,-4.3153156E-2,5.6367643E-2,1.0501482E0,-5.217994E-2,-2.513208E-2,-1.4459043E-2,4.654596E-1,6.701509E-2,-2.0661934E-1,5.620973E-2,-4.024273E-2,4.0002115E-2],"categories":[],"categories_nodes":[],"categories_segments":[],"categories_sizes":[],"default_left":[0,0,0,0,0,0,0,0,0,0,0,0,0,0,0,0,0,0,0,0,0,0,0,0,0,0,0,0,0],"id":8,"left_children":[1,3,5,7,-1,9,11,13,15,-1,17,19,-1,21,-1,-1,-1,-1,-1,23,-1,-1,-1,25,-1,27,-1,-1,-1],"loss_changes":[1.9442226E2,3.4370056E1,5.1551193E1,1.3180226E1,0E0,2.7362925E1,6.2746735E0,1.7349205E1,7.9426556E0,0E0,1.3085257E1,1.2722565E1,0E0,2.5843525E-1,0E0,0E0,0E0,0E0,0E0,2.2080078E0,0E0,0E0,0E0,3.3615863E0,0E0,3.259645E0,0E0,0E0,0E0],"parents":[2147483647,0,0,1,1,2,2,3,3,5,5,6,6,7,7,8,8,10,10,11,11,13,13,19,19,23,23,25,25],"right_children":[2,4,6,8,-1,10,12,14,16,-1,18,20,-1,22,-1,-1,-1,-1,-1,24,-1,-1,-1,26,-1,28,-1,-1,-1],"split_conditions":[-6.315179E-2,-7.636127E-1,1E0,1E0,-7.6733775E-2,6.3730913E-1,1E0,1E0,1E0,6.662602E-2,1E0,1.6880004E0,7.158474E-2,-1.1138432E0,6.372052E-2,-7.4126475E-2,3.239002E-2,-4.3153156E-2,5.6367643E-2,1E0,-5.217994E-2,-2.513208E-2,-1.4459043E-2,1E0,6.701509E-2,1E0,5.620973E-2,-4.024273E-2,4.0002115E-2],"split_indices":[10,10,14,13,0,10,6,19,4,0,19,10,0,10,0,0,0,0,0,5,0,0,0,7,0,8,0,0,0],"split_type":[0,0,0,0,0,0,0,0,0,0,0,0,0,0,0,0,0,0,0,0,0,0,0,0,0,0,0,0,0],"sum_hessian":[2.2925514E2,1.0781337E2,1.2144178E2,5.4396976E1,5.3416393E1,3.615642E1,8.528536E1,4.0986736E1,1.3410238E1,8.587209E0,2.7569212E1,1.8365648E1,6.691971E1,3.4469997E1,6.5167384E0,1.1962946E1,1.4472923E0,2.4654018E1,2.9151936E0,1.5692451E1,2.673198E0,1.5831674E1,1.8638325E1,6.068332E0,9.624118E0,3.3434718E0,2.7248604E0,2.2229164E0,1.1205553E0],"tree_param":{"num_deleted":"0","num_feature":"20","num_nodes":"29","size_leaf_vector":"1"}},{"base_weights":[-3.301853E-2,-8.832941E-1,8.1400424E-1,-3.3937886E-1,-7.357519E-2,-2.6667854E-1,1.2498752E0,-7.444782E-2,2.71917E-1,-7.24903E-2,6.0144687E-1,6.8016785E-1,6.996786E-2,9.154802E-1,-1.1500459E0,6.3754365E-2,1.612597E-1,1.0657204E0,-5.2686233E-2,4.6963826E-1,6.815867E-2,-7.154251E-2,3.1521678E-2,-6.8962597E-3,5.259807E-2,6.162879E-1,6.475468E-2,1.413204E-2,5.2438952E-2,2.6463142E-2,5.580757E-2,-2.7490983E-2,4.303871E-2],"categories":[],"categories_nodes":[],"categories_segments":[],"categories_sizes":[],"default_left":[0,0,0,0,0,0,0,0,0,0,0,0,0,0,0,0,0,0,0,0,0,0,0,0,0,0,0,0,0,0,0,0,0],"id":9,"left_children":[1,3,5,7,-1,9,11,-1,13,-1,15,17,-1,19,21,-1,23,25,-1,27,-1,-1,-1,-1,-1,29,-1,-1,-1,31,-1,-1,-1],"loss_changes":[1.618233E2,3.5369217E1,5.3363396E1,4.225173E1,0E0,3.4952286E1,5.895172E0,0E0,3.7403114E1,0E0,5.678982E0,1.3595152E1,0E0,4.9291077E0,7.311352E0,0E0,3.6485648E0,8.26519E-1,0E0,1.3827994E0,0E0,0E0,0E0,0E0,0E0,2.1030793E0,0E0,0E0,0E0,2.5610783E0,0E0,0E0,0E0],"parents":[2147483647,0,0,1,1,2,2,3,3,5,5,6,6,8,8,10,10,11,11,13,13,14,14,16,16,17,17,19,19,25,25,29,29],"right_children":[2,4,6,8,-1,10,12,-1,14,-1,16,18,-1,20,22,-1,24,26,-1,28,-1,-1,-1,-1,-1,30,-1,-1,-1,32,-1,-1,-1],"split_conditions":[-6.315179E-2,-7.636127E-1,1E0,1E0,-7.357519E-2,1E0,1E0,-7.444782E-2,1E0,-7.24903E-2,6.3730913E-1,1.6880004E0,6.996786E-2,-1.1138432E0,1E0,6.3754365E-2,1E0,1E0,-5.2686233E-2,1E0,6.815867E-2,-7.154251E-2,3.1521678E-2,-6.8962597E-3,5.259807E-2,1E0,6.475468E-2,1.413204E-2,5.2438952E-2,1E0,5.580757E-2,-2.7490983E-2,4.303871E-2],"split_indices":[10,10,11,18,0,18,6,0,11,0,10,10,0,10,4,0,19,5,0,19,0,0,0,0,0,7,0,0,0,0,0,0,0],"split_type":[0,0,0,0,0,0,0,0,0,0,0,0,0,0,0,0,0,0,0,0,0,0,0,0,0,0,0,0,0,0,0,0,0],"sum_hessian":[2.22693E2,1.1111173E2,1.1158126E2,5.8548824E1,5.2562904E1,3.2181004E1,7.940025E1,1.9827091E1,3.8721733E1,1.333598E1,1.8845024E1,1.7656773E1,6.174348E1,2.6902275E1,1.1819458E1,6.6980186E0,1.2147005E1,1.4760052E1,2.8967214E0,1.4505638E1,1.2396638E1,1.0378936E1,1.4405221E0,9.7254095E0,2.4215953E0,6.2333302E0,8.526721E0,1.208997E1,2.4156687E0,3.3423698E0,2.8909605E0,2.1785629E0,1.1638068E0],"tree_param":{"num_deleted":"0","num_feature":"20","num_nodes":"33","size_leaf_vector":"1"}},{"base_weights":[2.1700985E-3,-4.403178E-1,1.1990876E0,-1.2482096E0,1.2784988E-2,6.457533E-1,6.593365E-2,-1.4651275E0,5.3624964E-1,3.314216E-1,-4.4389495E-1,-1.23992436E-1,5.784454E-2,-7.444049E-2,-1.5740948E-2,-3.0110776E-2,4.569033E-2,4.455312E-2,6.628138E-2,-8.588945E-1,8.79567E-1,-2.5901167E-2,2.5039077E-2,1.8792767E-2,-2.6573703E-2,-1.8589199E-2,1.1978189E-2,-1.1547997E0,3.4021908E-1,1.4020245E-1,6.0181867E-2,-7.765873E-5,-1.3846404E-2,-6.8171136E-2,-4.3188626E-1,-1.6884275E-1,5.078112E-2,3.26131E-2,-2.4566703E-2,-8.575566E-1,2.8291544E-1,-4.327736E-2,3.3884358E-2,-4.929316E-2,-1.0287911E-2,-9.56875E-3,3.657279E-2],"categories":[],"categories_nodes":[],"categories_segments":[],"categories_sizes":[],"default_left":[0,0,0,0,0,0,0,0,0,0,0,0,0,0,0,0,0,0,0,0,0,0,0,0,0,0,0,0,0,0,0,0,0,0,0,0,0,0,0,0,0,0,0,0,0,0,0],"id":10,"left_children":[1,3,5,7,9,11,-1,13,15,17,19,21,-1,-1,-1,23,-1,25,-1,27,29,-1,-1,-1,-1,31,-1,33,35,37,-1,-1,-1,-1,39,41,-1,-1,-1,43,45,-1,-1,-1,-1,-1,-1],"loss_changes":[1.1799214E2,5.955816E1,3.1273727E0,2.3413132E1,1.5455461E1,5.1188035E0,0E0,9.5845795E-1,1.5388553E0,1.7777328E1,2.473656E1,1.7240493E0,0E0,0E0,0E0,9.722113E-1,0E0,6.1481965E-1,0E0,1.2366632E1,2.4470396E0,0E0,0E0,0E0,0E0,1.6845167E-1,0E0,3.5275345E0,2.7335076E0,1.76235E0,0E0,0E0,0E0,0E0,2.5478482E0,3.5982835E0,0E0,0E0,0E0,2.1501398E-1,9.0152276E-1,0E0,0E0,0E0,0E0,0E0,0E0],"parents":[2147483647,0,0,1,1,2,2,3,3,4,4,5,5,7,7,8,8,9,9,10,10,11,11,15,15,17,17,19,19,20,20,25,25,27,27,28,28,29,29,34,34,35,35,39,39,40,40],"right_children":[2,4,6,8,10,12,-1,14,16,18,20,22,-1,-1,-1,24,-1,26,-1,28,30,-1,-1,-1,-1,32,-1,34,36,38,-1,-1,-1,-1,40,42,-1,-1,-1,44,46,-1,-1,-1,-1,-1,-1],"split_conditions":[1E0,1E0,1E0,1E0,1E0,1E0,6.593365E-2,1E0,1E0,1E0,1E0,1E0,5.784454E-2,-7.444049E-2,-1.5740948E-2,2.4297722E-1,4.569033E-2,-5.705054E-1,6.628138E-2,1E0,1E0,-2.5901167E-2,2.5039077E-2,1.8792767E-2,-2.6573703E-2,1E0,1.1978189E-2,1E0,1E0,7.8529894E-1,6.0181867E-2,-7.765873E-5,-1.3846404E-2,-6.8171136E-2,1E0,1E0,5.078112E-2,3.26131E-2,-2.4566703E-2,1E0,7.8529894E-1,-4.327736E-2,3.3884358E-2,-4.929316E-2,-1.0287911E-2,-9.56875E-3,3.657279E-2],"split_indices":[4,18,6,6,17,5,0,5,1,19,8,3,0,0,0,9,0,9,0,1,5,0,0,0,0,12,0,3,7,9,0,0,0,0,2,6,0,0,0,7,9,0,0,0,0,0,0],"split_type":[0,0,0,0,0,0,0,0,0,0,0,0,0,0,0,0,0,0,0,0,0,0,0,0,0,0,0,0,0,0,0,0,0,0,0,0,0,0,0,0,0,0,0,0,0,0,0],"sum_hessian":[2.2078888E2,1.616578E2,5.913108E1,5.7456627E1,1.0420118E2,1.1645598E1,4.748548E1,5.1388786E1,6.0678415E0,6.1538536E1,4.2662643E1,4.9494333E0,6.6961656E0,5.006382E1,1.3249681E0,2.795162E0,3.2726798E0,4.856918E1,1.2969355E1,3.2745594E1,9.91705E0,3.1399808E0,1.8094525E0,1.6828502E0,1.1123118E0,3.7372913E1,1.1196265E1,2.6293983E1,6.451609E0,3.458693E0,6.458358E0,3.600462E1,1.3682941E0,1.9717709E1,6.576275E0,4.106494E0,2.3451154E0,1.8918965E0,1.5667964E0,3.9965713E0,2.5797038E0,2.240264E0,1.8662298E0,2.9110105E0,1.0855608E0,1.5325308E0,1.0471729E0],"tree_param":{"num_deleted":"0","num_feature":"20","num_nodes":"47","size_leaf_vector":"1"}},{"base_weights":[3.390831E-2,-4.137596E-1,1.1042206E0,-1.3428884E0,4.5119688E-2,6.58909E-1,6.552732E-2,-1.4035436E0,1.8038647E-2,3.0908963E-1,-3.6248827E-1,2.1276918E-1,5.6300342E-2,-7.246666E-2,1.8160116E-2,3.9516266E-2,1.2126994E0,-7.826522E-1,8.334275E-1,-2.3134302E-1,4.071374E-2,2.6056438E-3,-1.4371084E-1,6.476306E-2,4.061444E-3,-1.1340404E0,1.4395416E-1,1.0444207E-1,5.2735925E-2,4.0621448E-1,-4.3999385E-2,-1.6219478E-2,6.1519844E-3,-6.30089E-2,-1.4924819E-2,-3.315202E-1,5.131948E-2,-1.8404199E-2,2.712412E-2,-4.9908357E-3,4.277877E-2,-4.8490684E-2,4.6788937E-1,3.0705396E-3,3.04469E-2],"categories":[],"categories_nodes":[],"categories_segments":[],"categories_sizes":[],"default_left":[0,0,0,0,0,0,0,0,0,0,0,0,0,0,0,0,0,0,0,0,0,0,0,0,0,0,0,0,0,0,0,0,0,0,0,0,0,0,0,0,0,0,0,0,0],"id":11,"left_children":[1,3,5,7,9,11,-1,13,-1,15,17,19,-1,-1,-1,21,23,25,27,29,-1,-1,31,-1,-1,33,35,37,-1,39,-1,-1,-1,-1,-1,41,-1,-1,-1,-1,-1,-1,43,-1,-1],"loss_changes":[1.03527954E2,6.503867E1,4.9902954E0,5.716278E0,1.1192885E1,4.3833876E0,0E0,4.4813995E0,0E0,1.5309349E1,2.1223654E1,3.5488386E0,0E0,0E0,0E0,1.2195145E-1,1.2449284E0,1.0195412E1,1.6850162E0,3.6721892E0,0E0,0E0,2.064904E-1,0E0,0E0,1.9901791E0,4.2670975E0,9.6579975E-1,0E0,1.1601367E0,0E0,0E0,0E0,0E0,0E0,3.9428203E0,0E0,0E0,0E0,0E0,0E0,0E0,1.7532986E-1,0E0,0E0],"parents":[2147483647,0,0,1,1,2,2,3,3,4,4,5,5,7,7,9,9,10,10,11,11,15,15,16,16,17,17,18,18,19,19,22,22,25,25,26,26,27,27,29,29,35,35,42,42],"right_children":[2,4,6,8,10,12,-1,14,-1,16,18,20,-1,-1,-1,22,24,26,28,30,-1,-1,32,-1,-1,34,36,38,-1,40,-1,-1,-1,-1,-1,42,-1,-1,-1,-1,-1,-1,44,-1,-1],"split_conditions":[1E0,1E0,1E0,1E0,1E0,1E0,6.552732E-2,1E0,1.8038647E-2,1E0,1E0,1E0,5.6300342E-2,-7.246666E-2,1.8160116E-2,1E0,1E0,1E0,1E0,1E0,4.071374E-2,2.6056438E-3,1E0,6.476306E-2,4.061444E-3,1E0,1E0,1E0,5.2735925E-2,1E0,-4.3999385E-2,-1.6219478E-2,6.1519844E-3,-6.30089E-2,-1.4924819E-2,1E0,5.131948E-2,-1.8404199E-2,2.712412E-2,-4.9908357E-3,4.277877E-2,-4.8490684E-2,1E0,3.0705396E-3,3.04469E-2],"split_indices":[5,18,8,1,13,1,0,8,0,19,8,7,0,0,0,12,11,1,6,19,0,0,11,0,0,2,7,2,0,0,0,0,0,0,0,6,0,0,0,0,0,0,19,0,0],"split_type":[0,0,0,0,0,0,0,0,0,0,0,0,0,0,0,0,0,0,0,0,0,0,0,0,0,0,0,0,0,0,0,0,0,0,0,0,0,0,0,0,0,0,0,0,0],"sum_hessian":[2.1411479E2,1.5140266E2,6.2712124E1,4.9417248E1,1.0198542E2,2.1184113E1,4.152801E1,4.7888443E1,1.5288062E0,6.2045795E1,3.993962E1,1.1579593E1,9.604521E0,4.685377E1,1.0346694E0,4.859285E1,1.3452945E1,2.9811455E1,1.0128168E1,7.0153284E0,4.564264E0,4.613661E1,2.4562442E0,1.2403145E1,1.0497999E0,2.14524E1,8.359055E0,2.7013254E0,7.426842E0,3.726386E0,3.2889426E0,1.3355528E0,1.1206913E0,1.8197075E1,3.2553248E0,5.837826E0,2.5212286E0,1.3763366E0,1.324989E0,2.11854E0,1.6078459E0,3.127495E0,2.7103305E0,1.0679793E0,1.6423512E0],"tree_param":{"num_deleted":"0","num_feature":"20","num_nodes":"45","size_leaf_vector":"1"}},{"base_weights":[9.752346E-3,-8.0580306E-1,7.722033E-1,-2.7181008E-1,-6.989409E-2,-1.4686911E-1,1.1896495E0,-6.901056E-2,3.4966508E-1,-6.750672E-2,6.6516155E-1,6.820035E-1,6.650792E-2,8.906017E-1,-1.0691301E0,6.35828E-2,1.8984927E-1,9.8516536E-1,-3.8379457E-2,3.9684057E-1,6.63647E-2,-6.5536454E-2,2.4687333E-2,-2.7099138E-3,4.863943E-2,4.689362E-1,6.3615754E-2,1.1333945E-2,4.7078922E-2,-1.810373E-1,5.3305574E-2,-4.5606803E-2,3.9914723E-2],"categories":[],"categories_nodes":[],"categories_segments":[],"categories_sizes":[],"default_left":[0,0,0,0,0,0,0,0,0,0,0,0,0,0,0,0,0,0,0,0,0,0,0,0,0,0,0,0,0,0,0,0,0],"id":12,"left_children":[1,3,5,7,-1,9,11,-1,13,-1,15,17,-1,19,21,-1,23,25,-1,27,-1,-1,-1,-1,-1,29,-1,-1,-1,31,-1,-1,-1],"loss_changes":[1.3379741E2,3.2491943E1,4.2837746E1,3.8994583E1,0E0,3.5703785E1,4.5549927E0,0E0,2.9057571E1,0E0,6.082902E0,8.953416E0,0E0,5.3075237E0,4.6355095E0,0E0,2.627439E0,1.7550478E0,0E0,1.095917E0,0E0,0E0,0E0,0E0,0E0,3.0086832E0,0E0,0E0,0E0,3.8272018E0,0E0,0E0,0E0],"parents":[2147483647,0,0,1,1,2,2,3,3,5,5,6,6,8,8,10,10,11,11,13,13,14,14,16,16,17,17,19,19,25,25,29,29],"right_children":[2,4,6,8,-1,10,12,-1,14,-1,16,18,-1,20,22,-1,24,26,-1,28,-1,-1,-1,-1,-1,30,-1,-1,-1,32,-1,-1,-1],"split_conditions":[-6.315179E-2,-7.636127E-1,1E0,1E0,-6.989409E-2,1E0,1E0,-6.901056E-2,1E0,-6.750672E-2,6.3730913E-1,1.6880004E0,6.650792E-2,-1.1138432E0,1E0,6.35828E-2,1E0,1E0,-3.8379457E-2,1E0,6.63647E-2,-6.5536454E-2,2.4687333E-2,-2.7099138E-3,4.863943E-2,1E0,6.3615754E-2,1.1333945E-2,4.7078922E-2,1E0,5.3305574E-2,-4.5606803E-2,3.9914723E-2],"split_indices":[10,10,14,18,0,18,6,0,13,0,10,10,0,10,2,0,19,3,0,19,0,0,0,0,0,7,0,0,0,8,0,0,0],"split_type":[0,0,0,0,0,0,0,0,0,0,0,0,0,0,0,0,0,0,0,0,0,0,0,0,0,0,0,0,0,0,0,0,0],"sum_hessian":[2.1316962E2,1.0297045E2,1.10199165E2,5.490814E1,4.8062313E1,3.4621883E1,7.5577286E1,1.9287685E1,3.5620453E1,1.3683312E1,2.093857E1,1.7652874E1,5.7924408E1,2.6057812E1,9.562642E0,8.463634E0,1.2474936E1,1.4864549E1,2.788326E0,1.312562E1,1.2932192E1,8.422047E0,1.1405954E0,1.0220052E1,2.254884E0,6.2541304E0,8.610418E0,1.1080492E1,2.0451279E0,3.3283517E0,2.9257784E0,1.9449818E0,1.3833699E0],"tree_param":{"num_deleted":"0","num_feature":"20","num_nodes":"33","size_leaf_vector":"1"}},{"base_weights":[-3.4516905E-3,-7.9261863E-1,7.320825E-1,-2.5824416E-1,-6.822474E-2,-1.9231449E-1,1.1410297E0,-6.731922E-2,3.2657918E-1,-6.6020265E-2,5.910304E-1,5.828818E-1,6.540438E-2,9.64859E-1,-9.924672E-1,6.1936673E-2,4.4408482E-3,8.958403E-1,-4.702194E-2,3.0282602E-2,6.389176E-2,-6.520667E-2,3.2195542E-2,4.2777553E-1,6.185567E-2,-2.4269357E-1,5.4439176E-2,-4.1819744E-2,3.9102066E-2],"categories":[],"categories_nodes":[],"categories_segments":[],"categories_sizes":[],"default_left":[0,0,0,0,0,0,0,0,0,0,0,0,0,0,0,0,0,0,0,0,0,0,0,0,0,0,0,0,0],"id":13,"left_children":[1,3,5,7,-1,9,11,-1,13,-1,15,17,-1,19,21,-1,-1,23,-1,-1,-1,-1,-1,25,-1,27,-1,-1,-1],"loss_changes":[1.2190547E2,3.0608143E1,4.1312744E1,3.4553345E1,0E0,3.0998974E1,6.2781143E0,0E0,3.0990566E1,0E0,6.6795454E0,9.994707E0,0E0,1.9856701E0,7.023794E0,0E0,0E0,2.0965557E0,0E0,0E0,0E0,0E0,0E0,4.013558E0,0E0,3.7067552E0,0E0,0E0,0E0],"parents":[2147483647,0,0,1,1,2,2,3,3,5,5,6,6,8,8,10,10,11,11,13,13,14,14,17,17,23,23,25,25],"right_children":[2,4,6,8,-1,10,12,-1,14,-1,16,18,-1,20,22,-1,-1,24,-1,-1,-1,-1,-1,26,-1,28,-1,-1,-1],"split_conditions":[-6.315179E-2,-7.636127E-1,1E0,1E0,-6.822474E-2,1E0,1E0,-6.731922E-2,1E0,-6.6020265E-2,6.3730913E-1,1.6880004E0,6.540438E-2,-1.1138432E0,1E0,6.1936673E-2,4.4408482E-3,1E0,-4.702194E-2,3.0282602E-2,6.389176E-2,-6.520667E-2,3.2195542E-2,1E0,6.185567E-2,1E0,5.4439176E-2,-4.1819744E-2,3.9102066E-2],"split_indices":[10,10,11,18,0,18,6,0,11,0,10,10,0,10,8,0,0,3,0,0,0,0,0,1,0,5,0,0,0],"split_type":[0,0,0,0,0,0,0,0,0,0,0,0,0,0,0,0,0,0,0,0,0,0,0,0,0,0,0,0,0],"sum_hessian":[2.0801587E2,1.0031192E2,1.0770395E2,5.260663E1,4.770529E1,3.3196125E1,7.450782E1,1.7934654E1,3.4671974E1,1.332347E1,1.9872656E1,1.8197674E1,5.631015E1,2.3546474E1,1.1125501E1,8.038667E0,1.183399E1,1.54379425E1,2.7597306E0,1.2330143E1,1.1216331E1,9.516093E0,1.6094075E0,7.4599295E0,7.978013E0,4.017634E0,3.4422956E0,2.6601913E0,1.3574426E0],"tree_param":{"num_deleted":"0","num_feature":"20","num_nodes":"29","size_leaf_vector":"1"}},{"base_weights":[1.2547984E-4,-7.624962E-1,7.4351156E-1,-2.2396497E-1,-6.675612E-2,-2.225838E-1,1.1156279E0,-6.573331E-2,3.0520374E-1,-6.393862E-2,5.103767E-1,5.827998E-1,6.426665E-2,7.9807127E-1,-1.0803121E0,5.82209E-2,1.02851495E-1,8.5273445E-1,-5.2609473E-2,3.097067E-1,6.364611E-2,-6.324377E-2,1.0887093E-2,-7.415128E-3,4.615907E-2,2.9062253E-1,6.101316E-2,9.144115E-3,4.202361E-2,7.253992E-1,-3.9402887E-2,5.0833583E-2,-1.6041642E-2],"categories":[],"categories_nodes":[],"categories_segments":[],"categories_sizes":[],"default_left":[0,0,0,0,0,0,0,0,0,0,0,0,0,0,0,0,0,0,0,0,0,0,0,0,0,0,0,0,0,0,0,0,0],"id":14,"left_children":[1,3,5,7,-1,9,11,-1,13,-1,15,17,-1,19,21,-1,23,25,-1,27,-1,-1,-1,-1,-1,29,-1,-1,-1,31,-1,-1,-1],"loss_changes":[1.1496852E2,3.057016E1,3.7166103E1,3.0868843E1,0E0,2.3404179E1,5.9696503E0,0E0,2.5688381E1,0E0,4.69501E0,9.626199E0,0E0,5.9578094E0,2.6625557E0,0E0,2.6558943E0,3.2665138E0,0E0,8.4422374E-1,0E0,0E0,0E0,0E0,0E0,4.437135E0,0E0,0E0,0E0,2.2750306E0,0E0,0E0,0E0],"parents":[2147483647,0,0,1,1,2,2,3,3,5,5,6,6,8,8,10,10,11,11,13,13,14,14,16,16,17,17,19,19,25,25,29,29],"right_children":[2,4,6,8,-1,10,12,-1,14,-1,16,18,-1,20,22,-1,24,26,-1,28,-1,-1,-1,-1,-1,30,-1,-1,-1,32,-1,-1,-1],"split_conditions":[-6.315179E-2,-7.636127E-1,1E0,1E0,-6.675612E-2,1E0,1E0,-6.573331E-2,1E0,-6.393862E-2,6.3730913E-1,2.038231E0,6.426665E-2,-1.1138432E0,1E0,5.82209E-2,1E0,1E0,-5.2609473E-2,1E0,6.364611E-2,-6.324377E-2,1.0887093E-2,-7.415128E-3,4.615907E-2,6.3730913E-1,6.101316E-2,9.144115E-3,4.202361E-2,1.8699424E0,-3.9402887E-2,5.0833583E-2,-1.6041642E-2],"split_indices":[10,10,12,18,0,18,6,0,11,0,10,10,0,10,6,0,19,5,0,19,0,0,0,0,0,10,0,0,0,9,0,0,0],"split_type":[0,0,0,0,0,0,0,0,0,0,0,0,0,0,0,0,0,0,0,0,0,0,0,0,0,0,0,0,0,0,0,0,0],"sum_hessian":[2.0079414E2,9.910206E1,1.0169209E2,5.1788372E1,4.7313686E1,2.8389242E1,7.330285E1,1.6432978E1,3.5355392E1,1.132515E1,1.7064093E1,1.8778303E1,5.4524544E1,2.6391258E1,8.964134E0,5.8377457E0,1.1226347E1,1.6527998E1,2.2503052E0,1.3825018E1,1.2566241E1,7.870614E0,1.0935198E0,9.222103E0,2.004244E0,7.2422233E0,9.285774E0,1.2243939E1,1.5810785E0,5.3951483E0,1.847075E0,4.242331E0,1.1528172E0],"tree_param":{"num_deleted":"0","num_feature":"20","num_nodes":"33","size_leaf_vector":"1"}},{"base_weights":[-1.284608E-2,-8.046127E-1,7.408736E-1,-3.1969315E-1,-6.5403484E-2,-1.6683657E-1,1.1549606E0,-6.4762965E-2,2.2698317E-1,-6.3311495E-2,5.530722E-1,7.1331537E-1,6.335622E-2,7.3944694E-1,-9.5711863E-1,5.891788E-2,1.7217301E-1,9.049649E-1,-4.2587385E-2,1.858753E-1,6.21048E-2,-6.2262703E-2,2.9410748E-2,-4.6878215E-3,4.9116075E-2,4.270175E-1,6.087826E-2,-3.934784E-3,4.7438886E-2,-2.94286E-1,5.2510053E-2,-4.536417E-2,3.6513787E-2],"categories":[],"categories_nodes":[],"categories_segments":[],"categories_sizes":[],"default_left":[0,0,0,0,0,0,0,0,0,0,0,0,0,0,0,0,0,0,0,0,0,0,0,0,0,0,0,0,0,0,0,0,0],"id":15,"left_children":[1,3,5,7,-1,9,11,-1,13,-1,15,17,-1,19,21,-1,23,25,-1,27,-1,-1,-1,-1,-1,29,-1,-1,-1,31,-1,-1,-1],"loss_changes":[1.1973761E2,2.3469044E1,3.883223E1,2.758017E1,0E0,2.6880747E1,2.5994415E0,0E0,2.1120747E1,0E0,4.723717E0,5.753269E0,0E0,6.4590874E0,5.4509993E0,0E0,3.1138372E0,1.7636023E0,0E0,2.6214657E0,0E0,0E0,0E0,0E0,0E0,3.7180018E0,0E0,0E0,0E0,3.3608587E0,0E0,0E0,0E0],"parents":[2147483647,0,0,1,1,2,2,3,3,5,5,6,6,8,8,10,10,11,11,13,13,14,14,16,16,17,17,19,19,25,25,29,29],"right_children":[2,4,6,8,-1,10,12,-1,14,-1,16,18,-1,20,22,-1,24,26,-1,28,-1,-1,-1,-1,-1,30,-1,-1,-1,32,-1,-1,-1],"split_conditions":[-6.315179E-2,-7.636127E-1,1E0,1E0,-6.5403484E-2,1E0,1E0,-6.4762965E-2,1E0,-6.3311495E-2,6.3730913E-1,2.038231E0,6.335622E-2,-1.1138432E0,1E0,5.891788E-2,1E0,1E0,-4.2587385E-2,1E0,6.21048E-2,-6.2262703E-2,2.9410748E-2,-4.6878215E-3,4.9116075E-2,1E0,6.087826E-2,-3.934784E-3,4.7438886E-2,1E0,5.2510053E-2,-4.536417E-2,3.6513787E-2],"split_indices":[10,10,14,18,0,18,6,0,13,0,10,10,0,10,2,0,19,3,0,19,0,0,0,0,0,4,0,0,0,1,0,0,0],"split_type":[0,0,0,0,0,0,0,0,0,0,0,0,0,0,0,0,0,0,0,0,0,0,0,0,0,0,0,0,0,0,0,0,0],"sum_hessian":[1.9864389E2,9.6843895E1,1.01799995E2,5.0162945E1,4.6680946E1,3.2078533E1,6.9721466E1,1.7523039E1,3.2639908E1,1.2393376E1,1.9685156E1,1.5611343E1,5.4110123E1,2.3042805E1,9.597103E0,6.6594157E0,1.3025741E1,1.4283973E1,1.3273709E0,1.16178055E1,1.1424999E1,8.252556E0,1.3445475E0,1.0472453E1,2.553287E0,6.5837793E0,7.7001934E0,9.2921715E0,2.3256345E0,3.2962759E0,3.2875035E0,2.1339786E0,1.1622971E0],"tree_param":{"num_deleted":"0","num_feature":"20","num_nodes":"33","size_leaf_vector":"1"}},{"base_weights":[-1.7481077E-2,-7.9472756E-1,7.325097E-1,-2.946946E-1,-6.506808E-2,-7.602102E-2,1.1053274E0,-6.342111E-2,2.3997562E-1,-6.1631706E-2,5.866676E-1,6.301725E-1,6.2395126E-2,7.9812455E-1,-1.056061E0,5.852295E-2,9.680012E-3,9.565217E-1,-7.847019E-1,1.8212734E-2,6.0462024E-2,-6.1412204E-2,1.0730746E-2,5.803486E-1,5.9265383E-2,-4.7377642E-2,-9.3292175E-3,8.454094E-2,5.0071158E-2,-4.1247968E-2,4.410432E-2],"categories":[],"categories_nodes":[],"categories_segments":[],"categories_sizes":[],"default_left":[0,0,0,0,0,0,0,0,0,0,0,0,0,0,0,0,0,0,0,0,0,0,0,0,0,0,0,0,0,0,0],"id":16,"left_children":[1,3,5,7,-1,9,11,-1,13,-1,15,17,-1,19,21,-1,-1,23,25,-1,-1,-1,-1,27,-1,-1,-1,29,-1,-1,-1],"loss_changes":[1.1178042E2,2.3469524E1,2.9504555E1,2.5648195E1,0E0,2.5049072E1,3.7433395E0,0E0,2.4183147E1,0E0,4.558859E0,8.809269E0,0E0,3.6839027E0,2.4827833E0,0E0,0E0,5.714121E-1,1.9532633E-1,0E0,0E0,0E0,0E0,1.4796741E0,0E0,0E0,0E0,4.0160317E0,0E0,0E0,0E0],"parents":[2147483647,0,0,1,1,2,2,3,3,5,5,6,6,8,8,10,10,11,11,13,13,14,14,17,17,18,18,23,23,27,27],"right_children":[2,4,6,8,-1,10,12,-1,14,-1,16,18,-1,20,22,-1,-1,24,26,-1,-1,-1,-1,28,-1,-1,-1,30,-1,-1,-1],"split_conditions":[-6.315179E-2,-7.636127E-1,1E0,1E0,-6.506808E-2,1E0,1E0,-6.342111E-2,1E0,-6.1631706E-2,6.3730913E-1,1.33777E0,6.2395126E-2,-1.1138432E0,1E0,5.852295E-2,9.680012E-3,1E0,-2.818365E-2,1.8212734E-2,6.0462024E-2,-6.1412204E-2,1.0730746E-2,1E0,5.9265383E-2,-4.7377642E-2,-9.3292175E-3,1E0,5.0071158E-2,-4.1247968E-2,4.410432E-2],"split_indices":[10,10,14,18,0,18,6,0,12,0,10,10,0,10,5,0,0,0,9,0,0,0,0,8,0,0,0,7,0,0,0],"split_type":[0,0,0,0,0,0,0,0,0,0,0,0,0,0,0,0,0,0,0,0,0,0,0,0,0,0,0,0,0,0,0],"sum_hessian":[1.8975829E2,9.31566E1,9.660169E1,4.7679752E1,4.547685E1,3.0737432E1,6.586426E1,1.6414232E1,3.1265518E1,1.0882968E1,1.9854465E1,1.6452745E1,4.9411514E1,2.2122473E1,9.143045E0,7.19321E0,1.2661255E1,1.3632321E1,2.820423E0,1.168099E1,1.0441483E1,8.081372E0,1.0616733E0,6.4930325E0,7.1392894E0,1.7576406E0,1.0627823E0,3.5333502E0,2.9596822E0,1.6347502E0,1.8986E0],"tree_param":{"num_deleted":"0","num_feature":"20","num_nodes":"31","size_leaf_vector":"1"}},{"base_weights":[-1.2514227E-3,-7.0084417E-1,6.6515476E-1,-2.1539131E-1,-6.2487554E-2,-1.4067376E-1,1.0644801E0,1.4968176E-2,-9.3076813E-1,5.6878623E-2,-5.1498353E-1,5.420288E-1,6.1538596E-2,-2.3360384E-1,2.5441173E-1,-6.1040577E-2,3.2129772E-2,-5.2666385E-2,-1.1890582E-2,8.4853417E-1,-4.3112498E-2,-1.5085814E-2,1.3666454E-2,1.3922761E-2,2.580632E-3,3.099094E-1,5.7444032E-2,-3.3825517E-1,4.8997916E-2,5.3944318E-3,-3.5907432E-2],"categories":[],"categories_nodes":[],"categories_segments":[],"categories_sizes":[],"default_left":[0,0,0,0,0,0,0,0,0,0,0,0,0,0,0,0,0,0,0,0,0,0,0,0,0,0,0,0,0,0,0],"id":17,"left_children":[1,3,5,7,-1,9,11,13,15,-1,17,19,-1,21,23,-1,-1,-1,-1,25,-1,-1,-1,-1,-1,27,-1,29,-1,-1,-1],"loss_changes":[8.802412E1,2.4274952E1,3.1265907E1,8.268124E0,0E0,1.63386E1,4.9604034E0,2.3730457E0,6.359227E0,0E0,3.6521783E0,8.232197E0,0E0,7.590078E-1,8.4504485E-2,0E0,0E0,0E0,0E0,2.0395155E0,0E0,0E0,0E0,0E0,0E0,3.2285275E0,0E0,7.7815104E-1,0E0,0E0,0E0],"parents":[2147483647,0,0,1,1,2,2,3,3,5,5,6,6,7,7,8,8,10,10,11,11,13,13,14,14,19,19,25,25,27,27],"right_children":[2,4,6,8,-1,10,12,14,16,-1,18,20,-1,22,24,-1,-1,-1,-1,26,-1,-1,-1,-1,-1,28,-1,30,-1,-1,-1],"split_conditions":[-6.315179E-2,-7.636127E-1,1E0,1E0,-6.2487554E-2,6.3730913E-1,1E0,-1.1138432E0,1E0,5.6878623E-2,-5.705054E-1,1.6880004E0,6.1538596E-2,-5.705054E-1,-5.705054E-1,-6.1040577E-2,3.2129772E-2,-5.2666385E-2,-1.1890582E-2,1E0,-4.3112498E-2,-1.5085814E-2,1.3666454E-2,1.3922761E-2,2.580632E-3,1E0,5.7444032E-2,2.8707865E-1,4.8997916E-2,5.3944318E-3,-3.5907432E-2],"split_indices":[10,10,14,11,0,10,6,10,4,0,9,10,0,9,9,0,0,0,0,5,0,0,0,0,0,1,0,10,0,0,0],"split_type":[0,0,0,0,0,0,0,0,0,0,0,0,0,0,0,0,0,0,0,0,0,0,0,0,0,0,0,0,0,0,0],"sum_hessian":[1.8680678E2,9.110896E1,9.569781E1,4.9087982E1,4.202098E1,3.1923899E1,6.377391E1,3.7871883E1,1.1216101E1,6.769008E0,2.515489E1,1.6426157E1,4.7347755E1,1.8593706E1,1.9278177E1,9.659488E0,1.5566132E0,7.597732E0,1.7557158E1,1.3808082E1,2.618075E0,1.6748207E1,1.8454998E0,1.6901327E1,2.3768504E0,5.670593E0,8.137488E0,3.134066E0,2.5365267E0,1.7706418E0,1.3634243E0],"tree_param":{"num_deleted":"0","num_feature":"20","num_nodes":"31","size_leaf_vector":"1"}},{"base_weights":[2.6271531E-2,-6.5242624E-1,6.7778426E-1,-1.5387173E-1,-6.1327893E-2,-2.2036421E-1,1.072211E0,-6.212724E-2,3.631177E-1,-6.0414296E-2,4.6100205E-1,6.386683E-1,6.078744E-2,8.461436E-1,-8.973087E-1,5.567881E-2,3.494534E-3,9.0547466E-1,-4.877926E-2,4.513982E-1,6.0110625E-2,-5.9190314E-2,2.9630093E-2,4.6334487E-1,5.857454E-2,1.6764503E-2,4.4144604E-2,-1.7312142E-1,5.1411163E-2,-3.6241565E-2,3.61579E-2],"categories":[],"categories_nodes":[],"categories_segments":[],"categories_sizes":[],"default_left":[0,0,0,0,0,0,0,0,0,0,0,0,0,0,0,0,0,0,0,0,0,0,0,0,0,0,0,0,0,0,0],"id":18,"left_children":[1,3,5,7,-1,9,11,-1,13,-1,15,17,-1,19,21,-1,-1,23,-1,25,-1,-1,-1,27,-1,-1,-1,29,-1,-1,-1],"loss_changes":[8.236226E1,2.5929844E1,3.3895897E1,2.858276E1,0E0,2.0632187E1,3.3426666E0,0E0,2.1862612E1,0E0,4.6117353E0,8.881668E0,0E0,3.0519314E0,5.007946E0,0E0,0E0,1.3925714E0,0E0,3.9182568E-1,0E0,0E0,0E0,2.9951773E0,0E0,0E0,0E0,2.7692935E0,0E0,0E0,0E0],"parents":[2147483647,0,0,1,1,2,2,3,3,5,5,6,6,8,8,10,10,11,11,13,13,14,14,17,17,19,19,23,23,27,27],"right_children":[2,4,6,8,-1,10,12,-1,14,-1,16,18,-1,20,22,-1,-1,24,-1,26,-1,-1,-1,28,-1,-1,-1,30,-1,-1,-1],"split_conditions":[-6.315179E-2,-7.636127E-1,1E0,1E0,-6.1327893E-2,1E0,1E0,-6.212724E-2,1E0,-6.0414296E-2,-5.705054E-1,2.038231E0,6.078744E-2,-1.1138432E0,1E0,5.567881E-2,3.494534E-3,1E0,-4.877926E-2,-5.705054E-1,6.0110625E-2,-5.9190314E-2,2.9630093E-2,1E0,5.857454E-2,1.6764503E-2,4.4144604E-2,1E0,5.1411163E-2,-3.6241565E-2,3.61579E-2],"split_indices":[10,10,11,18,0,18,6,0,11,0,9,10,0,10,5,0,0,7,0,9,0,0,0,3,0,0,0,4,0,0,0],"split_type":[0,0,0,0,0,0,0,0,0,0,0,0,0,0,0,0,0,0,0,0,0,0,0,0,0,0,0,0,0,0,0],"sum_hessian":[1.8426393E2,9.024841E1,9.4015526E1,4.8982143E1,4.1266266E1,2.8823317E1,6.519221E1,1.5319344E1,3.36628E1,1.1449382E1,1.7373934E1,1.7570766E1,4.762144E1,2.4574097E1,9.088705E0,5.818495E0,1.1555439E1,1.5455356E1,2.1154106E0,1.2729563E1,1.1844533E1,7.7952027E0,1.293502E0,6.835788E0,8.619568E0,1.1430769E1,1.2987944E0,3.540321E0,3.295467E0,2.3097994E0,1.2305216E0],"tree_param":{"num_deleted":"0","num_feature":"20","num_nodes":"31","size_leaf_vector":"1"}},{"base_weights":[2.995128E-2,-6.6626394E-1,7.424774E-1,-1.9830823E-1,-6.035322E-2,2.1170652E-1,6.0077738E-2,-6.1248522E-2,2.994565E-1,-9.20254E-1,6.8073136E-1,7.196149E-1,-8.190781E-1,-5.7677347E-2,3.5782155E-2,1.032821E0,3.0092117E-1,2.4108085E-1,5.936236E-2,-5.7962388E-2,3.2148447E-2,5.7068165E-2,2.9826936E-1,1.1286195E-1,4.6148866E-2,3.940835E-3,4.7134966E-2,-1.6582763E-2,3.729106E-2,1.5499583E-2,-4.3945286E-2],"categories":[],"categories_nodes":[],"categories_segments":[],"categories_sizes":[],"default_left":[0,0,0,0,0,0,0,0,0,0,0,0,0,0,0,0,0,0,0,0,0,0,0,0,0,0,0,0,0,0,0],"id":19,"left_children":[1,3,5,7,-1,9,-1,-1,11,13,15,17,19,-1,-1,21,23,25,-1,-1,-1,-1,27,29,-1,-1,-1,-1,-1,-1,-1],"loss_changes":[8.9323204E1,2.281427E1,2.1424076E1,2.5935778E1,0E0,2.3177746E1,0E0,0E0,1.6803032E1,5.7368946E0,3.7822027E0,5.4450855E0,5.663236E0,0E0,0E0,8.931484E-1,1.7833679E0,1.5096645E0,0E0,0E0,0E0,0E0,1.1905855E0,2.9174304E0,0E0,0E0,0E0,0E0,0E0,0E0,0E0],"parents":[2147483647,0,0,1,1,2,2,3,3,5,5,8,8,9,9,10,10,11,11,12,12,15,15,16,16,17,17,22,22,23,23],"right_children":[2,4,6,8,-1,10,-1,-1,12,14,16,18,20,-1,-1,22,24,26,-1,-1,-1,-1,28,30,-1,-1,-1,-1,-1,-1,-1],"split_conditions":[-6.315179E-2,-7.636127E-1,1E0,1E0,-6.035322E-2,1E0,6.0077738E-2,-6.1248522E-2,1E0,1E0,6.3730913E-1,-1.1138432E0,1E0,-5.7677347E-2,3.5782155E-2,1.8699424E0,1E0,-5.705054E-1,5.936236E-2,-5.7962388E-2,3.2148447E-2,5.7068165E-2,1E0,1E0,4.6148866E-2,3.940835E-3,4.7134966E-2,-1.6582763E-2,3.729106E-2,1.5499583E-2,-4.3945286E-2],"split_indices":[10,10,6,18,0,18,0,0,13,5,10,10,2,0,0,9,5,9,0,0,0,0,0,12,0,0,0,0,0,0,0],"split_type":[0,0,0,0,0,0,0,0,0,0,0,0,0,0,0,0,0,0,0,0,0,0,0,0,0,0,0,0,0,0,0],"sum_hessian":[1.7806393E2,9.009566E1,8.7968285E1,4.9033535E1,4.106212E1,4.147609E1,4.64922E1,1.553368E1,3.3499855E1,1.1868995E1,2.9607094E1,2.4611582E1,8.888275E0,1.0645682E1,1.2233123E0,1.4472013E1,1.5135081E1,1.2913037E1,1.16985445E1,7.378622E0,1.5096536E0,1.2126324E1,2.3456895E0,1.2528819E1,2.606263E0,1.1390969E1,1.5220678E0,1.081893E0,1.2637966E0,1.1024882E1,1.5039368E0],"tree_param":{"num_deleted":"0","num_feature":"20","num_nodes":"31","size_leaf_vector":"1"}},{"base_weights":[-8.965512E-4,-6.613466E-1,6.338091E-1,-1.5484059E-1,-6.0637303E-2,-8.09557E-2,1.0138499E0,-6.0189325E-2,3.521553E-1,-5.8660217E-2,5.338171E-1,5.4286283E-1,5.9525438E-2,8.0202997E-1,-8.4041727E-1,5.5525716E-2,1.696422E-1,8.3683807E-1,-3.6383048E-2,4.4988805E-1,5.7972472E-2,-5.6851294E-2,3.7632804E-2,6.0821854E-4,4.2309895E-2,4.3166518E-1,5.5561494E-2,1.4873261E-2,4.4483166E-2,-1.5849471E-1,4.819639E-2,-3.6785416E-2,3.6044788E-2],"categories":[],"categories_nodes":[],"categories_segments":[],"categories_sizes":[],"default_left":[0,0,0,0,0,0,0,0,0,0,0,0,0,0,0,0,0,0,0,0,0,0,0,0,0,0,0,0,0,0,0,0,0],"id":20,"left_children":[1,3,5,7,-1,9,11,-1,13,-1,15,17,-1,19,21,-1,23,25,-1,27,-1,-1,-1,-1,-1,29,-1,-1,-1,31,-1,-1,-1],"loss_changes":[7.52027E1,2.4366043E1,2.4932629E1,2.5402985E1,0E0,2.2572268E1,4.3293686E0,0E0,1.807761E1,0E0,4.347923E0,7.388032E0,0E0,2.5072784E0,5.2849064E0,0E0,1.5259988E0,1.2107229E0,0E0,6.5745425E-1,0E0,0E0,0E0,0E0,0E0,2.5949059E0,0E0,0E0,0E0,2.8376637E0,0E0,0E0,0E0],"parents":[2147483647,0,0,1,1,2,2,3,3,5,5,6,6,8,8,10,10,11,11,13,13,14,14,16,16,17,17,19,19,25,25,29,29],"right_children":[2,4,6,8,-1,10,12,-1,14,-1,16,18,-1,20,22,-1,24,26,-1,28,-1,-1,-1,-1,-1,30,-1,-1,-1,32,-1,-1,-1],"split_conditions":[-6.315179E-2,-7.636127E-1,1E0,1E0,-6.0637303E-2,1E0,1E0,-6.0189325E-2,1E0,-5.8660217E-2,6.3730913E-1,1.6880004E0,5.9525438E-2,-1.1138432E0,1E0,5.5525716E-2,1E0,1E0,-3.6383048E-2,1E0,5.7972472E-2,-5.6851294E-2,3.7632804E-2,6.0821854E-4,4.2309895E-2,1E0,5.5561494E-2,1.4873261E-2,4.4483166E-2,1E0,4.819639E-2,-3.6785416E-2,3.6044788E-2],"split_indices":[10,10,11,18,0,18,5,0,11,0,10,10,0,10,4,0,19,3,0,19,0,0,0,0,0,1,0,0,0,7,0,0,0],"split_type":[0,0,0,0,0,0,0,0,0,0,0,0,0,0,0,0,0,0,0,0,0,0,0,0,0,0,0,0,0,0,0,0,0],"sum_hessian":[1.773995E2,8.691605E1,9.048345E1,4.5969795E1,4.0946255E1,3.1682785E1,5.8800663E1,1.4531203E1,3.1438591E1,1.1083214E1,2.0599571E1,1.7150076E1,4.165059E1,2.3065182E1,8.37341E0,7.1800485E0,1.3419522E1,1.4204717E1,2.9453588E0,1.2756123E1,1.0309059E1,7.300437E0,1.072973E0,1.1711489E1,1.7080336E0,6.774507E0,7.4302096E0,1.0717812E1,2.0383112E0,3.5455317E0,3.228975E0,2.2391734E0,1.3063583E0],"tree_param":{"num_deleted":"0","num_feature":"20","num_nodes":"33","size_leaf_vector":"1"}},{"base_weights":[2.0337723E-2,-6.301469E-1,6.4312345E-1,-1.3727835E-1,-5.9467297E-2,1.4366712E-1,5.8692772E-2,-5.9384067E-2,3.9344785E-1,-9.223183E-1,5.935645E-1,7.7778E-1,-7.280488E-1,-5.793307E-2,1.6506214E-2,6.943486E-1,-4.2564113E-2,4.340785E-1,5.691802E-2,-5.5380423E-2,3.320908E-2,5.031776E-2,3.784069E-1,1.4225446E-2,4.367339E-2,8.26635E-2,4.7749814E-2,-1.7809718E-3,3.3868756E-2],"categories":[],"categories_nodes":[],"categories_segments":[],"categories_sizes":[],"default_left":[0,0,0,0,0,0,0,0,0,0,0,0,0,0,0,0,0,0,0,0,0,0,0,0,0,0,0,0,0],"id":21,"left_children":[1,3,5,7,-1,9,-1,-1,11,13,15,17,19,-1,-1,21,-1,23,-1,-1,-1,-1,25,-1,-1,27,-1,-1,-1],"loss_changes":[6.917176E1,2.2859138E1,2.2949978E1,2.5849064E1,0E0,2.2642197E1,0E0,0E0,1.3927365E1,4.5457745E0,5.3973093E0,2.4269524E0,5.189401E0,0E0,0E0,2.7149048E0,0E0,6.507821E-1,0E0,0E0,0E0,0E0,2.8551376E0,0E0,0E0,9.011625E-1,0E0,0E0,0E0],"parents":[2147483647,0,0,1,1,2,2,3,3,5,5,8,8,9,9,10,10,11,11,12,12,15,15,17,17,22,22,25,25],"right_children":[2,4,6,8,-1,10,-1,-1,12,14,16,18,20,-1,-1,22,-1,24,-1,-1,-1,-1,26,-1,-1,28,-1,-1,-1],"split_conditions":[-6.315179E-2,-7.636127E-1,1E0,1E0,-5.9467297E-2,1E0,5.8692772E-2,-5.9384067E-2,1E0,1E0,2.038231E0,-1.1138432E0,1E0,-5.793307E-2,1.6506214E-2,6.3730913E-1,-4.2564113E-2,1E0,5.691802E-2,-5.5380423E-2,3.320908E-2,5.031776E-2,1E0,1.4225446E-2,4.367339E-2,1E0,4.7749814E-2,-1.7809718E-3,3.3868756E-2],"split_indices":[10,10,6,18,0,18,0,0,11,11,10,10,7,0,0,10,0,19,0,0,0,0,19,0,0,5,0,0,0],"split_type":[0,0,0,0,0,0,0,0,0,0,0,0,0,0,0,0,0,0,0,0,0,0,0,0,0,0,0,0,0],"sum_hessian":[1.6874666E2,8.2532074E1,8.6214584E1,4.452977E1,3.8002304E1,4.507063E1,4.114395E1,1.4531488E1,2.9998283E1,1.3064822E1,3.200581E1,2.257009E1,7.4281936E0,1.1053788E1,2.0110345E0,3.0404406E1,1.6014016E0,1.2683828E1,9.886261E0,5.9975386E0,1.4306549E0,1.4197992E1,1.6206415E1,1.069181E1,1.9920188E0,1.1467755E1,4.7386594E0,1.0349447E1,1.1183078E0],"tree_param":{"num_deleted":"0","num_feature":"20","num_nodes":"29","size_leaf_vector":"1"}},{"base_weights":[6.320686E-2,-5.861398E-1,6.937494E-1,-9.7971104E-2,-5.717917E-2,-2.4676502E-2,1.0229217E0,-5.8171507E-2,3.8568377E-1,-5.661245E-2,6.718213E-1,5.7602185E-1,5.8121182E-2,8.6837953E-1,-8.3578897E-1,5.2743014E-2,3.8830632E-1,8.32088E-1,-4.410798E-2,2.9502258E-2,5.628403E-2,-5.5703014E-2,2.5784472E-2,8.483867E-3,4.501695E-2,4.2456293E-1,5.444801E-2,-1.23131685E-1,4.561473E-2,-3.3261195E-2,3.559005E-2],"categories":[],"categories_nodes":[],"categories_segments":[],"categories_sizes":[],"default_left":[0,0,0,0,0,0,0,0,0,0,0,0,0,0,0,0,0,0,0,0,0,0,0,0,0,0,0,0,0,0,0],"id":22,"left_children":[1,3,5,7,-1,9,11,-1,13,-1,15,17,-1,19,21,-1,23,25,-1,-1,-1,-1,-1,-1,-1,27,-1,29,-1,-1,-1],"loss_changes":[6.639958E1,2.1643702E1,1.9471733E1,2.297602E1,0E0,2.1446177E1,2.8476028E0,0E0,1.8896091E1,0E0,1.4463186E0,6.485538E0,0E0,9.528408E-1,4.048938E0,0E0,1.1237911E0,9.631367E-1,0E0,0E0,0E0,0E0,0E0,0E0,0E0,1.9565154E0,0E0,2.3441684E0,0E0,0E0,0E0],"parents":[2147483647,0,0,1,1,2,2,3,3,5,5,6,6,8,8,10,10,11,11,13,13,14,14,16,16,17,17,25,25,27,27],"right_children":[2,4,6,8,-1,10,12,-1,14,-1,16,18,-1,20,22,-1,24,26,-1,-1,-1,-1,-1,-1,-1,28,-1,30,-1,-1,-1],"split_conditions":[-6.315179E-2,-7.636127E-1,1E0,1E0,-5.717917E-2,1E0,1E0,-5.8171507E-2,1E0,-5.661245E-2,6.3730913E-1,2.038231E0,5.8121182E-2,-1.1138432E0,1E0,5.2743014E-2,1E0,1E0,-4.410798E-2,2.9502258E-2,5.628403E-2,-5.5703014E-2,2.5784472E-2,8.483867E-3,4.501695E-2,1E0,5.444801E-2,1E0,4.561473E-2,-3.3261195E-2,3.559005E-2],"split_indices":[10,10,11,18,0,18,6,0,11,0,10,10,0,10,8,0,19,7,0,0,0,0,0,0,0,8,0,0,0,0,0],"split_type":[0,0,0,0,0,0,0,0,0,0,0,0,0,0,0,0,0,0,0,0,0,0,0,0,0,0,0,0,0,0,0],"sum_hessian":[1.6017825E2,7.894715E1,8.12311E1,4.2715645E1,3.623151E1,2.5814783E1,5.5416317E1,1.2897603E1,2.9818043E1,9.724781E0,1.6090002E1,1.440344E1,4.1012875E1,2.157945E1,8.238592E0,5.6865788E0,1.0403424E1,1.2617152E1,1.7862879E0,1.1947979E1,9.631472E0,6.977573E0,1.2610192E0,8.22351E0,2.1799145E0,5.9037423E0,6.71341E0,3.1330497E0,2.7706926E0,2.022908E0,1.110142E0],"tree_param":{"num_deleted":"0","num_feature":"20","num_nodes":"31","size_leaf_vector":"1"}},{"base_weights":[3.5426702E-2,-2.5416747E-1,5.317883E-2,-9.911953E-1,7.112557E-2,-1.132569E0,5.996912E-1,3.297827E-1,-3.035524E-1,-1.179016E0,1.1981669E-2,7.038876E-3,3.717575E-2,1.2710975E-1,5.631292E-2,-6.7213887E-1,5.109972E-1,-5.994883E-2,-1.4533653E-2,2.912847E-3,1.352373E-2,-9.5638627E-1,2.4140428E-1,4.485762E-2,4.2120334E-2,-1.1511445E0,-3.7859333E-1,-1.9055867E-1,4.1297816E-2,-1.951317E-2,3.917441E-1,-5.995139E-2,-1.3478185E-2,-4.017739E-2,2.017094E-2,-2.0965895E-2,1.1766679E-2,3.764229E-3,3.1291116E-2],"categories":[],"categories_nodes":[],"categories_segments":[],"categories_sizes":[],"default_left":[0,0,0,0,0,0,0,0,0,0,0,0,0,0,0,0,0,0,0,0,0,0,0,0,0,0,0,0,0,0,0,0,0,0,0,0,0,0,0],"id":23,"left_children":[1,3,-1,5,7,9,11,13,15,17,-1,-1,-1,19,-1,21,23,-1,-1,-1,-1,25,27,29,-1,31,33,35,-1,-1,37,-1,-1,-1,-1,-1,-1,-1,-1],"loss_changes":[4.861936E1,3.0639656E1,0E0,9.475399E0,8.763584E0,2.593834E0,1.4915419E-1,8.471156E0,1.1460979E1,2.7646637E-1,0E0,0E0,0E0,4.152829E-1,0E0,6.96305E0,1.8320909E0,0E0,0E0,0E0,0E0,1.811945E0,1.9125211E0,1.0714784E0,0E0,2.867279E-1,2.4927669E0,5.6727004E-1,0E0,0E0,2.4069786E-1,0E0,0E0,0E0,0E0,0E0,0E0,0E0,0E0],"parents":[2147483647,0,0,1,1,3,3,4,4,5,5,6,6,7,7,8,8,9,9,13,13,15,15,16,16,21,21,22,22,23,23,25,25,26,26,27,27,30,30],"right_children":[2,4,-1,6,8,10,12,14,16,18,-1,-1,-1,20,-1,22,24,-1,-1,-1,-1,26,28,30,-1,32,34,36,-1,-1,38,-1,-1,-1,-1,-1,-1,-1,-1],"split_conditions":[1E0,1E0,5.317883E-2,1E0,1E0,1E0,1E0,1E0,1E0,1E0,1.1981669E-2,7.038876E-3,3.717575E-2,-5.705054E-1,5.631292E-2,1E0,1E0,-5.994883E-2,-1.4533653E-2,2.912847E-3,1.352373E-2,1E0,1E0,1E0,4.2120334E-2,1E0,1E0,1E0,4.1297816E-2,-1.951317E-2,1E0,-5.995139E-2,-1.3478185E-2,-4.017739E-2,2.017094E-2,-2.0965895E-2,1.1766679E-2,3.764229E-3,3.1291116E-2],"split_indices":[8,18,0,5,11,1,6,19,4,6,0,0,0,9,0,7,5,0,0,0,0,0,1,6,0,2,6,6,0,0,1,0,0,0,0,0,0,0,0],"split_type":[0,0,0,0,0,0,0,0,0,0,0,0,0,0,0,0,0,0,0,0,0,0,0,0,0,0,0,0,0,0,0,0,0,0,0,0,0,0,0],"sum_hessian":[1.6138336E2,1.2650429E2,3.4879078E1,3.8110012E1,8.839427E1,3.5264347E1,2.8456652E0,5.236451E1,3.6029762E1,3.4245956E1,1.0183895E0,1.1512071E0,1.6944581E0,4.266697E1,9.69754E0,2.4925653E1,1.110411E1,3.3151382E1,1.0945745E0,2.9773987E1,1.2892984E1,1.8974783E1,5.9508696E0,5.0859246E0,6.0181856E0,1.3449135E1,5.525649E0,3.8096695E0,2.1412E0,2.2005692E0,2.8853552E0,1.2414737E1,1.0343981E0,3.5623095E0,1.9633393E0,2.4884741E0,1.3211954E0,1.7887268E0,1.0966285E0],"tree_param":{"num_deleted":"0","num_feature":"20","num_nodes":"39","size_leaf_vector":"1"}},{"base_weights":[2.523699E-2,-6.0435575E-1,6.3979745E-1,-1.5712425E-1,-5.6127716E-2,1.1994501E-1,5.719906E-2,-5.6584697E-2,2.5065166E-1,-9.539656E-1,5.890017E-1,6.3847774E-1,-8.5437924E-1,-5.548943E-2,5.337842E-4,6.803463E-1,-3.772877E-2,2.8591344E-1,5.4940935E-2,-5.398562E-2,2.0243116E-2,3.9671862E-1,5.5710983E-2,5.6467205E-3,4.380432E-2,4.0504098E-2,1.1990738E-1,8.2010515E-3,-5.1447456E-3],"categories":[],"categories_nodes":[],"categories_segments":[],"categories_sizes":[],"default_left":[0,0,0,0,0,0,0,0,0,0,0,0,0,0,0,0,0,0,0,0,0,0,0,0,0,0,0,0,0],"id":24,"left_children":[1,3,5,7,-1,9,-1,-1,11,13,15,17,19,-1,-1,21,-1,23,-1,-1,-1,25,-1,-1,-1,-1,27,-1,-1],"loss_changes":[6.1189754E1,1.793236E1,2.0832897E1,1.741321E1,0E0,2.0967228E1,0E0,0E0,1.3919598E1,1.92027E0,4.0495014E0,3.5278187E0,2.8589053E0,0E0,0E0,2.942606E0,0E0,1.4075706E0,0E0,0E0,0E0,1.9836345E0,0E0,0E0,0E0,0E0,1.3545999E-1,0E0,0E0],"parents":[2147483647,0,0,1,1,2,2,3,3,5,5,8,8,9,9,10,10,11,11,12,12,15,15,17,17,21,21,26,26],"right_children":[2,4,6,8,-1,10,-1,-1,12,14,16,18,20,-1,-1,22,-1,24,-1,-1,-1,26,-1,-1,-1,-1,28,-1,-1],"split_conditions":[-6.315179E-2,-7.636127E-1,1E0,1E0,-5.6127716E-2,1E0,5.719906E-2,-5.6584697E-2,1E0,1E0,2.038231E0,-1.1138432E0,1E0,-5.548943E-2,5.337842E-4,1E0,-3.772877E-2,1E0,5.4940935E-2,-5.398562E-2,2.0243116E-2,6.3730913E-1,5.5710983E-2,5.6467205E-3,4.380432E-2,4.0504098E-2,1E0,8.2010515E-3,-5.1447456E-3],"split_indices":[10,10,6,18,0,18,0,0,13,14,10,10,4,0,0,19,0,19,0,0,0,10,0,0,0,0,12,0,0],"split_type":[0,0,0,0,0,0,0,0,0,0,0,0,0,0,0,0,0,0,0,0,0,0,0,0,0,0,0,0,0],"sum_hessian":[1.5614525E2,7.713753E1,7.900772E1,4.2103394E1,3.5034138E1,3.9508896E1,3.949883E1,1.1896323E1,3.020707E1,1.1696297E1,2.7812601E1,2.2672163E1,7.5349054E0,9.94015E0,1.756146E0,2.6504305E1,1.3082947E0,1.37570505E1,8.9151125E0,6.5121646E0,1.0227408E0,1.718479E1,9.319516E0,1.1560144E1,2.196907E0,6.119716E0,1.1065073E1,9.456553E0,1.6085198E0],"tree_param":{"num_deleted":"0","num_feature":"20","num_nodes":"29","size_leaf_vector":"1"}},{"base_weights":[4.185876E-2,-5.760095E-1,6.322566E-1,-1.3457987E-1,-5.519708E-2,1.9782996E-1,5.685666E-2,-5.618903E-2,3.152941E-1,-8.5484207E-1,5.9300756E-1,6.529863E-1,-7.376022E-1,-5.4519445E-2,1.6037767E-1,4.996264E-2,2.1322802E-1,1.4951541E-2,5.4581042E-2,-5.1968675E-2,2.416826E-2,1.7215144E-2,-5.1473365E-3,3.4872898E-1,-3.9180238E-2,2.0617315E-1,4.1498248E-2,1.4047991E-2,-1.4671393E-2],"categories":[],"categories_nodes":[],"categories_segments":[],"categories_sizes":[],"default_left":[0,0,0,0,0,0,0,0,0,0,0,0,0,0,0,0,0,0,0,0,0,0,0,0,0,0,0,0,0],"id":25,"left_children":[1,3,5,7,-1,9,-1,-1,11,13,15,17,19,-1,21,-1,23,-1,-1,-1,-1,-1,-1,25,-1,27,-1,-1,-1],"loss_changes":[5.651943E1,1.750295E1,1.7145319E1,1.9218472E1,0E0,1.871855E1,0E0,0E0,1.1119535E1,3.1302052E0,4.788828E0,3.2730455E0,3.3524442E0,0E0,1.9038704E-1,0E0,2.708224E0,0E0,0E0,0E0,0E0,0E0,0E0,9.650824E-1,0E0,6.095484E-1,0E0,0E0,0E0],"parents":[2147483647,0,0,1,1,2,2,3,3,5,5,8,8,9,9,10,10,11,11,12,12,14,14,16,16,23,23,25,25],"right_children":[2,4,6,8,-1,10,-1,-1,12,14,16,18,20,-1,22,-1,24,-1,-1,-1,-1,-1,-1,26,-1,28,-1,-1,-1],"split_conditions":[-6.315179E-2,-7.636127E-1,1E0,1E0,-5.519708E-2,1E0,5.685666E-2,-5.618903E-2,1E0,1E0,6.3730913E-1,-1.1138432E0,1E0,-5.4519445E-2,2.8707865E-1,4.996264E-2,2.038231E0,1.4951541E-2,5.4581042E-2,-5.1968675E-2,2.416826E-2,1.7215144E-2,-5.1473365E-3,1E0,-3.9180238E-2,1E0,4.1498248E-2,1.4047991E-2,-1.4671393E-2],"split_indices":[10,10,5,18,0,18,0,0,11,11,10,10,4,0,10,0,10,0,0,0,0,0,0,0,0,11,0,0,0],"split_type":[0,0,0,0,0,0,0,0,0,0,0,0,0,0,0,0,0,0,0,0,0,0,0,0,0,0,0,0,0],"sum_hessian":[1.5293935E2,7.474301E1,7.8196335E1,4.138986E1,3.3353157E1,4.277873E1,3.5417603E1,1.2470731E1,2.8919128E1,1.135859E1,3.1420137E1,2.2183954E1,6.735173E0,9.15942E0,2.1991706E0,1.4392997E1,1.702714E1,1.3207728E1,8.976226E0,5.5196733E0,1.2154996E0,1.1137334E0,1.0854372E0,1.5561945E1,1.4651954E0,1.3107541E1,2.4544039E0,1.1781558E1,1.3259825E0],"tree_param":{"num_deleted":"0","num_feature":"20","num_nodes":"29","size_leaf_vector":"1"}},{"base_weights":[2.243949E-3,-2.9297248E-1,9.1865957E-1,-9.792329E-1,3.6348455E-2,4.4114125E-1,5.4719854E-2,-1.1259431E0,3.823263E-1,2.5212723E-1,-3.1908724E-1,7.466974E-2,7.5488454E-1,-5.8122795E-2,-9.962852E-3,-1.0755983E-2,3.8027346E-2,5.941464E-2,5.3694393E-2,-7.095813E-1,6.452025E-1,-2.3407786E-1,3.0432174E-2,1.6059475E-2,4.406432E-2,-1.3221463E-3,1.2137306E-2,-9.6187705E-1,-9.094189E-3,3.439709E-1,4.4903424E-2,-4.880502E-1,1.1552765E-2,-6.4137853E-3,-1.0268649E0,-3.4156328E-1,3.0165931E-2,-5.88005E-3,2.8919429E-2,-3.0713765E-2,-8.684522E-3,-5.6534745E-2,-2.096461E-2,-6.1615086E-1,1.5576297E-2,-3.9242E-2,-4.193948E-3],"categories":[],"categories_nodes":[],"categories_segments":[],"categories_sizes":[],"default_left":[0,0,0,0,0,0,0,0,0,0,0,0,0,0,0,0,0,0,0,0,0,0,0,0,0,0,0,0,0,0,0,0,0,0,0,0,0,0,0,0,0,0,0,0,0,0,0],"id":26,"left_children":[1,3,5,7,9,11,-1,13,15,17,19,21,23,-1,-1,-1,-1,25,-1,27,29,31,-1,-1,-1,-1,-1,33,35,37,-1,39,-1,-1,41,43,-1,-1,-1,-1,-1,-1,-1,45,-1,-1,-1],"loss_changes":[3.9811188E1,2.5190613E1,2.5259857E0,7.647331E0,5.9228673E0,1.2452528E0,0E0,8.8048935E-1,1.1263977E0,7.5312023E0,1.14596615E1,1.1862686E0,4.5272112E-2,0E0,0E0,0E0,0E0,6.3457656E-1,0E0,3.750702E0,3.7245917E-1,6.719916E-1,0E0,0E0,0E0,0E0,0E0,7.150097E-1,1.5585239E0,6.850857E-1,0E0,2.7557015E-2,0E0,0E0,4.3159294E-1,1.0785034E0,0E0,0E0,0E0,0E0,0E0,0E0,0E0,2.7682006E-1,0E0,0E0,0E0],"parents":[2147483647,0,0,1,1,2,2,3,3,4,4,5,5,7,7,8,8,9,9,10,10,11,11,12,12,17,17,19,19,20,20,21,21,27,27,28,28,29,29,31,31,34,34,35,35,43,43],"right_children":[2,4,6,8,10,12,-1,14,16,18,20,22,24,-1,-1,-1,-1,26,-1,28,30,32,-1,-1,-1,-1,-1,34,36,38,-1,40,-1,-1,42,44,-1,-1,-1,-1,-1,-1,-1,46,-1,-1,-1],"split_conditions":[1E0,1E0,1E0,1E0,1E0,1E0,5.4719854E-2,1E0,1E0,1E0,1E0,1E0,1E0,-5.8122795E-2,-9.962852E-3,-1.0755983E-2,3.8027346E-2,-5.705054E-1,5.3694393E-2,1E0,1E0,1E0,3.0432174E-2,1.6059475E-2,4.406432E-2,-1.3221463E-3,1.2137306E-2,1E0,1E0,1E0,4.4903424E-2,1E0,1.1552765E-2,-6.4137853E-3,1E0,1.3276207E0,3.0165931E-2,-5.88005E-3,2.8919429E-2,-3.0713765E-2,-8.684522E-3,-5.6534745E-2,-2.096461E-2,1E0,1.5576297E-2,-3.9242E-2,-4.193948E-3],"split_indices":[3,18,5,5,12,2,0,6,0,19,1,1,6,0,0,0,0,9,0,5,7,0,0,0,0,0,0,15,7,6,0,6,0,0,7,9,0,0,0,0,0,0,0,6,0,0,0],"split_type":[0,0,0,0,0,0,0,0,0,0,0,0,0,0,0,0,0,0,0,0,0,0,0,0,0,0,0,0,0,0,0,0,0,0,0,0,0,0,0,0,0,0,0,0,0,0,0],"sum_hessian":[1.451592E2,1.10305435E2,3.4853764E1,3.5128624E1,7.517681E1,1.03206E1,2.4533163E1,3.186786E1,3.2607632E0,4.6959297E1,2.8217512E1,5.3313046E0,4.9892955E0,3.041504E1,1.4528226E0,1.4312152E0,1.829548E0,3.8907364E1,8.051935E0,2.0272287E1,7.9452252E0,3.733942E0,1.5973626E0,1.9251089E0,3.0641866E0,2.7080719E1,1.1826643E1,1.4629866E1,5.642421E0,4.702987E0,3.242238E0,2.3833265E0,1.3506154E0,1.2731365E0,1.33567295E1,3.94371E0,1.6987108E0,1.7518654E0,2.9511218E0,1.0197955E0,1.363531E0,1.0671961E1,2.6847682E0,2.8162103E0,1.1274997E0,1.7781608E0,1.0380496E0],"tree_param":{"num_deleted":"0","num_feature":"20","num_nodes":"47","size_leaf_vector":"1"}},{"base_weights":[2.160294E-2,-5.9550333E-1,6.301456E-1,-1.7645016E-1,-5.4348417E-2,1.8935126E-1,5.5780586E-2,-5.4609347E-2,2.0601128E-1,-8.314172E-1,5.9417427E-1,5.089112E-1,-7.313604E-1,-5.3524263E-2,1.4999948E-2,6.761469E-1,-3.5438124E-2,9.692358E-2,5.3715706E-2,-5.1036913E-2,2.3098825E-2,9.23997E-1,4.2028317E-1,-4.8080757E-3,4.198382E-2,5.2275147E-2,6.1527E-3,1.9814275E-1,4.7161035E-2,1.1456917E-2,6.003789E-4],"categories":[],"categories_nodes":[],"categories_segments":[],"categories_sizes":[],"default_left":[0,0,0,0,0,0,0,0,0,0,0,0,0,0,0,0,0,0,0,0,0,0,0,0,0,0,0,0,0,0,0],"id":27,"left_children":[1,3,5,7,-1,9,-1,-1,11,13,15,17,19,-1,-1,21,-1,23,-1,-1,-1,25,27,-1,-1,-1,-1,29,-1,-1,-1],"loss_changes":[5.5272255E1,1.4862127E1,1.56429405E1,1.4461273E1,0E0,1.7037724E1,0E0,0E0,8.752083E0,3.5089474E0,3.6032362E0,5.2291765E0,3.1023269E0,0E0,0E0,1.3892107E0,0E0,2.1378708E0,0E0,0E0,0E0,1.1757793E0,1.6283622E0,0E0,0E0,0E0,0E0,6.782794E-2,0E0,0E0,0E0],"parents":[2147483647,0,0,1,1,2,2,3,3,5,5,8,8,9,9,10,10,11,11,12,12,15,15,17,17,21,21,22,22,27,27],"right_children":[2,4,6,8,-1,10,-1,-1,12,14,16,18,20,-1,-1,22,-1,24,-1,-1,-1,26,28,-1,-1,-1,-1,30,-1,-1,-1],"split_conditions":[-6.315179E-2,-7.636127E-1,1E0,1E0,-5.4348417E-2,1E0,5.5780586E-2,-5.4609347E-2,1E0,-2.993445E-1,2.038231E0,-1.1138432E0,1E0,-5.3524263E-2,1.4999948E-2,6.3730913E-1,-3.5438124E-2,1E0,5.3715706E-2,-5.1036913E-2,2.3098825E-2,1.8699424E0,1E0,-4.8080757E-3,4.198382E-2,5.2275147E-2,6.1527E-3,1E0,4.7161035E-2,1.1456917E-2,6.003789E-4],"split_indices":[10,10,6,18,0,18,0,0,11,9,10,10,8,0,0,10,0,19,0,0,0,9,19,0,0,0,0,11,0,0,0],"split_type":[0,0,0,0,0,0,0,0,0,0,0,0,0,0,0,0,0,0,0,0,0,0,0,0,0,0,0,0,0,0,0],"sum_hessian":[1.4518324E2,7.209506E1,7.308818E1,3.9647877E1,3.2447186E1,3.9035076E1,3.40531E1,1.1133938E1,2.8513939E1,1.078549E1,2.8249588E1,2.1895704E1,6.618235E0,8.948523E0,1.8369672E0,2.7030083E1,1.2195051E0,1.3343921E1,8.551783E0,5.442977E0,1.1752579E0,1.2403639E1,1.4626443E1,1.1281682E1,2.0622385E0,1.0504699E1,1.8989406E0,1.1233451E1,3.3929927E0,9.431814E0,1.8016361E0],"tree_param":{"num_deleted":"0","num_feature":"20","num_nodes":"31","size_leaf_vector":"1"}},{"base_weights":[3.0900512E-2,-5.6219846E-1,6.092196E-1,-1.222153E-1,-5.3378195E-2,1.6446118E-1,5.5273004E-2,-5.3948183E-2,2.923558E-1,8.8780344E-1,-2.571377E-1,6.68152E-1,-7.369032E-1,4.964931E-2,2.0577164E-1,-4.806565E-2,1.3744348E-1,2.9850632E-1,5.313608E-2,-5.117601E-2,2.4847079E-2,-1.3444075E-2,3.0698715E-2,-3.0467223E-2,4.1795228E-2,8.659462E-3,3.9228242E-2,7.183894E-3,-3.6199674E-2],"categories":[],"categories_nodes":[],"categories_segments":[],"categories_sizes":[],"default_left":[0,0,0,0,0,0,0,0,0,0,0,0,0,0,0,0,0,0,0,0,0,0,0,0,0,0,0,0,0],"id":28,"left_children":[1,3,5,7,-1,9,-1,-1,11,13,15,17,19,-1,21,-1,23,25,-1,-1,-1,-1,-1,27,-1,-1,-1,-1,-1],"loss_changes":[4.7526108E1,1.5085747E1,1.529604E1,1.5273628E1,0E0,1.186476E1,0E0,0E0,1.09736595E1,8.197441E-1,7.045745E0,2.6544647E0,3.239862E0,0E0,7.790469E-1,0E0,1.998277E0,5.895945E-1,0E0,0E0,0E0,0E0,0E0,1.8584081E0,0E0,0E0,0E0,0E0,0E0],"parents":[2147483647,0,0,1,1,2,2,3,3,5,5,8,8,9,9,10,10,11,11,12,12,14,14,16,16,17,17,23,23],"right_children":[2,4,6,8,-1,10,-1,-1,12,14,16,18,20,-1,22,-1,24,26,-1,-1,-1,-1,-1,28,-1,-1,-1,-1,-1],"split_conditions":[-6.315179E-2,-7.636127E-1,1E0,1E0,-5.3378195E-2,6.3730913E-1,5.5273004E-2,-5.3948183E-2,1E0,1.8699424E0,1E0,-1.1138432E0,1E0,4.964931E-2,1E0,-4.806565E-2,1E0,-5.705054E-1,5.313608E-2,-5.117601E-2,2.4847079E-2,-1.3444075E-2,3.0698715E-2,1E0,4.1795228E-2,8.659462E-3,3.9228242E-2,7.183894E-3,-3.6199674E-2],"split_indices":[10,10,6,18,0,10,0,0,13,9,18,10,2,0,8,0,4,9,0,0,0,0,0,12,0,0,0,0,0],"split_type":[0,0,0,0,0,0,0,0,0,0,0,0,0,0,0,0,0,0,0,0,0,0,0,0,0,0,0,0,0],"sum_hessian":[1.3656136E2,6.743294E1,6.912842E1,3.671223E1,3.0720705E1,3.715734E1,3.1971073E1,1.0614184E1,2.6098045E1,1.327517E1,2.3882172E1,1.9374865E1,6.72318E0,1.1106418E1,2.1687527E0,8.060679E0,1.5821492E1,1.0910289E1,8.464577E0,5.594146E0,1.1290342E0,1.1605651E0,1.0081875E0,1.3526168E1,2.2953243E0,9.752248E0,1.1580405E0,1.1445118E1,2.08105E0],"tree_param":{"num_deleted":"0","num_feature":"20","num_nodes":"29","size_leaf_vector":"1"}},{"base_weights":[3.931064E-3,-2.9888052E-1,9.028689E-1,-1.0230554E0,-7.909774E-3,5.177328E-1,5.378576E-2,-1.0813351E0,1.4722048E-2,1.9548683E-1,-3.519541E-1,1.5686303E-1,4.4698283E-2,-5.6038063E-2,-1.0181213E-3,4.792763E-3,5.23774E-2,-6.511508E-1,5.7772547E-1,-2.055687E-1,2.8764293E-2,1.4102663E-3,-2.6184635E-3,-9.11062E-1,1.47313E-1,4.179247E-2,-2.5572162E-3,-4.275596E-1,1.1356086E-2,-5.5420395E-2,-2.1327485E-1,-1.6912422E-1,3.4629952E-2,-3.5635646E-2,6.179865E-3,-3.6419246E-1,8.374497E-3,-5.445623E-1,2.5004262E-2,-2.4162885E-2,-4.277712E-3,-3.5424985E-2,-3.6651068E-3],"categories":[],"categories_nodes":[],"categories_segments":[],"categories_sizes":[],"default_left":[0,0,0,0,0,0,0,0,0,0,0,0,0,0,0,0,0,0,0,0,0,0,0,0,0,0,0,0,0,0,0,0,0,0,0,0,0,0,0,0,0,0,0],"id":29,"left_children":[1,3,5,7,9,11,-1,13,-1,15,17,19,-1,-1,-1,21,-1,23,25,27,-1,-1,-1,29,31,-1,-1,33,-1,-1,35,37,-1,-1,-1,39,-1,41,-1,-1,-1,-1,-1],"loss_changes":[3.7192753E1,2.152995E1,1.7348633E0,2.5673656E0,5.241867E0,1.5694487E0,0E0,1.1594276E0,0E0,7.648188E0,8.11539E0,1.2768981E0,0E0,0E0,0E0,5.4330256E-2,0E0,4.600068E0,1.2283847E0,5.611197E-1,0E0,0E0,0E0,2.0183563E0,1.177514E0,0E0,0E0,6.443975E-1,0E0,0E0,3.3959055E-1,1.4512895E0,0E0,0E0,0E0,8.429295E-2,0E0,2.1728587E-1,0E0,0E0,0E0,0E0,0E0],"parents":[2147483647,0,0,1,1,2,2,3,3,4,4,5,5,7,7,9,9,10,10,11,11,15,15,17,17,18,18,19,19,23,23,24,24,27,27,30,30,31,31,35,35,37,37],"right_children":[2,4,6,8,10,12,-1,14,-1,16,18,20,-1,-1,-1,22,-1,24,26,28,-1,-1,-1,30,32,-1,-1,34,-1,-1,36,38,-1,-1,-1,40,-1,42,-1,-1,-1,-1,-1],"split_conditions":[1E0,1E0,1E0,1E0,1E0,1E0,5.378576E-2,1E0,1.4722048E-2,1E0,1E0,1E0,4.4698283E-2,-5.6038063E-2,-1.0181213E-3,-5.705054E-1,5.23774E-2,1E0,1.8699424E0,1E0,2.8764293E-2,1.4102663E-3,-2.6184635E-3,1E0,1E0,4.179247E-2,-2.5572162E-3,1.3276207E0,1.1356086E-2,-5.5420395E-2,1E0,1E0,3.4629952E-2,-3.5635646E-2,6.179865E-3,1E0,8.374497E-3,1E0,2.5004262E-2,-2.4162885E-2,-4.277712E-3,-3.5424985E-2,-3.6651068E-3],"split_indices":[5,18,8,1,11,1,0,7,0,19,8,4,0,0,0,9,0,1,9,7,0,0,0,3,7,0,0,9,0,0,7,4,0,0,0,6,0,0,0,0,0,0,0],"split_type":[0,0,0,0,0,0,0,0,0,0,0,0,0,0,0,0,0,0,0,0,0,0,0,0,0,0,0,0,0,0,0,0,0,0,0,0,0,0,0,0,0,0,0],"sum_hessian":[1.3464185E2,1.012147E2,3.3427147E1,2.828996E1,7.292474E1,1.1592366E1,2.1834778E1,2.726322E1,1.0267407E0,4.6101597E1,2.6823145E1,6.640222E0,4.9521446E0,2.6232073E1,1.0311478E0,3.8492477E1,7.6091175E0,2.051912E1,6.3040266E0,3.8307705E0,2.8094516E0,2.7667097E1,1.0825382E1,1.5373734E1,5.1453843E0,4.2361426E0,2.0678837E0,2.539661E0,1.2911097E0,1.1525631E1,3.8481033E0,3.6924477E0,1.4529365E0,1.4805456E0,1.0591152E0,2.786992E0,1.0611112E0,2.4847312E0,1.2077166E0,1.4381144E0,1.3488777E0,1.4699603E0,1.0147709E0],"tree_param":{"num_deleted":"0","num_feature":"20","num_nodes":"43","size_leaf_vector":"1"}},{"base_weights":[-2.189157E-2,-6.0337585E-1,5.701161E-1,-1.9862027E-1,-5.281446E-2,1.0297102E-1,5.4617375E-2,-5.2926727E-2,1.7085223E-1,-8.577257E-1,5.01793E-1,4.5757246E-1,-6.9978833E-1,-5.1963806E-2,7.6624523E-3,8.5924786E-1,2.0929123E-1,5.6889776E-2,5.1855545E-2,-4.9505226E-2,2.2140905E-2,4.9684536E-2,2.0816764E-3,4.548035E-2,6.3810146E-1,-6.1007612E-3,3.9057907E-2,4.0394607E-5,1.2124307E-2,4.0019546E-2,8.595026E-3],"categories":[],"categories_nodes":[],"categories_segments":[],"categories_sizes":[],"default_left":[0,0,0,0,0,0,0,0,0,0,0,0,0,0,0,0,0,0,0,0,0,0,0,0,0,0,0,0,0,0,0],"id":30,"left_children":[1,3,5,7,-1,9,-1,-1,11,13,15,17,19,-1,-1,21,23,25,-1,-1,-1,-1,-1,27,29,-1,-1,-1,-1,-1,-1],"loss_changes":[4.6329376E1,1.2233326E1,1.6161268E1,1.1960318E1,0E0,1.4344283E1,0E0,0E0,7.008836E0,2.1823177E0,2.569213E0,4.7619114E0,2.7714834E0,0E0,0E0,1.2238903E0,1.0795686E0,1.8228829E0,0E0,0E0,0E0,0E0,0E0,1.0978111E-1,1.8666518E-1,0E0,0E0,0E0,0E0,0E0,0E0],"parents":[2147483647,0,0,1,1,2,2,3,3,5,5,8,8,9,9,10,10,11,11,12,12,15,15,16,16,17,17,23,23,24,24],"right_children":[2,4,6,8,-1,10,-1,-1,12,14,16,18,20,-1,-1,22,24,26,-1,-1,-1,-1,-1,28,30,-1,-1,-1,-1,-1,-1],"split_conditions":[-6.315179E-2,-7.636127E-1,1E0,1E0,-5.281446E-2,1E0,5.4617375E-2,-5.2926727E-2,1E0,-2.993445E-1,6.3730913E-1,-1.1138432E0,1E0,-5.1963806E-2,7.6624523E-3,1.8699424E0,1E0,1E0,5.1855545E-2,-4.9505226E-2,2.2140905E-2,4.9684536E-2,2.0816764E-3,-2.818365E-2,-2.993445E-1,-6.1007612E-3,3.9057907E-2,4.0394607E-5,1.2124307E-2,4.0019546E-2,8.595026E-3],"split_indices":[10,10,6,18,0,18,0,0,11,9,10,10,4,0,0,9,19,19,0,0,0,0,0,9,9,0,0,0,0,0,0],"split_type":[0,0,0,0,0,0,0,0,0,0,0,0,0,0,0,0,0,0,0,0,0,0,0,0,0,0,0,0,0,0,0],"sum_hessian":[1.3258401E2,6.68768E1,6.5707214E1,3.6075607E1,3.080119E1,3.531474E1,3.0392477E1,1.0281453E1,2.5794155E1,1.0022217E1,2.5292522E1,1.9760912E1,6.0332427E0,8.472698E0,1.5495178E0,1.05104885E1,1.4782033E1,1.2332561E1,7.4283514E0,4.9173093E0,1.1159333E0,8.841328E0,1.6691606E0,1.1496346E1,3.2856865E0,1.0556486E1,1.7760751E0,1.0189832E1,1.3065153E0,1.9055189E0,1.3801676E0],"tree_param":{"num_deleted":"0","num_feature":"20","num_nodes":"31","size_leaf_vector":"1"}},{"base_weights":[1.3562894E-2,-2.3935649E-1,9.4158095E-1,-3.1100678E-1,5.995706E-1,5.875602E-1,5.325767E-2,-4.2041612E-1,1.04353815E-1,1.7414576E-1,4.153091E-2,1.4582835E-1,4.3335017E-2,-4.5126697E-1,2.789209E-1,5.096194E-2,-6.00569E-1,2.4167823E-2,-1.7207662E-2,-1.9431466E-2,3.9152846E-1,-3.727686E-1,-8.438353E-1,-1.4496048E-2,3.0524278E-2,-8.7489307E-1,3.342754E-1,1.6929902E-3,2.5437986E-2,-2.1360831E-2,-1.0682273E-2,-9.821402E-1,-3.21992E-3,-4.8924144E-2,-7.0624948E-3,-7.568347E-3,3.250776E-2,-5.4720968E-2,-1.8750753E-2],"categories":[],"categories_nodes":[],"categories_segments":[],"categories_sizes":[],"default_left":[0,0,0,0,0,0,0,0,0,0,0,0,0,0,0,0,0,0,0,0,0,0,0,0,0,0,0,0,0,0,0,0,0,0,0,0,0,0,0],"id":31,"left_children":[1,3,5,7,9,11,-1,13,15,17,-1,19,-1,21,23,-1,25,-1,-1,-1,27,29,31,-1,-1,33,35,-1,-1,-1,-1,37,-1,-1,-1,-1,-1,-1,-1],"loss_changes":[3.1135292E1,6.454979E0,6.168823E-1,4.440048E0,6.955037E-1,1.0549045E0,0E0,1.7821426E0,1.4136155E1,8.5124415E-1,0E0,7.971872E-1,0E0,1.9629326E0,9.0530044E-1,0E0,3.4912395E0,0E0,0E0,0E0,1.4475656E-1,4.578638E-1,1.1790781E0,0E0,0E0,6.1568356E-1,6.435152E-1,0E0,0E0,0E0,0E0,2.5199223E-1,0E0,0E0,0E0,0E0,0E0,0E0,0E0],"parents":[2147483647,0,0,1,1,2,2,3,3,4,4,5,5,7,7,8,8,9,9,11,11,13,13,14,14,16,16,20,20,21,21,22,22,25,25,26,26,31,31],"right_children":[2,4,6,8,10,12,-1,14,16,18,-1,20,-1,22,24,-1,26,-1,-1,-1,28,30,32,-1,-1,34,36,-1,-1,-1,-1,38,-1,-1,-1,-1,-1,-1,-1],"split_conditions":[1E0,1E0,1E0,1E0,1E0,1E0,5.325767E-2,1E0,1E0,1.8699424E0,4.153091E-2,-2.818365E-2,4.3335017E-2,1E0,1E0,5.096194E-2,1E0,2.4167823E-2,-1.7207662E-2,-1.9431466E-2,1E0,-5.705054E-1,1E0,-1.4496048E-2,3.0524278E-2,1E0,1E0,1.6929902E-3,2.5437986E-2,-2.1360831E-2,-1.0682273E-2,1E0,-3.21992E-3,-4.8924144E-2,-7.0624948E-3,-7.568347E-3,3.250776E-2,-5.4720968E-2,-1.8750753E-2],"split_indices":[4,8,8,19,5,0,0,5,13,9,0,9,0,14,0,0,1,0,0,0,6,9,7,0,0,2,0,0,0,0,0,0,0,0,0,0,0,0,0],"split_type":[0,0,0,0,0,0,0,0,0,0,0,0,0,0,0,0,0,0,0,0,0,0,0,0,0,0,0,0,0,0,0,0,0,0,0,0,0,0,0],"sum_hessian":[1.3069197E2,1.0328504E2,2.740693E1,9.573765E1,7.547391E0,8.580257E0,1.8826674E1,7.576767E1,1.9969982E1,3.2735572E0,4.2738338E0,3.9120154E0,4.668242E0,7.290617E1,2.8614929E0,8.496675E0,1.1473309E1,2.0925725E0,1.1809847E0,1.0488307E0,2.8631847E0,6.238181E1,1.0524366E1,1.0999627E0,1.7615302E0,8.919939E0,2.5533693E0,1.0249441E0,1.8382407E0,4.5222847E1,1.7158962E1,8.717459E0,1.8069072E0,7.5238476E0,1.3960917E0,1.211533E0,1.3418363E0,6.6795454E0,2.0379136E0],"tree_param":{"num_deleted":"0","num_feature":"20","num_nodes":"39","size_leaf_vector":"1"}},{"base_weights":[-2.8065685E-3,-2.6254278E-1,8.81905E-1,-9.3776494E-1,1.937056E-2,5.1520294E-1,5.1855635E-2,-1.0799398E0,3.7816504E-1,-5.5889927E-2,6.620708E-1,1.272384E-1,7.3738533E-1,-5.530479E-2,-1.5444583E-2,-3.348423E-3,3.240525E-2,1.8019708E-1,-6.034905E-1,1.4567827E-1,4.173347E-2,-1.1590966E-1,2.2992348E-2,4.3193426E-2,6.8849064E-3,2.824474E-2,4.97176E-2,-8.735237E-1,1.7800748E-1,1.6459802E-2,-5.7709957E-3,9.365117E-3,-2.2309262E-2,1.1915861E-3,1.7725993E-3,-5.164087E-2,-2.500957E-1,-1.8754365E-1,3.5155214E-2,-2.6842237E-2,1.5789328E-2,-3.530194E-2,1.7967243E-2],"categories":[],"categories_nodes":[],"categories_segments":[],"categories_sizes":[],"default_left":[0,0,0,0,0,0,0,0,0,0,0,0,0,0,0,0,0,0,0,0,0,0,0,0,0,0,0,0,0,0,0,0,0,0,0,0,0,0,0,0,0,0,0],"id":32,"left_children":[1,3,5,7,9,11,-1,13,15,17,19,21,23,-1,-1,-1,-1,25,27,29,-1,31,-1,-1,-1,33,-1,35,37,-1,-1,-1,-1,-1,-1,-1,39,41,-1,-1,-1,-1,-1],"loss_changes":[2.9213621E1,1.8724232E1,1.1078758E0,5.827429E0,3.4376674E0,8.171027E-1,0E0,1.9074821E-1,4.7175562E-1,8.36436E0,5.422032E-1,4.6225426E-1,3.749087E-1,0E0,0E0,0E0,0E0,5.587303E0,4.2636557E0,1.8544027E-1,0E0,4.560957E-1,0E0,0E0,0E0,4.0446594E-4,0E0,1.1952972E0,1.2509071E0,0E0,0E0,0E0,0E0,0E0,0E0,0E0,8.670115E-1,1.4521843E0,0E0,0E0,0E0,0E0,0E0],"parents":[2147483647,0,0,1,1,2,2,3,3,4,4,5,5,7,7,8,8,9,9,10,10,11,11,12,12,17,17,18,18,19,19,21,21,25,25,27,27,28,28,36,36,37,37],"right_children":[2,4,6,8,10,12,-1,14,16,18,20,22,24,-1,-1,-1,-1,26,28,30,-1,32,-1,-1,-1,34,-1,36,38,-1,-1,-1,-1,-1,-1,-1,40,42,-1,-1,-1,-1,-1],"split_conditions":[1E0,1E0,1E0,1E0,1E0,1E0,5.1855635E-2,1E0,1E0,1E0,1E0,1E0,1.8699424E0,-5.530479E-2,-1.5444583E-2,-3.348423E-3,3.240525E-2,1E0,1E0,1.3276207E0,4.173347E-2,1E0,2.2992348E-2,4.3193426E-2,6.8849064E-3,-5.705054E-1,4.97176E-2,1E0,1E0,1.6459802E-2,-5.7709957E-3,9.365117E-3,-2.2309262E-2,1.1915861E-3,1.7725993E-3,-5.164087E-2,1.3276207E0,1E0,3.5155214E-2,-2.6842237E-2,1.5789328E-2,-3.530194E-2,1.7967243E-2],"split_indices":[3,18,5,5,8,6,0,6,0,14,5,1,9,0,0,0,0,19,1,9,0,19,0,0,0,9,0,5,7,0,0,0,0,0,0,0,9,6,0,0,0,0,0],"split_type":[0,0,0,0,0,0,0,0,0,0,0,0,0,0,0,0,0,0,0,0,0,0,0,0,0,0,0,0,0,0,0,0,0,0,0,0,0,0,0,0,0,0,0],"sum_hessian":[1.2512334E2,9.726982E1,2.7853514E1,2.796449E1,6.930533E1,9.567729E0,1.8285784E1,2.5399614E1,2.5648763E0,6.2857704E1,6.447626E0,4.05673E0,5.5109987E0,2.4145987E1,1.2536291E0,1.2520869E0,1.3127894E0,4.4390545E1,1.846716E1,2.0771353E0,4.370491E0,2.719903E0,1.336827E0,4.1873007E0,1.3236979E0,3.8280617E1,6.1099296E0,1.3637277E1,4.8298826E0,1.0666248E0,1.0105106E0,1.6437429E0,1.07616E0,2.6413933E1,1.1866684E1,1.0338888E1,3.298389E0,3.2265377E0,1.603345E0,2.2231617E0,1.0752273E0,1.5068808E0,1.7196571E0],"tree_param":{"num_deleted":"0","num_feature":"20","num_nodes":"43","size_leaf_vector":"1"}},{"base_weights":[-2.6835991E-2,-2.7696878E-1,4.885563E-2,-8.8283694E-1,-4.5953415E-2,-1.0144703E0,3.0163357E-1,1.10764556E-1,-3.296794E-1,-1.058758E0,-3.1171723E-3,-2.1330465E-3,2.881219E-2,-6.400402E-2,5.0632942E-2,-6.303328E-1,4.0855166E-1,-5.4517962E-2,-1.1820562E-2,-4.300818E-3,-3.84573E-4,-5.0065737E-2,-2.2278927E-2,7.7474885E-2,3.9016034E-2,-5.052676E-1,5.346344E-1,-2.200205E-1,2.72243E-2,-3.159305E-2,-1.4065158E-4,9.189268E-3,3.2002326E-2,-2.315748E-2,9.201101E-3],"categories":[],"categories_nodes":[],"categories_segments":[],"categories_sizes":[],"default_left":[0,0,0,0,0,0,0,0,0,0,0,0,0,0,0,0,0,0,0,0,0,0,0,0,0,0,0,0,0,0,0,0,0,0,0],"id":33,"left_children":[1,3,-1,5,7,9,11,13,15,17,-1,-1,-1,19,-1,21,23,-1,-1,-1,-1,-1,25,27,-1,29,31,33,-1,-1,-1,-1,-1,-1,-1],"loss_changes":[3.1836275E1,1.4152851E1,0E0,4.661936E0,3.3477917E0,1.0038948E0,3.6164954E-1,7.744241E0,6.194512E0,3.7065697E-1,0E0,0E0,0E0,5.1093414E-2,0E0,4.3541355E0,9.670398E-1,0E0,0E0,0E0,0E0,0E0,2.522686E0,8.8752365E-1,0E0,3.1619275E-1,4.418707E-2,4.8678833E-1,0E0,0E0,0E0,0E0,0E0,0E0,0E0],"parents":[2147483647,0,0,1,1,3,3,4,4,5,5,6,6,7,7,8,8,9,9,13,13,15,15,16,16,22,22,23,23,25,25,26,26,27,27],"right_children":[2,4,-1,6,8,10,12,14,16,18,-1,-1,-1,20,-1,22,24,-1,-1,-1,-1,-1,26,28,-1,30,32,34,-1,-1,-1,-1,-1,-1,-1],"split_conditions":[1E0,1E0,4.885563E-2,1E0,1E0,1E0,1E0,1E0,1E0,-2.818365E-2,-3.1171723E-3,-2.1330465E-3,2.881219E-2,-5.705054E-1,5.0632942E-2,1E0,1E0,-5.4517962E-2,-1.1820562E-2,-4.300818E-3,-3.84573E-4,-5.0065737E-2,1E0,1E0,3.9016034E-2,1E0,1E0,1E0,2.72243E-2,-3.159305E-2,-1.4065158E-4,9.189268E-3,3.2002326E-2,-2.315748E-2,9.201101E-3],"split_indices":[8,18,0,5,16,0,0,19,7,9,0,0,0,9,0,6,2,0,0,0,0,0,0,5,0,3,3,6,0,0,0,0,0,0,0],"split_type":[0,0,0,0,0,0,0,0,0,0,0,0,0,0,0,0,0,0,0,0,0,0,0,0,0,0,0,0,0,0,0,0,0,0,0],"sum_hessian":[1.24699234E2,1.00407036E2,2.4292192E1,2.6937735E1,7.346931E1,2.437266E1,2.5650752E0,4.7720287E1,2.5749016E1,2.318235E1,1.1903081E0,1.5129069E0,1.0521683E0,4.0752354E1,6.9679346E0,1.8401106E1,7.3479114E0,2.2010612E1,1.1717377E0,2.8920122E1,1.183223E1,1.102677E1,7.374336E0,4.525843E0,2.8220682E0,3.9989457E0,3.37539E0,3.0877562E0,1.438087E0,2.9884558E0,1.01049E0,1.4136734E0,1.9617165E0,1.8364183E0,1.2513379E0],"tree_param":{"num_deleted":"0","num_feature":"20","num_nodes":"35","size_leaf_vector":"1"}},{"base_weights":[-8.056224E-6,-4.9973038E-1,5.05462E-1,-3.4703994E-3,-5.470092E-2,6.60162E-2,5.3342808E-2,-5.0728064E-2,3.5845384E-1,8.808668E-1,-3.370946E-1,6.874378E-1,-6.4711654E-1,4.709981E-2,1.4721858E-2,-4.6685006E-2,1.0236522E-2,4.014878E-1,5.164929E-2,-4.761588E-2,1.8513767E-2,-1.2408331E-1,3.6356542E-2,3.051114E-1,3.76031E-2,1.3984557E-2,-3.8747497E-2,1.0884645E-2,3.0486599E-2,-8.099319E-3,3.7442327E-2],"categories":[],"categories_nodes":[],"categories_segments":[],"categories_sizes":[],"default_left":[0,0,0,0,0,0,0,0,0,0,0,0,0,0,0,0,0,0,0,0,0,0,0,0,0,0,0,0,0,0,0],"id":34,"left_children":[1,3,5,7,-1,9,-1,-1,11,13,15,17,19,-1,-1,-1,21,23,-1,-1,-1,25,-1,27,-1,29,-1,-1,-1,-1,-1],"loss_changes":[3.1227728E1,1.8330685E1,1.5092009E1,1.3127942E1,0E0,1.1971119E1,0E0,0E0,9.186783E0,1.5424156E-1,5.0866175E0,1.6005898E0,2.5352712E0,0E0,0E0,0E0,1.6766227E0,2.0288444E-1,0E0,0E0,0E0,1.3344617E0,0E0,1.7935312E-1,0E0,1.8196932E0,0E0,0E0,0E0,0E0,0E0],"parents":[2147483647,0,0,1,1,2,2,3,3,5,5,8,8,9,9,10,10,11,11,12,12,16,16,17,17,21,21,23,23,25,25],"right_children":[2,4,6,8,-1,10,-1,-1,12,14,16,18,20,-1,-1,-1,22,24,-1,-1,-1,26,-1,28,-1,30,-1,-1,-1,-1,-1],"split_conditions":[-6.315179E-2,-7.636127E-1,1E0,1E0,-5.470092E-2,6.3730913E-1,5.3342808E-2,-5.0728064E-2,1E0,1.8699424E0,1E0,-1.1138432E0,1E0,4.709981E-2,1.4721858E-2,-4.6685006E-2,1E0,-5.705054E-1,5.164929E-2,-4.761588E-2,1.8513767E-2,1E0,3.6356542E-2,1E0,3.76031E-2,1E0,-3.8747497E-2,1.0884645E-2,3.0486599E-2,-8.099319E-3,3.7442327E-2],"split_indices":[10,10,6,18,0,10,0,0,11,9,18,10,3,0,0,0,5,9,0,0,0,11,0,19,0,19,0,0,0,0,0],"split_type":[0,0,0,0,0,0,0,0,0,0,0,0,0,0,0,0,0,0,0,0,0,0,0,0,0,0,0,0,0,0,0],"sum_hessian":[1.2162782E2,6.116736E1,6.0460464E1,3.388093E1,2.7286423E1,3.4540546E1,2.5919916E1,8.45562E0,2.5425314E1,1.1039686E1,2.3500862E1,1.9396044E1,6.029269E0,9.448455E0,1.591231E0,8.026187E0,1.5474675E1,1.1796236E1,7.599808E0,4.68716E0,1.3421096E0,1.3729233E1,1.7454418E0,1.0719624E1,1.0766131E0,1.2133811E1,1.5954225E0,9.661616E0,1.0580071E0,1.0418543E1,1.7152679E0],"tree_param":{"num_deleted":"0","num_feature":"20","num_nodes":"31","size_leaf_vector":"1"}},{"base_weights":[-3.2772773E-3,-4.969274E-1,5.0704736E-1,-8.483254E-2,-5.0578482E-2,-1.1709108E-1,8.662025E-1,-5.0801933E-2,2.6886758E-1,-4.8971903E-2,2.8894037E-1,4.9212795E-1,5.3543486E-2,5.526146E-1,-7.27303E-1,4.5601904E-2,3.4628216E-2,7.051282E-1,-3.91148E-2,2.4770944E-1,5.098362E-2,-4.722546E-2,1.0765418E-2,-7.6911203E-3,3.7888054E-2,2.9577735E-1,4.906882E-2,6.8241516E-3,3.5588782E-2,-2.74898E-1,4.192904E-2,-2.646915E-2,1.21031385E-2],"categories":[],"categories_nodes":[],"categories_segments":[],"categories_sizes":[],"default_left":[0,0,0,0,0,0,0,0,0,0,0,0,0,0,0,0,0,0,0,0,0,0,0,0,0,0,0,0,0,0,0,0,0],"id":35,"left_children":[1,3,5,7,-1,9,11,-1,13,-1,15,17,-1,19,21,-1,23,25,-1,27,-1,-1,-1,-1,-1,29,-1,-1,-1,31,-1,-1,-1],"loss_changes":[3.1132492E1,1.3235629E1,1.3723089E1,1.21216E1,0E0,8.362998E0,2.4351673E0,0E0,7.9946055E0,0E0,2.576924E0,4.7680655E0,0E0,2.8056064E0,1.5109861E0,0E0,1.851295E0,1.2741718E0,0E0,6.4167607E-1,0E0,0E0,0E0,0E0,0E0,2.4006574E0,0E0,0E0,0E0,6.7652184E-1,0E0,0E0,0E0],"parents":[2147483647,0,0,1,1,2,2,3,3,5,5,6,6,8,8,10,10,11,11,13,13,14,14,16,16,17,17,19,19,25,25,29,29],"right_children":[2,4,6,8,-1,10,12,-1,14,-1,16,18,-1,20,22,-1,24,26,-1,28,-1,-1,-1,-1,-1,30,-1,-1,-1,32,-1,-1,-1],"split_conditions":[-6.315179E-2,-7.636127E-1,1E0,1E0,-5.0578482E-2,1E0,1E0,-5.0801933E-2,1E0,-4.8971903E-2,6.3730913E-1,1.6880004E0,5.3543486E-2,-1.1138432E0,1E0,4.5601904E-2,1E0,1E0,-3.91148E-2,1E0,5.098362E-2,-4.722546E-2,1.0765418E-2,-7.6911203E-3,3.7888054E-2,1E0,4.906882E-2,6.8241516E-3,3.5588782E-2,1E0,4.192904E-2,-2.646915E-2,1.21031385E-2],"split_indices":[10,10,11,18,0,18,0,0,11,0,10,10,0,10,3,0,19,3,0,19,0,0,0,0,0,4,0,0,0,19,0,0,0],"split_type":[0,0,0,0,0,0,0,0,0,0,0,0,0,0,0,0,0,0,0,0,0,0,0,0,0,0,0,0,0,0,0,0,0],"sum_hessian":[1.21579796E2,6.181287E1,5.9766926E1,3.4973225E1,2.6839642E1,2.207648E1,3.7690445E1,9.111712E0,2.5861513E1,6.615012E0,1.5461469E1,1.45329E1,2.3157545E1,2.0474783E1,5.38673E0,3.7317946E0,1.1729674E1,1.28345175E1,1.6983829E0,1.3313688E1,7.161095E0,4.376288E0,1.0104424E0,9.929341E0,1.8003334E0,6.0057516E0,6.828766E0,1.1783537E1,1.5301511E0,3.1683118E0,2.8374398E0,2.1070445E0,1.0612673E0],"tree_param":{"num_deleted":"0","num_feature":"20","num_nodes":"33","size_leaf_vector":"1"}},{"base_weights":[1.0658947E-2,-5.046806E-1,5.191654E-1,-9.914995E-2,-5.129127E-2,7.7875294E-2,5.2806076E-2,-4.9983803E-2,2.3715672E-1,8.2378983E-1,-3.4103355E-1,4.877795E-1,-6.756382E-1,4.575488E-2,2.970487E-1,-4.698408E-1,3.6821593E-2,1.5456107E-1,5.016873E-2,-4.483858E-2,7.1186298E-3,-7.6233014E-3,3.1553682E-2,-4.8567098E-2,-1.8067783E-1,1.9701745E-3,3.3787414E-2,-3.103382E-1,1.5113644E-2,-1.2092089E-2,-2.5586247E-2],"categories":[],"categories_nodes":[],"categories_segments":[],"categories_sizes":[],"default_left":[0,0,0,0,0,0,0,0,0,0,0,0,0,0,0,0,0,0,0,0,0,0,0,0,0,0,0,0,0,0,0],"id":36,"left_children":[1,3,5,7,-1,9,-1,-1,11,13,15,17,19,-1,21,23,-1,25,-1,-1,-1,-1,-1,-1,27,-1,-1,29,-1,-1,-1],"loss_changes":[3.003955E1,1.1932771E1,1.35870905E1,1.0270909E1,0E0,1.0512555E1,0E0,0E0,6.032876E0,3.086214E-1,3.3542597E0,3.3052287E0,1.1749911E0,0E0,5.8624387E-1,2.7206845E0,0E0,7.7859807E-1,0E0,0E0,0E0,0E0,0E0,0E0,9.639702E-1,0E0,0E0,3.4164786E-2,0E0,0E0,0E0],"parents":[2147483647,0,0,1,1,2,2,3,3,5,5,8,8,9,9,10,10,11,11,12,12,14,14,15,15,17,17,24,24,27,27],"right_children":[2,4,6,8,-1,10,-1,-1,12,14,16,18,20,-1,22,24,-1,26,-1,-1,-1,-1,-1,-1,28,-1,-1,30,-1,-1,-1],"split_conditions":[-6.315179E-2,-7.636127E-1,1E0,1E0,-5.129127E-2,6.3730913E-1,5.2806076E-2,-4.9983803E-2,1E0,1.8699424E0,1E0,-1.1138432E0,1E0,4.575488E-2,1E0,1E0,3.6821593E-2,1E0,5.016873E-2,-4.483858E-2,7.1186298E-3,-7.6233014E-3,3.1553682E-2,-4.8567098E-2,1E0,1.9701745E-3,3.3787414E-2,9.875396E-1,1.5113644E-2,-1.2092089E-2,-2.5586247E-2],"split_indices":[10,10,6,18,0,10,0,0,11,9,0,10,7,0,4,18,0,19,0,0,0,0,0,0,19,0,0,10,0,0,0],"split_type":[0,0,0,0,0,0,0,0,0,0,0,0,0,0,0,0,0,0,0,0,0,0,0,0,0,0,0,0,0,0,0],"sum_hessian":[1.1263152E2,5.594365E1,5.6687874E1,3.213103E1,2.381262E1,3.1744287E1,2.4943586E1,8.20039E0,2.3930641E1,1.1068701E1,2.0675587E1,1.9140833E1,4.789809E0,8.805102E0,2.263599E0,1.8971544E1,1.7040436E0,1.2416244E1,6.7245893E0,3.6947277E0,1.0950814E0,1.1966944E0,1.0669047E0,6.075512E0,1.2896031E1,1.1050264E1,1.3659794E0,1.0448326E1,2.4477055E0,9.438836E0,1.0094899E0],"tree_param":{"num_deleted":"0","num_feature":"20","num_nodes":"31","size_leaf_vector":"1"}},{"base_weights":[7.520829E-3,-5.068089E-1,5.323433E-1,-1.2897785E-1,-4.8874658E-2,-8.310127E-2,9.0561694E-1,-4.9342625E-2,1.7678545E-1,-4.80504E-2,3.291415E-1,5.626814E-1,5.240779E-2,4.543248E-1,-7.151464E-1,4.5477636E-2,2.793471E-3,1.0954975E-1,4.8099767E-2,1.2767032E-1,4.9448714E-2,-4.6368096E-2,7.168349E-3,-3.510813E-1,3.825501E-2,-1.01630845E-4,3.979416E-2,7.1016797E-3,-3.6857467E-2],"categories":[],"categories_nodes":[],"categories_segments":[],"categories_sizes":[],"default_left":[0,0,0,0,0,0,0,0,0,0,0,0,0,0,0,0,0,0,0,0,0,0,0,0,0,0,0,0,0],"id":37,"left_children":[1,3,5,7,-1,9,11,-1,13,-1,15,17,-1,19,21,-1,-1,23,-1,25,-1,-1,-1,27,-1,-1,-1,-1,-1],"loss_changes":[3.015713E1,9.909775E0,1.2776893E1,8.68783E0,0E0,8.202194E0,1.0966415E0,0E0,6.4580193E0,0E0,2.4190645E0,2.1181154E0,0E0,3.2806158E0,1.2749636E0,0E0,0E0,2.3476098E0,0E0,1.1506187E0,0E0,0E0,0E0,1.0049951E0,0E0,0E0,0E0,0E0,0E0],"parents":[2147483647,0,0,1,1,2,2,3,3,5,5,6,6,8,8,10,10,11,11,13,13,14,14,17,17,19,19,23,23],"right_children":[2,4,6,8,-1,10,12,-1,14,-1,16,18,-1,20,22,-1,-1,24,-1,26,-1,-1,-1,28,-1,-1,-1,-1,-1],"split_conditions":[-6.315179E-2,-7.636127E-1,1E0,1E0,-4.8874658E-2,1E0,1E0,-4.9342625E-2,1E0,-4.80504E-2,-5.705054E-1,1E0,5.240779E-2,-1.1138432E0,1E0,4.5477636E-2,2.793471E-3,1E0,4.8099767E-2,-5.705054E-1,4.9448714E-2,-4.6368096E-2,7.168349E-3,6.3730913E-1,3.825501E-2,-1.01630845E-4,3.979416E-2,7.1016797E-3,-3.6857467E-2],"split_indices":[10,10,11,18,0,18,5,0,11,0,9,3,0,10,3,0,0,1,0,9,0,0,0,10,0,0,0,0,0],"split_type":[0,0,0,0,0,0,0,0,0,0,0,0,0,0,0,0,0,0,0,0,0,0,0,0,0,0,0,0,0],"sum_hessian":[1.0972179E2,5.5432182E1,5.42896E1,3.1455791E1,2.3976393E1,2.078959E1,3.350001E1,7.6801705E0,2.3775621E1,6.2175694E0,1.4572022E1,1.1288492E1,2.2211517E1,1.8507374E1,5.2682467E0,3.9193065E0,1.0652716E1,5.884852E0,5.4036407E0,1.2257319E1,6.250055E0,4.1597943E0,1.1084524E0,3.7290406E0,2.155811E0,1.1099766E1,1.1575534E0,1.9150709E0,1.8139696E0],"tree_param":{"num_deleted":"0","num_feature":"20","num_nodes":"29","size_leaf_vector":"1"}},{"base_weights":[5.1012397E-2,-4.5183396E-1,5.5442053E-1,-4.5026083E-2,-4.846623E-2,1.7951451E-1,5.2190628E-2,1.3705547E-1,-7.025568E-1,4.42903E-2,-1.8193004E-1,1.8083131E-3,1.2447196E-2,-4.711104E-2,1.85553E-2,-2.9547268E-1,3.628981E-2,-1.0453327E-2,-3.4903575E-2],"categories":[],"categories_nodes":[],"categories_segments":[],"categories_sizes":[],"default_left":[0,0,0,0,0,0,0,0,0,0,0,0,0,0,0,0,0,0,0],"id":38,"left_children":[1,3,5,7,-1,9,-1,11,13,-1,15,-1,-1,-1,-1,17,-1,-1,-1],"loss_changes":[2.788706E1,1.1570619E1,9.905027E0,3.9198895E0,0E0,8.420695E0,0E0,2.8277272E-1,2.1738343E0,0E0,2.5057478E0,0E0,0E0,0E0,0E0,5.661626E-1,0E0,0E0,0E0],"parents":[2147483647,0,0,1,1,2,2,3,3,5,5,7,7,8,8,10,10,15,15],"right_children":[2,4,6,8,-1,10,-1,12,14,-1,16,-1,-1,-1,-1,18,-1,-1,-1],"split_conditions":[-6.315179E-2,-7.636127E-1,1E0,1E0,-4.846623E-2,6.3730913E-1,5.2190628E-2,-1.1138432E0,1E0,4.42903E-2,1E0,1.8083131E-3,1.2447196E-2,-4.711104E-2,1.85553E-2,1E0,3.628981E-2,-1.0453327E-2,-3.4903575E-2],"split_indices":[10,10,6,11,0,10,0,10,8,0,5,0,0,0,0,11,0,0,0],"split_type":[0,0,0,0,0,0,0,0,0,0,0,0,0,0,0,0,0,0,0],"sum_hessian":[1.08176285E2,5.4169594E1,5.400669E1,3.093673E1,2.3232862E1,3.135417E1,2.265252E1,2.484757E1,6.089159E0,1.0122757E1,2.1231413E1,1.3761834E1,1.1085736E1,5.078055E0,1.0111043E0,1.947045E1,1.7609634E0,1.72809E1,2.189551E0],"tree_param":{"num_deleted":"0","num_feature":"20","num_nodes":"19","size_leaf_vector":"1"}},{"base_weights":[6.589404E-2,-4.093824E-1,5.326378E-1,-2.4367599E-2,-4.6810966E-2,1.677851E-1,5.167786E-2,-4.849657E-2,3.0135375E-1,-7.339661E-1,4.95695E-1,5.6654024E-1,-6.409886E-1,-4.7263213E-2,2.2612412E-3,4.406677E-2,2.1751344E-1,1.5992401E-2,4.8111316E-2,-4.3325596E-2,7.27593E-3,8.064237E-2,3.70383E-2,1.1552039E-2,-3.486762E-2],"categories":[],"categories_nodes":[],"categories_segments":[],"categories_sizes":[],"default_left":[0,0,0,0,0,0,0,0,0,0,0,0,0,0,0,0,0,0,0,0,0,0,0,0,0],"id":39,"left_children":[1,3,5,7,-1,9,-1,-1,11,13,15,17,19,-1,-1,-1,21,-1,-1,-1,-1,23,-1,-1,-1],"loss_changes":[2.2314358E1,1.0102629E1,9.090738E0,9.491304E0,0E0,9.388954E0,0E0,0E0,6.1053276E0,1.4491687E0,2.2735085E0,1.4944363E0,1.1043994E0,0E0,0E0,0E0,9.9143434E-1,0E0,0E0,0E0,0E0,1.6537285E0,0E0,0E0,0E0],"parents":[2147483647,0,0,1,1,2,2,3,3,5,5,8,8,9,9,10,10,11,11,12,12,16,16,21,21],"right_children":[2,4,6,8,-1,10,-1,-1,12,14,16,18,20,-1,-1,-1,22,-1,-1,-1,-1,24,-1,-1,-1],"split_conditions":[-6.315179E-2,-7.636127E-1,1E0,1E0,-4.6810966E-2,1E0,5.167786E-2,-4.849657E-2,1E0,1E0,6.3730913E-1,-1.1138432E0,1E0,-4.7263213E-2,2.2612412E-3,4.406677E-2,1E0,1.5992401E-2,4.8111316E-2,-4.3325596E-2,7.27593E-3,1E0,3.70383E-2,1.1552039E-2,-3.486762E-2],"split_indices":[10,10,6,18,0,18,0,0,11,11,10,10,3,0,0,0,5,0,0,0,0,11,0,0,0],"split_type":[0,0,0,0,0,0,0,0,0,0,0,0,0,0,0,0,0,0,0,0,0,0,0,0,0],"sum_hessian":[9.860815E1,4.8918377E1,4.9689774E1,2.886786E1,2.0050514E1,2.9521946E1,2.0167828E1,6.8896174E0,2.1978243E1,7.542308E0,2.197964E1,1.7462797E1,4.5154457E0,5.7656617E0,1.7766461E0,8.302191E0,1.3677447E1,1.187045E1,5.592347E0,3.4301593E0,1.0852865E0,1.1756365E1,1.9210826E0,1.044099E1,1.3153744E0],"tree_param":{"num_deleted":"0","num_feature":"20","num_nodes":"25","size_leaf_vector":"1"}},{"base_weights":[5.219736E-2,-1.6983105E-1,8.198768E-1,-9.163789E-1,7.861756E-2,4.1480106E-1,4.927202E-2,-9.958019E-1,-6.694426E-4,2.8343764E-1,-3.6434203E-1,1.3953805E-2,3.5125975E-2,-5.171072E-2,-1.8420955E-2,1.5360399E-1,4.6322767E-2,-6.51904E-1,4.327832E-1,-1.5936192E-2,2.1907402E-2,9.791293E-3,3.0444674E-3,-8.6993456E-1,2.1813475E-1,5.1124554E-2,3.746271E-2,-5.0289072E-2,-8.34343E-3,2.3759129E-2,-8.656557E-3,-1.4088491E-2,2.302154E-2],"categories":[],"categories_nodes":[],"categories_segments":[],"categories_sizes":[],"default_left":[0,0,0,0,0,0,0,0,0,0,0,0,0,0,0,0,0,0,0,0,0,0,0,0,0,0,0,0,0,0,0,0,0],"id":40,"left_children":[1,3,5,7,9,11,-1,13,-1,15,17,19,-1,-1,-1,21,-1,23,25,-1,-1,-1,-1,27,29,31,-1,-1,-1,-1,-1,-1,-1],"loss_changes":[1.7381454E1,1.4779335E1,1.1247206E0,1.4123173E0,5.5845585E0,9.544796E-1,0E0,5.897522E-2,0E0,3.353648E0,4.761173E0,7.7665216E-1,0E0,0E0,0E0,1.291545E-1,0E0,2.9894352E0,6.5998185E-1,0E0,0E0,0E0,0E0,9.7845745E-1,4.60119E-1,6.3305926E-1,0E0,0E0,0E0,0E0,0E0,0E0,0E0],"parents":[2147483647,0,0,1,1,2,2,3,3,4,4,5,5,7,7,9,9,10,10,11,11,15,15,17,17,18,18,23,23,24,24,25,25],"right_children":[2,4,6,8,10,12,-1,14,-1,16,18,20,-1,-1,-1,22,-1,24,26,-1,-1,-1,-1,28,30,32,-1,-1,-1,-1,-1,-1,-1],"split_conditions":[1E0,1E0,1E0,1E0,1E0,1E0,4.927202E-2,-2.993445E-1,-6.694426E-4,1E0,1E0,1E0,3.5125975E-2,-5.171072E-2,-1.8420955E-2,-5.705054E-1,4.6322767E-2,1E0,1E0,-1.5936192E-2,2.1907402E-2,9.791293E-3,3.0444674E-3,1E0,1.3276207E0,1E0,3.746271E-2,-5.0289072E-2,-8.34343E-3,2.3759129E-2,-8.656557E-3,-1.4088491E-2,2.302154E-2],"split_indices":[5,18,4,6,13,3,0,9,0,19,1,1,0,0,0,9,0,8,7,0,0,0,0,2,9,4,0,0,0,0,0,0,0],"split_type":[0,0,0,0,0,0,0,0,0,0,0,0,0,0,0,0,0,0,0,0,0,0,0,0,0,0,0,0,0,0,0,0,0],"sum_hessian":[1.0015901E2,7.829367E1,2.186534E1,1.8878483E1,5.9415188E1,7.360987E0,1.4504353E1,1.7257782E1,1.6207014E0,4.0875088E1,1.8540104E1,3.5139189E0,3.8470685E0,1.5651063E1,1.6067184E0,3.5039112E1,5.835974E0,1.375881E1,4.781293E0,2.108751E0,1.4051677E0,2.3311165E1,1.1727947E1,1.1001875E1,2.7569351E0,2.6939642E0,2.087329E0,8.859477E0,2.142398E0,1.5344083E0,1.2225267E0,1.6574936E0,1.0364705E0],"tree_param":{"num_deleted":"0","num_feature":"20","num_nodes":"33","size_leaf_vector":"1"}},{"base_weights":[2.1479895E-2,-4.2670572E-1,5.04933E-1,-5.9209943E-2,-4.6878025E-2,-4.4656962E-2,8.7021583E-1,-4.815213E-2,2.3731728E-1,-4.5624956E-2,2.864869E-1,4.4139925E-1,5.1307637E-2,4.797406E-1,-6.238305E-1,4.5284264E-2,8.2007627E-4,-9.916398E-2,4.6444718E-2,2.2705421E-1,4.784286E-2,-4.4651203E-2,1.6216947E-2,-5.4940987E-1,3.342777E-2,6.108944E-3,3.8563028E-2,-4.553836E-4,-3.669059E-2],"categories":[],"categories_nodes":[],"categories_segments":[],"categories_sizes":[],"default_left":[0,0,0,0,0,0,0,0,0,0,0,0,0,0,0,0,0,0,0,0,0,0,0,0,0,0,0,0,0],"id":41,"left_children":[1,3,5,7,-1,9,11,-1,13,-1,15,17,-1,19,21,-1,-1,23,-1,25,-1,-1,-1,27,-1,-1,-1,-1,-1],"loss_changes":[2.2063221E1,9.8694E0,9.868889E0,8.755229E0,0E0,6.153171E0,1.517231E0,0E0,5.467757E0,0E0,2.594095E0,2.625064E0,0E0,2.180027E0,1.7887471E0,0E0,0E0,2.2551188E0,0E0,7.225394E-1,0E0,0E0,0E0,3.909912E-1,0E0,0E0,0E0,0E0,0E0],"parents":[2147483647,0,0,1,1,2,2,3,3,5,5,6,6,8,8,10,10,11,11,13,13,14,14,17,17,19,19,23,23],"right_children":[2,4,6,8,-1,10,12,-1,14,-1,16,18,-1,20,22,-1,-1,24,-1,26,-1,-1,-1,28,-1,-1,-1,-1,-1],"split_conditions":[-6.315179E-2,-7.636127E-1,1E0,1E0,-4.6878025E-2,1E0,1E0,-4.815213E-2,1E0,-4.5624956E-2,6.3730913E-1,1E0,5.1307637E-2,-1.1138432E0,1E0,4.5284264E-2,8.2007627E-4,1E0,4.6444718E-2,-5.705054E-1,4.784286E-2,-4.4651203E-2,1.6216947E-2,2.8707865E-1,3.342777E-2,6.108944E-3,3.8563028E-2,-4.553836E-4,-3.669059E-2],"split_indices":[10,10,14,18,0,18,6,0,13,0,10,3,0,10,2,0,0,5,0,9,0,0,0,10,0,0,0,0,0],"split_type":[0,0,0,0,0,0,0,0,0,0,0,0,0,0,0,0,0,0,0,0,0,0,0,0,0,0,0,0,0],"sum_hessian":[9.983115E1,5.1866055E1,4.796509E1,3.0814674E1,2.105138E1,1.9501564E1,2.8463528E1,7.0569453E0,2.3757729E1,4.901198E0,1.4600366E1,8.6119175E0,1.985161E1,1.888444E1,4.8732886E0,3.7195613E0,1.0880804E1,4.4614186E0,4.150499E0,1.3310785E1,5.5736547E0,3.840965E0,1.0323235E0,2.9914048E0,1.470014E0,1.2186754E1,1.1240308E0,1.0281852E0,1.9632194E0],"tree_param":{"num_deleted":"0","num_feature":"20","num_nodes":"29","size_leaf_vector":"1"}},{"base_weights":[2.0050576E-2,-4.6344706E-1,5.029384E-1,-5.5343043E-2,-4.8779152E-2,1.6174707E-1,5.1101126E-2,-4.7342207E-2,2.4701658E-1,8.03027E-1,-2.0431767E-1,5.029779E-1,-3.2074362E-2,4.3704063E-2,9.903277E-3,-8.091946E-1,1.04106866E-1,2.3875089E-1,4.711127E-2,-4.537381E-2,-8.11797E-3,-6.369117E-3,3.20641E-2,1.1126927E-1,3.8696047E-2,1.4975475E-1,-2.9451787E-2,9.121107E-5,2.9702082E-2,6.8843004E-4,3.2835867E-2],"categories":[],"categories_nodes":[],"categories_segments":[],"categories_sizes":[],"default_left":[0,0,0,0,0,0,0,0,0,0,0,0,0,0,0,0,0,0,0,0,0,0,0,0,0,0,0,0,0,0,0],"id":42,"left_children":[1,3,5,7,-1,9,-1,-1,11,13,15,17,-1,-1,-1,19,21,23,-1,-1,-1,25,-1,27,-1,29,-1,-1,-1,-1,-1],"loss_changes":[2.292318E1,1.0204353E1,8.531054E0,7.882585E0,0E0,7.398131E0,0E0,0E0,5.3218765E0,3.1695795E-1,3.8928006E0,1.8207655E0,0E0,0E0,0E0,2.9818344E-1,8.590467E-1,7.561282E-1,0E0,0E0,0E0,1.2652793E0,0E0,5.874215E-1,0E0,7.49452E-1,0E0,0E0,0E0,0E0,0E0],"parents":[2147483647,0,0,1,1,2,2,3,3,5,5,8,8,9,9,10,10,11,11,15,15,16,16,17,17,21,21,23,23,25,25],"right_children":[2,4,6,8,-1,10,-1,-1,12,14,16,18,-1,-1,-1,20,22,24,-1,-1,-1,26,-1,28,-1,30,-1,-1,-1,-1,-1],"split_conditions":[-6.315179E-2,-7.636127E-1,1E0,1E0,-4.8779152E-2,6.3730913E-1,5.1101126E-2,-4.7342207E-2,1E0,1.8699424E0,1E0,-1.1138432E0,-3.2074362E-2,4.3704063E-2,9.903277E-3,1E0,1E0,-5.705054E-1,4.711127E-2,-4.537381E-2,-8.11797E-3,1E0,3.20641E-2,1E0,3.8696047E-2,1E0,-2.9451787E-2,9.121107E-5,2.9702082E-2,6.8843004E-4,3.2835867E-2],"split_indices":[10,10,5,18,0,10,0,0,11,9,18,10,0,0,0,12,7,9,0,0,0,11,0,19,0,19,0,0,0,0,0],"split_type":[0,0,0,0,0,0,0,0,0,0,0,0,0,0,0,0,0,0,0,0,0,0,0,0,0,0,0,0,0,0,0],"sum_hessian":[9.61842E1,4.8081867E1,4.8102325E1,2.7375395E1,2.0706472E1,2.9816013E1,1.8286314E1,6.3933167E0,2.0982079E1,1.0401236E1,1.9414778E1,1.6626266E1,4.355812E0,8.909891E0,1.4913442E0,6.008119E0,1.3406659E1,1.1345179E1,5.281088E0,4.8658433E0,1.1422755E0,1.1939344E1,1.4673146E0,1.0138116E1,1.207063E0,1.0002253E1,1.9370915E0,9.08281E0,